<?xml version="1.0"?>
<opencv_storage>
<opencv_ml_svm>
  <format>3</format>
  <svmType>C_SVC</svmType>
  <kernel>
    <type>INTER</type>
    <gamma>1.</gamma></kernel>
  <C>1.</C>
  <term_criteria><iterations>100</iterations></term_criteria>
  <var_count>256</var_count>
  <class_count>2</class_count>
  <class_labels type_id="opencv-matrix">
    <rows>2</rows>
    <cols>1</cols>
    <dt>i</dt>
    <data>
      -1082130432 1065353216</data></class_labels>
  <sv_total>190</sv_total>
  <support_vectors>
    <_>
      21. 6. 0. 0. 229. 0. 0. 0. 88. 0. 0. 0. 101. 0. 0. 0. 196. 0. 0.
      0. 20. 0. 0. 0. 111. 0. 0. 0. 133. 0. 0. 0. 115. 0. 0. 0. 27. 0.
      0. 0. 11. 0. 0. 0. 14. 0. 0. 0. 109. 0. 0. 0. 13. 0. 0. 0. 184. 0.
      0. 0. 247. 0. 0. 0. 243. 0. 0. 0. 45. 0. 0. 0. 20. 0. 0. 0. 14. 0.
      0. 0. 28. 0. 0. 0. 5. 0. 0. 0. 12. 0. 0. 0. 8. 0. 0. 0. 111. 0. 0.
      0. 19. 0. 0. 0. 18. 0. 0. 0. 21. 0. 0. 0. 118. 0. 0. 0. 17. 0. 0.
      0. 204. 0. 0. 0. 137. 0. 0. 0. 115. 0. 0. 0. 21. 0. 0. 0. 11. 0.
      0. 0. 8. 0. 0. 0. 12. 0. 0. 0. 2. 0. 0. 0. 7. 0. 0. 0. 9. 0. 0. 0.
      14. 0. 0. 0. 4. 0. 0. 0. 1. 0. 0. 0. 0. 0. 0. 0. 23. 0. 0. 0. 5.
      0. 0. 0. 17. 0. 0. 0. 22. 0. 0. 0. 118. 0. 0. 0. 20. 0. 0. 0. 7.
      0. 0. 0. 7. 0. 0. 0. 12. 0. 0. 0. 3. 0. 0. 0. 7. 0. 0. 0. 9. 0. 0.
      0. 208. 0. 0. 0. 16. 0. 0. 0. 11. 0. 0. 0. 18. 0. 0. 0. 162. 0. 0.
      0. 13. 0. 0. 0. 134. 0. 0. 0. 106. 0. 0. 0.</_>
    <_>
      11. 7. 0. 0. 248. 0. 0. 0. 140. 0. 0. 0. 130. 0. 0. 0. 202. 0. 0.
      0. 31. 0. 0. 0. 155. 0. 0. 0. 138. 0. 0. 0. 110. 0. 0. 0. 18. 0.
      0. 0. 31. 0. 0. 0. 31. 0. 0. 0. 111. 0. 0. 0. 17. 0. 0. 0. 239. 0.
      0. 0. 206. 0. 0. 0. 195. 0. 0. 0. 42. 0. 0. 0. 12. 0. 0. 0. 16. 0.
      0. 0. 22. 0. 0. 0. 0. 0. 0. 0. 14. 0. 0. 0. 10. 0. 0. 0. 106. 0.
      0. 0. 17. 0. 0. 0. 13. 0. 0. 0. 25. 0. 0. 0. 131. 0. 0. 0. 15. 0.
      0. 0. 193. 0. 0. 0. 182. 0. 0. 0. 115. 0. 0. 0. 19. 0. 0. 0. 11.
      0. 0. 0. 15. 0. 0. 0. 13. 0. 0. 0. 3. 0. 0. 0. 9. 0. 0. 0. 9. 0.
      0. 0. 29. 0. 0. 0. 2. 0. 0. 0. 4. 0. 0. 0. 1. 0. 0. 0. 15. 0. 0.
      0. 5. 0. 0. 0. 20. 0. 0. 0. 11. 0. 0. 0. 94. 0. 0. 0. 20. 0. 0. 0.
      5. 0. 0. 0. 6. 0. 0. 0. 13. 0. 0. 0. 2. 0. 0. 0. 10. 0. 0. 0. 3.
      0. 0. 0. 109. 0. 0. 0. 20. 0. 0. 0. 19. 0. 0. 0. 22. 0. 0. 0. 122.
      0. 0. 0. 7. 0. 0. 0. 118. 0. 0. 0. 101. 0. 0. 0.</_>
    <_>
      66. 2. 0. 0. 70. 0. 0. 0. 67. 0. 0. 0. 141. 0. 0. 0. 90. 0. 0. 0.
      1. 0. 0. 0. 87. 0. 0. 0. 236. 0. 0. 0. 51. 0. 0. 0. 2. 0. 0. 0. 4.
      0. 0. 0. 6. 0. 0. 0. 108. 0. 0. 0. 0. 0. 0. 0. 52. 1. 0. 0. 181.
      1. 0. 0. 71. 0. 0. 0. 3. 0. 0. 0. 3. 0. 0. 0. 4. 0. 0. 0. 2. 0. 0.
      0. 0. 0. 0. 0. 3. 0. 0. 0. 0. 0. 0. 0. 116. 0. 0. 0. 2. 0. 0. 0.
      7. 0. 0. 0. 7. 0. 0. 0. 254. 0. 0. 0. 0. 0. 0. 0. 108. 1. 0. 0.
      95. 0. 0. 0. 69. 0. 0. 0. 3. 0. 0. 0. 11. 0. 0. 0. 5. 0. 0. 0. 0.
      0. 0. 0. 0. 0. 0. 0. 2. 0. 0. 0. 4. 0. 0. 0. 5. 0. 0. 0. 0. 0. 0.
      0. 0. 0. 0. 0. 1. 0. 0. 0. 4. 0. 0. 0. 0. 0. 0. 0. 15. 0. 0. 0. 3.
      0. 0. 0. 145. 0. 0. 0. 2. 0. 0. 0. 6. 0. 0. 0. 0. 0. 0. 0. 1. 0.
      0. 0. 0. 0. 0. 0. 2. 0. 0. 0. 1. 0. 0. 0. 20. 2. 0. 0. 2. 0. 0. 0.
      16. 0. 0. 0. 6. 0. 0. 0. 5. 3. 0. 0. 1. 0. 0. 0. 28. 1. 0. 0. 44.
      0. 0. 0.</_>
    <_>
      136. 6. 0. 0. 180. 0. 0. 0. 94. 0. 0. 0. 106. 0. 0. 0. 229. 0. 0.
      0. 16. 0. 0. 0. 93. 0. 0. 0. 96. 0. 0. 0. 117. 0. 0. 0. 13. 0. 0.
      0. 19. 0. 0. 0. 16. 0. 0. 0. 140. 0. 0. 0. 2. 0. 0. 0. 176. 0. 0.
      0. 126. 0. 0. 0. 226. 0. 0. 0. 35. 0. 0. 0. 17. 0. 0. 0. 12. 0. 0.
      0. 19. 0. 0. 0. 4. 0. 0. 0. 7. 0. 0. 0. 8. 0. 0. 0. 168. 0. 0. 0.
      17. 0. 0. 0. 17. 0. 0. 0. 31. 0. 0. 0. 174. 0. 0. 0. 5. 0. 0. 0.
      153. 0. 0. 0. 100. 0. 0. 0. 136. 0. 0. 0. 21. 0. 0. 0. 10. 0. 0.
      0. 10. 0. 0. 0. 21. 0. 0. 0. 3. 0. 0. 0. 9. 0. 0. 0. 4. 0. 0. 0.
      27. 0. 0. 0. 4. 0. 0. 0. 1. 0. 0. 0. 2. 0. 0. 0. 27. 0. 0. 0. 2.
      0. 0. 0. 26. 0. 0. 0. 16. 0. 0. 0. 143. 0. 0. 0. 11. 0. 0. 0. 19.
      0. 0. 0. 11. 0. 0. 0. 13. 0. 0. 0. 1. 0. 0. 0. 5. 0. 0. 0. 5. 0.
      0. 0. 30. 1. 0. 0. 33. 0. 0. 0. 24. 0. 0. 0. 30. 0. 0. 0. 11. 1.
      0. 0. 14. 0. 0. 0. 217. 0. 0. 0. 90. 0. 0. 0.</_>
    <_>
      2. 2. 0. 0. 114. 0. 0. 0. 48. 0. 0. 0. 131. 0. 0. 0. 87. 0. 0. 0.
      5. 0. 0. 0. 107. 0. 0. 0. 29. 1. 0. 0. 46. 0. 0. 0. 6. 0. 0. 0. 4.
      0. 0. 0. 1. 0. 0. 0. 110. 0. 0. 0. 0. 0. 0. 0. 87. 1. 0. 0. 221.
      1. 0. 0. 105. 0. 0. 0. 9. 0. 0. 0. 0. 0. 0. 0. 6. 0. 0. 0. 4. 0.
      0. 0. 0. 0. 0. 0. 0. 0. 0. 0. 1. 0. 0. 0. 120. 0. 0. 0. 4. 0. 0.
      0. 6. 0. 0. 0. 7. 0. 0. 0. 3. 1. 0. 0. 1. 0. 0. 0. 230. 1. 0. 0.
      108. 0. 0. 0. 45. 0. 0. 0. 5. 0. 0. 0. 4. 0. 0. 0. 5. 0. 0. 0. 5.
      0. 0. 0. 0. 0. 0. 0. 7. 0. 0. 0. 3. 0. 0. 0. 2. 0. 0. 0. 0. 0. 0.
      0. 0. 0. 0. 0. 0. 0. 0. 0. 7. 0. 0. 0. 0. 0. 0. 0. 11. 0. 0. 0. 7.
      0. 0. 0. 123. 0. 0. 0. 2. 0. 0. 0. 6. 0. 0. 0. 5. 0. 0. 0. 3. 0.
      0. 0. 0. 0. 0. 0. 3. 0. 0. 0. 1. 0. 0. 0. 104. 1. 0. 0. 5. 0. 0.
      0. 14. 0. 0. 0. 4. 0. 0. 0. 59. 2. 0. 0. 1. 0. 0. 0. 253. 0. 0. 0.
      66. 0. 0. 0.</_>
    <_>
      88. 5. 0. 0. 221. 0. 0. 0. 80. 0. 0. 0. 123. 0. 0. 0. 158. 0. 0.
      0. 20. 0. 0. 0. 95. 0. 0. 0. 116. 0. 0. 0. 96. 0. 0. 0. 10. 0. 0.
      0. 10. 0. 0. 0. 15. 0. 0. 0. 98. 0. 0. 0. 18. 0. 0. 0. 211. 0. 0.
      0. 178. 0. 0. 0. 217. 0. 0. 0. 56. 0. 0. 0. 16. 0. 0. 0. 14. 0. 0.
      0. 20. 0. 0. 0. 2. 0. 0. 0. 7. 0. 0. 0. 8. 0. 0. 0. 104. 0. 0. 0.
      16. 0. 0. 0. 15. 0. 0. 0. 26. 0. 0. 0. 118. 0. 0. 0. 11. 0. 0. 0.
      207. 0. 0. 0. 170. 0. 0. 0. 104. 0. 0. 0. 17. 0. 0. 0. 3. 0. 0. 0.
      2. 0. 0. 0. 13. 0. 0. 0. 3. 0. 0. 0. 3. 0. 0. 0. 5. 0. 0. 0. 16.
      0. 0. 0. 5. 0. 0. 0. 0. 0. 0. 0. 6. 0. 0. 0. 24. 0. 0. 0. 4. 0. 0.
      0. 23. 0. 0. 0. 14. 0. 0. 0. 144. 0. 0. 0. 14. 0. 0. 0. 4. 0. 0.
      0. 8. 0. 0. 0. 12. 0. 0. 0. 0. 0. 0. 0. 2. 0. 0. 0. 4. 0. 0. 0. 4.
      1. 0. 0. 15. 0. 0. 0. 21. 0. 0. 0. 15. 0. 0. 0. 239. 0. 0. 0. 12.
      0. 0. 0. 121. 0. 0. 0. 91. 0. 0. 0.</_>
    <_>
      235. 5. 0. 0. 152. 0. 0. 0. 105. 0. 0. 0. 147. 0. 0. 0. 136. 0. 0.
      0. 17. 0. 0. 0. 117. 0. 0. 0. 164. 0. 0. 0. 100. 0. 0. 0. 5. 0. 0.
      0. 9. 0. 0. 0. 16. 0. 0. 0. 131. 0. 0. 0. 6. 0. 0. 0. 50. 1. 0. 0.
      14. 1. 0. 0. 170. 0. 0. 0. 21. 0. 0. 0. 7. 0. 0. 0. 13. 0. 0. 0.
      23. 0. 0. 0. 1. 0. 0. 0. 7. 0. 0. 0. 8. 0. 0. 0. 144. 0. 0. 0. 10.
      0. 0. 0. 13. 0. 0. 0. 16. 0. 0. 0. 185. 0. 0. 0. 11. 0. 0. 0. 207.
      1. 0. 0. 142. 0. 0. 0. 116. 0. 0. 0. 11. 0. 0. 0. 9. 0. 0. 0. 3.
      0. 0. 0. 17. 0. 0. 0. 1. 0. 0. 0. 7. 0. 0. 0. 3. 0. 0. 0. 18. 0.
      0. 0. 4. 0. 0. 0. 1. 0. 0. 0. 4. 0. 0. 0. 21. 0. 0. 0. 2. 0. 0. 0.
      19. 0. 0. 0. 21. 0. 0. 0. 132. 0. 0. 0. 12. 0. 0. 0. 10. 0. 0. 0.
      5. 0. 0. 0. 11. 0. 0. 0. 1. 0. 0. 0. 3. 0. 0. 0. 0. 0. 0. 0. 15.
      1. 0. 0. 11. 0. 0. 0. 14. 0. 0. 0. 14. 0. 0. 0. 3. 1. 0. 0. 15. 0.
      0. 0. 196. 0. 0. 0. 69. 0. 0. 0.</_>
    <_>
      240. 3. 0. 0. 117. 0. 0. 0. 93. 0. 0. 0. 133. 0. 0. 0. 164. 0. 0.
      0. 12. 0. 0. 0. 109. 0. 0. 0. 180. 0. 0. 0. 114. 0. 0. 0. 8. 0. 0.
      0. 9. 0. 0. 0. 13. 0. 0. 0. 172. 0. 0. 0. 8. 0. 0. 0. 123. 1. 0.
      0. 85. 1. 0. 0. 137. 0. 0. 0. 15. 0. 0. 0. 6. 0. 0. 0. 10. 0. 0.
      0. 16. 0. 0. 0. 1. 0. 0. 0. 7. 0. 0. 0. 9. 0. 0. 0. 193. 0. 0. 0.
      13. 0. 0. 0. 12. 0. 0. 0. 15. 0. 0. 0. 6. 1. 0. 0. 5. 0. 0. 0. 60.
      2. 0. 0. 166. 0. 0. 0. 101. 0. 0. 0. 12. 0. 0. 0. 10. 0. 0. 0. 7.
      0. 0. 0. 3. 0. 0. 0. 1. 0. 0. 0. 8. 0. 0. 0. 3. 0. 0. 0. 23. 0. 0.
      0. 2. 0. 0. 0. 1. 0. 0. 0. 0. 0. 0. 0. 19. 0. 0. 0. 0. 0. 0. 0.
      16. 0. 0. 0. 14. 0. 0. 0. 162. 0. 0. 0. 4. 0. 0. 0. 5. 0. 0. 0. 6.
      0. 0. 0. 9. 0. 0. 0. 0. 0. 0. 0. 4. 0. 0. 0. 8. 0. 0. 0. 174. 1.
      0. 0. 14. 0. 0. 0. 14. 0. 0. 0. 11. 0. 0. 0. 216. 1. 0. 0. 10. 0.
      0. 0. 39. 1. 0. 0. 90. 0. 0. 0.</_>
    <_>
      107. 3. 0. 0. 163. 0. 0. 0. 87. 0. 0. 0. 175. 0. 0. 0. 100. 0. 0.
      0. 5. 0. 0. 0. 129. 0. 0. 0. 14. 1. 0. 0. 63. 0. 0. 0. 4. 0. 0. 0.
      10. 0. 0. 0. 6. 0. 0. 0. 94. 0. 0. 0. 6. 0. 0. 0. 205. 1. 0. 0.
      194. 2. 0. 0. 134. 0. 0. 0. 20. 0. 0. 0. 10. 0. 0. 0. 6. 0. 0. 0.
      2. 0. 0. 0. 0. 0. 0. 0. 6. 0. 0. 0. 7. 0. 0. 0. 118. 0. 0. 0. 6.
      0. 0. 0. 9. 0. 0. 0. 16. 0. 0. 0. 156. 0. 0. 0. 3. 0. 0. 0. 96. 1.
      0. 0. 181. 0. 0. 0. 54. 0. 0. 0. 2. 0. 0. 0. 9. 0. 0. 0. 4. 0. 0.
      0. 7. 0. 0. 0. 1. 0. 0. 0. 5. 0. 0. 0. 3. 0. 0. 0. 5. 0. 0. 0. 0.
      0. 0. 0. 0. 0. 0. 0. 3. 0. 0. 0. 8. 0. 0. 0. 0. 0. 0. 0. 14. 0. 0.
      0. 12. 0. 0. 0. 105. 0. 0. 0. 6. 0. 0. 0. 2. 0. 0. 0. 7. 0. 0. 0.
      1. 0. 0. 0. 0. 0. 0. 0. 1. 0. 0. 0. 3. 0. 0. 0. 244. 0. 0. 0. 6.
      0. 0. 0. 13. 0. 0. 0. 8. 0. 0. 0. 7. 1. 0. 0. 0. 0. 0. 0. 205. 0.
      0. 0. 42. 0. 0. 0.</_>
    <_>
      105. 3. 0. 0. 59. 0. 0. 0. 75. 0. 0. 0. 104. 0. 0. 0. 67. 0. 0. 0.
      0. 0. 0. 0. 125. 0. 0. 0. 205. 0. 0. 0. 68. 0. 0. 0. 3. 0. 0. 0.
      7. 0. 0. 0. 5. 0. 0. 0. 119. 0. 0. 0. 1. 0. 0. 0. 159. 1. 0. 0.
      236. 2. 0. 0. 60. 0. 0. 0. 4. 0. 0. 0. 2. 0. 0. 0. 3. 0. 0. 0. 0.
      0. 0. 0. 0. 0. 0. 0. 1. 0. 0. 0. 0. 0. 0. 0. 106. 0. 0. 0. 3. 0.
      0. 0. 1. 0. 0. 0. 5. 0. 0. 0. 224. 0. 0. 0. 0. 0. 0. 0. 189. 2. 0.
      0. 125. 0. 0. 0. 66. 0. 0. 0. 1. 0. 0. 0. 11. 0. 0. 0. 13. 0. 0.
      0. 4. 0. 0. 0. 0. 0. 0. 0. 4. 0. 0. 0. 0. 0. 0. 0. 4. 0. 0. 0. 0.
      0. 0. 0. 0. 0. 0. 0. 0. 0. 0. 0. 3. 0. 0. 0. 0. 0. 0. 0. 20. 0. 0.
      0. 5. 0. 0. 0. 114. 0. 0. 0. 4. 0. 0. 0. 3. 0. 0. 0. 2. 0. 0. 0.
      0. 0. 0. 0. 0. 0. 0. 0. 1. 0. 0. 0. 0. 0. 0. 0. 175. 1. 0. 0. 4.
      0. 0. 0. 17. 0. 0. 0. 4. 0. 0. 0. 94. 2. 0. 0. 0. 0. 0. 0. 36. 1.
      0. 0. 42. 0. 0. 0.</_>
    <_>
      199. 5. 0. 0. 192. 0. 0. 0. 108. 0. 0. 0. 124. 0. 0. 0. 203. 0. 0.
      0. 16. 0. 0. 0. 134. 0. 0. 0. 149. 0. 0. 0. 118. 0. 0. 0. 17. 0.
      0. 0. 15. 0. 0. 0. 20. 0. 0. 0. 139. 0. 0. 0. 22. 0. 0. 0. 196. 0.
      0. 0. 244. 0. 0. 0. 221. 0. 0. 0. 34. 0. 0. 0. 11. 0. 0. 0. 16. 0.
      0. 0. 22. 0. 0. 0. 2. 0. 0. 0. 14. 0. 0. 0. 9. 0. 0. 0. 170. 0. 0.
      0. 12. 0. 0. 0. 19. 0. 0. 0. 14. 0. 0. 0. 119. 0. 0. 0. 4. 0. 0.
      0. 195. 0. 0. 0. 165. 0. 0. 0. 95. 0. 0. 0. 19. 0. 0. 0. 8. 0. 0.
      0. 11. 0. 0. 0. 21. 0. 0. 0. 1. 0. 0. 0. 8. 0. 0. 0. 10. 0. 0. 0.
      19. 0. 0. 0. 7. 0. 0. 0. 0. 0. 0. 0. 2. 0. 0. 0. 16. 0. 0. 0. 2.
      0. 0. 0. 16. 0. 0. 0. 24. 0. 0. 0. 110. 0. 0. 0. 14. 0. 0. 0. 6.
      0. 0. 0. 8. 0. 0. 0. 12. 0. 0. 0. 1. 0. 0. 0. 11. 0. 0. 0. 2. 0.
      0. 0. 224. 0. 0. 0. 19. 0. 0. 0. 15. 0. 0. 0. 19. 0. 0. 0. 249. 0.
      0. 0. 6. 0. 0. 0. 161. 0. 0. 0. 130. 0. 0. 0.</_>
    <_>
      50. 3. 0. 0. 132. 0. 0. 0. 81. 0. 0. 0. 165. 0. 0. 0. 188. 0. 0.
      0. 7. 0. 0. 0. 132. 0. 0. 0. 208. 0. 0. 0. 52. 0. 0. 0. 5. 0. 0.
      0. 5. 0. 0. 0. 9. 0. 0. 0. 119. 0. 0. 0. 6. 0. 0. 0. 234. 0. 0. 0.
      37. 1. 0. 0. 102. 0. 0. 0. 13. 0. 0. 0. 8. 0. 0. 0. 8. 0. 0. 0.
      13. 0. 0. 0. 0. 0. 0. 0. 7. 0. 0. 0. 3. 0. 0. 0. 115. 0. 0. 0. 4.
      0. 0. 0. 14. 0. 0. 0. 11. 0. 0. 0. 251. 0. 0. 0. 3. 0. 0. 0. 31.
      1. 0. 0. 144. 0. 0. 0. 66. 0. 0. 0. 14. 0. 0. 0. 6. 0. 0. 0. 9. 0.
      0. 0. 9. 0. 0. 0. 1. 0. 0. 0. 5. 0. 0. 0. 2. 0. 0. 0. 4. 0. 0. 0.
      0. 0. 0. 0. 0. 0. 0. 0. 3. 0. 0. 0. 9. 0. 0. 0. 0. 0. 0. 0. 17. 0.
      0. 0. 16. 0. 0. 0. 111. 0. 0. 0. 11. 0. 0. 0. 5. 0. 0. 0. 6. 0. 0.
      0. 7. 0. 0. 0. 0. 0. 0. 0. 6. 0. 0. 0. 2. 0. 0. 0. 62. 1. 0. 0.
      13. 0. 0. 0. 17. 0. 0. 0. 12. 0. 0. 0. 209. 1. 0. 0. 5. 0. 0. 0.
      40. 1. 0. 0. 89. 0. 0. 0.</_>
    <_>
      56. 4. 0. 0. 150. 0. 0. 0. 106. 0. 0. 0. 117. 0. 0. 0. 178. 0. 0.
      0. 16. 0. 0. 0. 127. 0. 0. 0. 200. 0. 0. 0. 102. 0. 0. 0. 8. 0. 0.
      0. 27. 0. 0. 0. 14. 0. 0. 0. 165. 0. 0. 0. 12. 0. 0. 0. 140. 1. 0.
      0. 206. 1. 0. 0. 152. 0. 0. 0. 22. 0. 0. 0. 16. 0. 0. 0. 9. 0. 0.
      0. 17. 0. 0. 0. 2. 0. 0. 0. 20. 0. 0. 0. 11. 0. 0. 0. 145. 0. 0.
      0. 11. 0. 0. 0. 16. 0. 0. 0. 15. 0. 0. 0. 241. 0. 0. 0. 6. 0. 0.
      0. 42. 2. 0. 0. 14. 1. 0. 0. 75. 0. 0. 0. 11. 0. 0. 0. 3. 0. 0. 0.
      5. 0. 0. 0. 4. 0. 0. 0. 1. 0. 0. 0. 6. 0. 0. 0. 4. 0. 0. 0. 21. 0.
      0. 0. 2. 0. 0. 0. 5. 0. 0. 0. 3. 0. 0. 0. 10. 0. 0. 0. 0. 0. 0. 0.
      23. 0. 0. 0. 19. 0. 0. 0. 119. 0. 0. 0. 7. 0. 0. 0. 0. 0. 0. 0. 4.
      0. 0. 0. 12. 0. 0. 0. 0. 0. 0. 0. 6. 0. 0. 0. 2. 0. 0. 0. 224. 0.
      0. 0. 12. 0. 0. 0. 16. 0. 0. 0. 16. 0. 0. 0. 59. 1. 0. 0. 6. 0. 0.
      0. 24. 1. 0. 0. 144. 0. 0. 0.</_>
    <_>
      240. 7. 0. 0. 197. 0. 0. 0. 128. 0. 0. 0. 128. 0. 0. 0. 210. 0. 0.
      0. 21. 0. 0. 0. 129. 0. 0. 0. 129. 0. 0. 0. 137. 0. 0. 0. 14. 0.
      0. 0. 21. 0. 0. 0. 18. 0. 0. 0. 133. 0. 0. 0. 10. 0. 0. 0. 222. 0.
      0. 0. 212. 0. 0. 0. 199. 0. 0. 0. 31. 0. 0. 0. 12. 0. 0. 0. 10. 0.
      0. 0. 26. 0. 0. 0. 4. 0. 0. 0. 19. 0. 0. 0. 13. 0. 0. 0. 131. 0.
      0. 0. 14. 0. 0. 0. 20. 0. 0. 0. 33. 0. 0. 0. 117. 0. 0. 0. 7. 0.
      0. 0. 235. 0. 0. 0. 156. 0. 0. 0. 137. 0. 0. 0. 19. 0. 0. 0. 17.
      0. 0. 0. 7. 0. 0. 0. 23. 0. 0. 0. 1. 0. 0. 0. 13. 0. 0. 0. 8. 0.
      0. 0. 25. 0. 0. 0. 1. 0. 0. 0. 4. 0. 0. 0. 4. 0. 0. 0. 22. 0. 0.
      0. 3. 0. 0. 0. 31. 0. 0. 0. 24. 0. 0. 0. 110. 0. 0. 0. 19. 0. 0.
      0. 6. 0. 0. 0. 13. 0. 0. 0. 11. 0. 0. 0. 2. 0. 0. 0. 9. 0. 0. 0.
      5. 0. 0. 0. 190. 0. 0. 0. 20. 0. 0. 0. 31. 0. 0. 0. 31. 0. 0. 0.
      146. 0. 0. 0. 18. 0. 0. 0. 150. 0. 0. 0. 95. 0. 0. 0.</_>
    <_>
      200. 2. 0. 0. 72. 0. 0. 0. 70. 0. 0. 0. 143. 0. 0. 0. 56. 0. 0. 0.
      3. 0. 0. 0. 101. 0. 0. 0. 3. 1. 0. 0. 63. 0. 0. 0. 3. 0. 0. 0. 6.
      0. 0. 0. 6. 0. 0. 0. 111. 0. 0. 0. 1. 0. 0. 0. 114. 1. 0. 0. 220.
      1. 0. 0. 74. 0. 0. 0. 3. 0. 0. 0. 1. 0. 0. 0. 4. 0. 0. 0. 1. 0. 0.
      0. 0. 0. 0. 0. 6. 0. 0. 0. 1. 0. 0. 0. 132. 0. 0. 0. 5. 0. 0. 0.
      5. 0. 0. 0. 7. 0. 0. 0. 238. 0. 0. 0. 1. 0. 0. 0. 194. 1. 0. 0.
      116. 0. 0. 0. 71. 0. 0. 0. 3. 0. 0. 0. 11. 0. 0. 0. 5. 0. 0. 0. 5.
      0. 0. 0. 0. 0. 0. 0. 4. 0. 0. 0. 4. 0. 0. 0. 6. 0. 0. 0. 0. 0. 0.
      0. 0. 0. 0. 0. 0. 0. 0. 0. 7. 0. 0. 0. 0. 0. 0. 0. 13. 0. 0. 0. 5.
      0. 0. 0. 143. 0. 0. 0. 8. 0. 0. 0. 6. 0. 0. 0. 5. 0. 0. 0. 2. 0.
      0. 0. 0. 0. 0. 0. 0. 0. 0. 0. 3. 0. 0. 0. 30. 2. 0. 0. 4. 0. 0. 0.
      15. 0. 0. 0. 5. 0. 0. 0. 100. 2. 0. 0. 0. 0. 0. 0. 29. 1. 0. 0.
      59. 0. 0. 0.</_>
    <_>
      226. 5. 0. 0. 176. 0. 0. 0. 100. 0. 0. 0. 100. 0. 0. 0. 194. 0. 0.
      0. 17. 0. 0. 0. 112. 0. 0. 0. 123. 0. 0. 0. 135. 0. 0. 0. 18. 0.
      0. 0. 19. 0. 0. 0. 15. 0. 0. 0. 145. 0. 0. 0. 9. 0. 0. 0. 247. 0.
      0. 0. 234. 0. 0. 0. 222. 0. 0. 0. 28. 0. 0. 0. 12. 0. 0. 0. 11. 0.
      0. 0. 15. 0. 0. 0. 4. 0. 0. 0. 6. 0. 0. 0. 7. 0. 0. 0. 151. 0. 0.
      0. 12. 0. 0. 0. 15. 0. 0. 0. 22. 0. 0. 0. 195. 0. 0. 0. 13. 0. 0.
      0. 29. 1. 0. 0. 183. 0. 0. 0. 113. 0. 0. 0. 16. 0. 0. 0. 4. 0. 0.
      0. 3. 0. 0. 0. 17. 0. 0. 0. 2. 0. 0. 0. 8. 0. 0. 0. 8. 0. 0. 0.
      32. 0. 0. 0. 3. 0. 0. 0. 2. 0. 0. 0. 4. 0. 0. 0. 27. 0. 0. 0. 2.
      0. 0. 0. 20. 0. 0. 0. 27. 0. 0. 0. 149. 0. 0. 0. 16. 0. 0. 0. 10.
      0. 0. 0. 4. 0. 0. 0. 18. 0. 0. 0. 2. 0. 0. 0. 6. 0. 0. 0. 4. 0. 0.
      0. 43. 1. 0. 0. 29. 0. 0. 0. 21. 0. 0. 0. 21. 0. 0. 0. 102. 1. 0.
      0. 14. 0. 0. 0. 200. 0. 0. 0. 111. 0. 0. 0.</_>
    <_>
      56. 6. 0. 0. 165. 0. 0. 0. 77. 0. 0. 0. 100. 0. 0. 0. 213. 0. 0.
      0. 24. 0. 0. 0. 125. 0. 0. 0. 119. 0. 0. 0. 130. 0. 0. 0. 17. 0.
      0. 0. 24. 0. 0. 0. 12. 0. 0. 0. 160. 0. 0. 0. 12. 0. 0. 0. 175. 0.
      0. 0. 144. 0. 0. 0. 249. 0. 0. 0. 31. 0. 0. 0. 10. 0. 0. 0. 15. 0.
      0. 0. 33. 0. 0. 0. 4. 0. 0. 0. 10. 0. 0. 0. 13. 0. 0. 0. 153. 0.
      0. 0. 18. 0. 0. 0. 34. 0. 0. 0. 27. 0. 0. 0. 172. 0. 0. 0. 15. 0.
      0. 0. 185. 0. 0. 0. 132. 0. 0. 0. 125. 0. 0. 0. 14. 0. 0. 0. 14.
      0. 0. 0. 6. 0. 0. 0. 29. 0. 0. 0. 0. 0. 0. 0. 6. 0. 0. 0. 6. 0. 0.
      0. 24. 0. 0. 0. 8. 0. 0. 0. 5. 0. 0. 0. 3. 0. 0. 0. 22. 0. 0. 0.
      4. 0. 0. 0. 26. 0. 0. 0. 21. 0. 0. 0. 122. 0. 0. 0. 15. 0. 0. 0.
      12. 0. 0. 0. 10. 0. 0. 0. 10. 0. 0. 0. 3. 0. 0. 0. 5. 0. 0. 0. 4.
      0. 0. 0. 12. 1. 0. 0. 24. 0. 0. 0. 37. 0. 0. 0. 23. 0. 0. 0. 28.
      1. 0. 0. 17. 0. 0. 0. 201. 0. 0. 0. 126. 0. 0. 0.</_>
    <_>
      44. 5. 0. 0. 159. 0. 0. 0. 79. 0. 0. 0. 161. 0. 0. 0. 231. 0. 0.
      0. 14. 0. 0. 0. 97. 0. 0. 0. 184. 0. 0. 0. 57. 0. 0. 0. 10. 0. 0.
      0. 3. 0. 0. 0. 6. 0. 0. 0. 69. 0. 0. 0. 5. 0. 0. 0. 123. 0. 0. 0.
      244. 0. 0. 0. 101. 0. 0. 0. 14. 0. 0. 0. 7. 0. 0. 0. 13. 0. 0. 0.
      9. 0. 0. 0. 1. 0. 0. 0. 1. 0. 0. 0. 6. 0. 0. 0. 100. 0. 0. 0. 12.
      0. 0. 0. 7. 0. 0. 0. 8. 0. 0. 0. 130. 0. 0. 0. 2. 0. 0. 0. 114. 0.
      0. 0. 76. 0. 0. 0. 76. 0. 0. 0. 15. 0. 0. 0. 7. 0. 0. 0. 9. 0. 0.
      0. 16. 0. 0. 0. 0. 0. 0. 0. 4. 0. 0. 0. 3. 0. 0. 0. 19. 0. 0. 0.
      4. 0. 0. 0. 0. 0. 0. 0. 4. 0. 0. 0. 13. 0. 0. 0. 4. 0. 0. 0. 11.
      0. 0. 0. 11. 0. 0. 0. 113. 0. 0. 0. 6. 0. 0. 0. 3. 0. 0. 0. 10. 0.
      0. 0. 18. 0. 0. 0. 1. 0. 0. 0. 7. 0. 0. 0. 0. 0. 0. 0. 98. 1. 0.
      0. 9. 0. 0. 0. 17. 0. 0. 0. 23. 0. 0. 0. 27. 1. 0. 0. 7. 0. 0. 0.
      95. 0. 0. 0. 41. 0. 0. 0.</_>
    <_>
      70. 133. 12. 0. 25. 165. 0. 0. 182. 13. 1. 0. 254. 13. 1. 0. 132.
      194. 0. 0. 46. 3. 0. 0. 47. 13. 1. 0. 133. 199. 0. 0. 182. 22. 1.
      0. 97. 9. 0. 0. 58. 23. 0. 0. 250. 23. 0. 0. 178. 18. 1. 0. 154.
      3. 0. 0. 147. 130. 2. 0. 199. 68. 1. 0. 253. 168. 0. 0. 174. 8. 0.
      0. 184. 9. 0. 0. 209. 5. 0. 0. 27. 3. 0. 0. 20. 0. 0. 0. 177. 3.
      0. 0. 91. 1. 0. 0. 97. 22. 1. 0. 10. 6. 0. 0. 8. 24. 0. 0. 255.
      22. 0. 0. 91. 186. 0. 0. 88. 1. 0. 0. 237. 48. 1. 0. 120. 105. 0.
      0. 140. 4. 1. 0. 236. 8. 0. 0. 73. 40. 0. 0. 130. 17. 0. 0. 69. 9.
      0. 0. 35. 0. 0. 0. 202. 17. 0. 0. 210. 6. 0. 0. 182. 24. 0. 0. 39.
      1. 0. 0. 4. 3. 0. 0. 35. 2. 0. 0. 44. 24. 0. 0. 83. 0. 0. 0. 158.
      67. 0. 0. 65. 18. 0. 0. 20. 7. 1. 0. 184. 5. 0. 0. 214. 17. 0. 0.
      63. 6. 0. 0. 216. 3. 0. 0. 18. 0. 0. 0. 191. 5. 0. 0. 108. 1. 0.
      0. 127. 122. 2. 0. 76. 6. 0. 0. 109. 65. 0. 0. 73. 24. 0. 0. 154.
      47. 1. 0. 55. 1. 0. 0. 134. 210. 1. 0. 140. 83. 0. 0.</_>
    <_>
      3. 228. 9. 0. 89. 233. 0. 0. 189. 207. 0. 0. 147. 252. 0. 0. 89.
      10. 1. 0. 9. 7. 0. 0. 120. 2. 1. 0. 174. 191. 0. 0. 67. 205. 0. 0.
      101. 16. 0. 0. 137. 24. 0. 0. 191. 27. 0. 0. 184. 253. 0. 0. 191.
      6. 0. 0. 203. 24. 2. 0. 176. 83. 1. 0. 126. 235. 0. 0. 25. 17. 0.
      0. 7. 16. 0. 0. 73. 11. 0. 0. 114. 7. 0. 0. 71. 0. 0. 0. 238. 6.
      0. 0. 160. 2. 0. 0. 57. 251. 0. 0. 120. 11. 0. 0. 221. 27. 0. 0.
      241. 28. 0. 0. 95. 188. 0. 0. 148. 2. 0. 0. 100. 54. 1. 0. 144.
      124. 0. 0. 180. 203. 0. 0. 151. 16. 0. 0. 130. 27. 0. 0. 186. 20.
      0. 0. 252. 17. 0. 0. 138. 0. 0. 0. 217. 20. 0. 0. 62. 10. 0. 0.
      171. 21. 0. 0. 126. 2. 0. 0. 170. 2. 0. 0. 44. 3. 0. 0. 102. 26.
      0. 0. 232. 0. 0. 0. 173. 56. 0. 0. 19. 25. 0. 0. 55. 253. 0. 0.
      46. 11. 0. 0. 123. 20. 0. 0. 64. 10. 0. 0. 151. 7. 0. 0. 59. 0. 0.
      0. 91. 8. 0. 0. 200. 2. 0. 0. 222. 205. 1. 0. 6. 13. 0. 0. 126.
      54. 0. 0. 91. 33. 0. 0. 204. 27. 1. 0. 249. 2. 0. 0. 221. 127. 1.
      0. 152. 105. 0. 0.</_>
    <_>
      200. 5. 0. 0. 79. 0. 0. 0. 137. 0. 0. 0. 129. 0. 0. 0. 66. 0. 0.
      0. 5. 0. 0. 0. 107. 0. 0. 0. 205. 0. 0. 0. 145. 0. 0. 0. 3. 0. 0.
      0. 11. 0. 0. 0. 5. 0. 0. 0. 102. 0. 0. 0. 0. 0. 0. 0. 84. 1. 0. 0.
      30. 1. 0. 0. 73. 0. 0. 0. 2. 0. 0. 0. 4. 0. 0. 0. 3. 0. 0. 0. 5.
      0. 0. 0. 0. 0. 0. 0. 1. 0. 0. 0. 0. 0. 0. 0. 149. 0. 0. 0. 5. 0.
      0. 0. 8. 0. 0. 0. 4. 0. 0. 0. 222. 0. 0. 0. 2. 0. 0. 0. 249. 0. 0.
      0. 65. 0. 0. 0. 173. 0. 0. 0. 3. 0. 0. 0. 12. 0. 0. 0. 8. 0. 0. 0.
      4. 0. 0. 0. 0. 0. 0. 0. 6. 0. 0. 0. 2. 0. 0. 0. 17. 0. 0. 0. 1. 0.
      0. 0. 3. 0. 0. 0. 1. 0. 0. 0. 8. 0. 0. 0. 0. 0. 0. 0. 24. 0. 0. 0.
      11. 0. 0. 0. 129. 0. 0. 0. 4. 0. 0. 0. 6. 0. 0. 0. 0. 0. 0. 0. 1.
      0. 0. 0. 1. 0. 0. 0. 1. 0. 0. 0. 2. 0. 0. 0. 92. 2. 0. 0. 4. 0. 0.
      0. 19. 0. 0. 0. 6. 0. 0. 0. 106. 2. 0. 0. 2. 0. 0. 0. 233. 0. 0.
      0. 35. 0. 0. 0.</_>
    <_>
      219. 1. 0. 0. 80. 0. 0. 0. 57. 0. 0. 0. 117. 0. 0. 0. 67. 0. 0. 0.
      0. 0. 0. 0. 113. 0. 0. 0. 199. 0. 0. 0. 52. 0. 0. 0. 3. 0. 0. 0.
      1. 0. 0. 0. 1. 0. 0. 0. 111. 0. 0. 0. 3. 0. 0. 0. 164. 1. 0. 0.
      91. 2. 0. 0. 89. 0. 0. 0. 8. 0. 0. 0. 3. 0. 0. 0. 3. 0. 0. 0. 5.
      0. 0. 0. 0. 0. 0. 0. 0. 0. 0. 0. 2. 0. 0. 0. 122. 0. 0. 0. 1. 0.
      0. 0. 5. 0. 0. 0. 3. 0. 0. 0. 202. 1. 0. 0. 0. 0. 0. 0. 71. 3. 0.
      0. 137. 0. 0. 0. 66. 0. 0. 0. 2. 0. 0. 0. 9. 0. 0. 0. 2. 0. 0. 0.
      5. 0. 0. 0. 0. 0. 0. 0. 3. 0. 0. 0. 2. 0. 0. 0. 2. 0. 0. 0. 0. 0.
      0. 0. 1. 0. 0. 0. 0. 0. 0. 0. 7. 0. 0. 0. 0. 0. 0. 0. 12. 0. 0. 0.
      4. 0. 0. 0. 121. 0. 0. 0. 4. 0. 0. 0. 5. 0. 0. 0. 1. 0. 0. 0. 4.
      0. 0. 0. 0. 0. 0. 0. 2. 0. 0. 0. 0. 0. 0. 0. 245. 1. 0. 0. 2. 0.
      0. 0. 9. 0. 0. 0. 7. 0. 0. 0. 101. 4. 0. 0. 1. 0. 0. 0. 113. 1. 0.
      0. 50. 0. 0. 0.</_>
    <_>
      80. 3. 0. 0. 105. 0. 0. 0. 80. 0. 0. 0. 152. 0. 0. 0. 136. 0. 0.
      0. 2. 0. 0. 0. 121. 0. 0. 0. 8. 1. 0. 0. 67. 0. 0. 0. 2. 0. 0. 0.
      7. 0. 0. 0. 7. 0. 0. 0. 112. 0. 0. 0. 4. 0. 0. 0. 220. 1. 0. 0. 8.
      3. 0. 0. 96. 0. 0. 0. 10. 0. 0. 0. 4. 0. 0. 0. 9. 0. 0. 0. 2. 0.
      0. 0. 0. 0. 0. 0. 2. 0. 0. 0. 2. 0. 0. 0. 111. 0. 0. 0. 4. 0. 0.
      0. 3. 0. 0. 0. 8. 0. 0. 0. 9. 1. 0. 0. 0. 0. 0. 0. 13. 3. 0. 0.
      137. 0. 0. 0. 53. 0. 0. 0. 3. 0. 0. 0. 5. 0. 0. 0. 3. 0. 0. 0. 8.
      0. 0. 0. 0. 0. 0. 0. 3. 0. 0. 0. 6. 0. 0. 0. 3. 0. 0. 0. 0. 0. 0.
      0. 1. 0. 0. 0. 0. 0. 0. 0. 9. 0. 0. 0. 1. 0. 0. 0. 14. 0. 0. 0. 5.
      0. 0. 0. 101. 0. 0. 0. 5. 0. 0. 0. 3. 0. 0. 0. 1. 0. 0. 0. 2. 0.
      0. 0. 0. 0. 0. 0. 4. 0. 0. 0. 0. 0. 0. 0. 80. 1. 0. 0. 3. 0. 0. 0.
      21. 0. 0. 0. 9. 0. 0. 0. 73. 2. 0. 0. 1. 0. 0. 0. 68. 1. 0. 0. 81.
      0. 0. 0.</_>
    <_>
      184. 2. 0. 0. 231. 0. 0. 0. 76. 0. 0. 0. 183. 0. 0. 0. 80. 0. 0.
      0. 5. 0. 0. 0. 117. 0. 0. 0. 79. 1. 0. 0. 43. 0. 0. 0. 6. 0. 0. 0.
      9. 0. 0. 0. 4. 0. 0. 0. 94. 0. 0. 0. 7. 0. 0. 0. 175. 1. 0. 0.
      249. 2. 0. 0. 152. 0. 0. 0. 19. 0. 0. 0. 12. 0. 0. 0. 9. 0. 0. 0.
      5. 0. 0. 0. 0. 0. 0. 0. 11. 0. 0. 0. 2. 0. 0. 0. 91. 0. 0. 0. 9.
      0. 0. 0. 10. 0. 0. 0. 2. 0. 0. 0. 182. 0. 0. 0. 0. 0. 0. 0. 238.
      1. 0. 0. 149. 0. 0. 0. 49. 0. 0. 0. 4. 0. 0. 0. 7. 0. 0. 0. 7. 0.
      0. 0. 6. 0. 0. 0. 2. 0. 0. 0. 10. 0. 0. 0. 4. 0. 0. 0. 4. 0. 0. 0.
      0. 0. 0. 0. 0. 0. 0. 0. 1. 0. 0. 0. 8. 0. 0. 0. 0. 0. 0. 0. 17. 0.
      0. 0. 15. 0. 0. 0. 91. 0. 0. 0. 6. 0. 0. 0. 2. 0. 0. 0. 3. 0. 0.
      0. 4. 0. 0. 0. 0. 0. 0. 0. 0. 0. 0. 0. 2. 0. 0. 0. 193. 0. 0. 0.
      3. 0. 0. 0. 7. 0. 0. 0. 8. 0. 0. 0. 24. 1. 0. 0. 4. 0. 0. 0. 231.
      0. 0. 0. 48. 0. 0. 0.</_>
    <_>
      102. 3. 0. 0. 41. 0. 0. 0. 114. 0. 0. 0. 170. 0. 0. 0. 21. 0. 0.
      0. 0. 0. 0. 0. 125. 0. 0. 0. 78. 1. 0. 0. 83. 0. 0. 0. 1. 0. 0. 0.
      6. 0. 0. 0. 3. 0. 0. 0. 81. 0. 0. 0. 0. 0. 0. 0. 84. 2. 0. 0. 133.
      3. 0. 0. 29. 0. 0. 0. 2. 0. 0. 0. 0. 0. 0. 0. 0. 0. 0. 0. 0. 0. 0.
      0. 0. 0. 0. 0. 0. 0. 0. 0. 0. 0. 0. 0. 97. 0. 0. 0. 2. 0. 0. 0. 3.
      0. 0. 0. 5. 0. 0. 0. 139. 0. 0. 0. 0. 0. 0. 0. 101. 1. 0. 0. 72.
      0. 0. 0. 87. 0. 0. 0. 0. 0. 0. 0. 5. 0. 0. 0. 2. 0. 0. 0. 0. 0. 0.
      0. 0. 0. 0. 0. 1. 0. 0. 0. 0. 0. 0. 0. 5. 0. 0. 0. 0. 0. 0. 0. 1.
      0. 0. 0. 0. 0. 0. 0. 3. 0. 0. 0. 0. 0. 0. 0. 13. 0. 0. 0. 2. 0. 0.
      0. 81. 0. 0. 0. 0. 0. 0. 0. 2. 0. 0. 0. 0. 0. 0. 0. 0. 0. 0. 0. 0.
      0. 0. 0. 0. 0. 0. 0. 0. 0. 0. 0. 184. 1. 0. 0. 0. 0. 0. 0. 7. 0.
      0. 0. 1. 0. 0. 0. 118. 1. 0. 0. 0. 0. 0. 0. 192. 0. 0. 0. 10. 0.
      0. 0.</_>
    <_>
      0. 4. 0. 0. 107. 0. 0. 0. 105. 0. 0. 0. 161. 0. 0. 0. 75. 0. 0. 0.
      4. 0. 0. 0. 143. 0. 0. 0. 220. 0. 0. 0. 85. 0. 0. 0. 3. 0. 0. 0.
      11. 0. 0. 0. 14. 0. 0. 0. 109. 0. 0. 0. 0. 0. 0. 0. 199. 1. 0. 0.
      209. 1. 0. 0. 108. 0. 0. 0. 9. 0. 0. 0. 2. 0. 0. 0. 5. 0. 0. 0. 3.
      0. 0. 0. 0. 0. 0. 0. 2. 0. 0. 0. 1. 0. 0. 0. 132. 0. 0. 0. 3. 0.
      0. 0. 7. 0. 0. 0. 5. 0. 0. 0. 217. 0. 0. 0. 3. 0. 0. 0. 204. 1. 0.
      0. 85. 0. 0. 0. 83. 0. 0. 0. 3. 0. 0. 0. 7. 0. 0. 0. 3. 0. 0. 0.
      0. 0. 0. 0. 1. 0. 0. 0. 2. 0. 0. 0. 4. 0. 0. 0. 7. 0. 0. 0. 1. 0.
      0. 0. 2. 0. 0. 0. 0. 0. 0. 0. 8. 0. 0. 0. 1. 0. 0. 0. 24. 0. 0. 0.
      9. 0. 0. 0. 148. 0. 0. 0. 3. 0. 0. 0. 5. 0. 0. 0. 2. 0. 0. 0. 1.
      0. 0. 0. 0. 0. 0. 0. 3. 0. 0. 0. 0. 0. 0. 0. 7. 2. 0. 0. 4. 0. 0.
      0. 17. 0. 0. 0. 9. 0. 0. 0. 185. 1. 0. 0. 0. 0. 0. 0. 30. 1. 0. 0.
      35. 0. 0. 0.</_>
    <_>
      147. 6. 0. 0. 6. 1. 0. 0. 159. 0. 0. 0. 145. 0. 0. 0. 217. 0. 0.
      0. 26. 0. 0. 0. 174. 0. 0. 0. 166. 0. 0. 0. 115. 0. 0. 0. 20. 0.
      0. 0. 29. 0. 0. 0. 28. 0. 0. 0. 119. 0. 0. 0. 25. 0. 0. 0. 16. 1.
      0. 0. 100. 1. 0. 0. 199. 0. 0. 0. 46. 0. 0. 0. 34. 0. 0. 0. 20. 0.
      0. 0. 20. 0. 0. 0. 3. 0. 0. 0. 24. 0. 0. 0. 15. 0. 0. 0. 105. 0.
      0. 0. 20. 0. 0. 0. 17. 0. 0. 0. 36. 0. 0. 0. 122. 0. 0. 0. 19. 0.
      0. 0. 226. 0. 0. 0. 214. 0. 0. 0. 87. 0. 0. 0. 11. 0. 0. 0. 8. 0.
      0. 0. 10. 0. 0. 0. 14. 0. 0. 0. 0. 0. 0. 0. 9. 0. 0. 0. 16. 0. 0.
      0. 19. 0. 0. 0. 2. 0. 0. 0. 3. 0. 0. 0. 6. 0. 0. 0. 15. 0. 0. 0.
      1. 0. 0. 0. 19. 0. 0. 0. 27. 0. 0. 0. 94. 0. 0. 0. 10. 0. 0. 0. 7.
      0. 0. 0. 8. 0. 0. 0. 10. 0. 0. 0. 2. 0. 0. 0. 5. 0. 0. 0. 8. 0. 0.
      0. 109. 0. 0. 0. 12. 0. 0. 0. 18. 0. 0. 0. 18. 0. 0. 0. 122. 0. 0.
      0. 11. 0. 0. 0. 147. 0. 0. 0. 105. 0. 0. 0.</_>
    <_>
      127. 5. 0. 0. 185. 0. 0. 0. 79. 0. 0. 0. 117. 0. 0. 0. 203. 0. 0.
      0. 16. 0. 0. 0. 111. 0. 0. 0. 119. 0. 0. 0. 103. 0. 0. 0. 19. 0.
      0. 0. 17. 0. 0. 0. 11. 0. 0. 0. 114. 0. 0. 0. 9. 0. 0. 0. 146. 0.
      0. 0. 197. 0. 0. 0. 232. 0. 0. 0. 22. 0. 0. 0. 13. 0. 0. 0. 12. 0.
      0. 0. 14. 0. 0. 0. 0. 0. 0. 0. 6. 0. 0. 0. 4. 0. 0. 0. 154. 0. 0.
      0. 15. 0. 0. 0. 11. 0. 0. 0. 22. 0. 0. 0. 180. 0. 0. 0. 13. 0. 0.
      0. 189. 0. 0. 0. 96. 0. 0. 0. 109. 0. 0. 0. 14. 0. 0. 0. 5. 0. 0.
      0. 6. 0. 0. 0. 17. 0. 0. 0. 4. 0. 0. 0. 13. 0. 0. 0. 6. 0. 0. 0.
      32. 0. 0. 0. 4. 0. 0. 0. 4. 0. 0. 0. 1. 0. 0. 0. 18. 0. 0. 0. 3.
      0. 0. 0. 18. 0. 0. 0. 17. 0. 0. 0. 125. 0. 0. 0. 19. 0. 0. 0. 5.
      0. 0. 0. 6. 0. 0. 0. 13. 0. 0. 0. 3. 0. 0. 0. 5. 0. 0. 0. 4. 0. 0.
      0. 39. 1. 0. 0. 25. 0. 0. 0. 26. 0. 0. 0. 29. 0. 0. 0. 85. 1. 0.
      0. 17. 0. 0. 0. 195. 0. 0. 0. 85. 0. 0. 0.</_>
    <_>
      249. 5. 0. 0. 103. 0. 0. 0. 96. 0. 0. 0. 114. 0. 0. 0. 95. 0. 0.
      0. 8. 0. 0. 0. 98. 0. 0. 0. 217. 0. 0. 0. 89. 0. 0. 0. 2. 0. 0. 0.
      6. 0. 0. 0. 6. 0. 0. 0. 116. 0. 0. 0. 4. 0. 0. 0. 58. 1. 0. 0.
      118. 1. 0. 0. 137. 0. 0. 0. 12. 0. 0. 0. 2. 0. 0. 0. 2. 0. 0. 0.
      7. 0. 0. 0. 0. 0. 0. 0. 2. 0. 0. 0. 1. 0. 0. 0. 109. 0. 0. 0. 5.
      0. 0. 0. 5. 0. 0. 0. 11. 0. 0. 0. 245. 0. 0. 0. 2. 0. 0. 0. 200.
      1. 0. 0. 129. 0. 0. 0. 69. 0. 0. 0. 1. 0. 0. 0. 3. 0. 0. 0. 5. 0.
      0. 0. 3. 0. 0. 0. 0. 0. 0. 0. 5. 0. 0. 0. 4. 0. 0. 0. 4. 0. 0. 0.
      0. 0. 0. 0. 3. 0. 0. 0. 2. 0. 0. 0. 9. 0. 0. 0. 0. 0. 0. 0. 16. 0.
      0. 0. 10. 0. 0. 0. 139. 0. 0. 0. 8. 0. 0. 0. 7. 0. 0. 0. 2. 0. 0.
      0. 2. 0. 0. 0. 0. 0. 0. 0. 3. 0. 0. 0. 2. 0. 0. 0. 199. 1. 0. 0.
      10. 0. 0. 0. 18. 0. 0. 0. 13. 0. 0. 0. 116. 2. 0. 0. 4. 0. 0. 0.
      52. 1. 0. 0. 44. 0. 0. 0.</_>
    <_>
      187. 2. 0. 0. 134. 0. 0. 0. 67. 0. 0. 0. 148. 0. 0. 0. 105. 0. 0.
      0. 1. 0. 0. 0. 162. 0. 0. 0. 240. 0. 0. 0. 69. 0. 0. 0. 7. 0. 0.
      0. 5. 0. 0. 0. 13. 0. 0. 0. 148. 0. 0. 0. 2. 0. 0. 0. 160. 1. 0.
      0. 147. 2. 0. 0. 112. 0. 0. 0. 14. 0. 0. 0. 3. 0. 0. 0. 5. 0. 0.
      0. 8. 0. 0. 0. 0. 0. 0. 0. 3. 0. 0. 0. 2. 0. 0. 0. 140. 0. 0. 0.
      6. 0. 0. 0. 15. 0. 0. 0. 8. 0. 0. 0. 229. 0. 0. 0. 2. 0. 0. 0. 36.
      2. 0. 0. 207. 0. 0. 0. 61. 0. 0. 0. 5. 0. 0. 0. 9. 0. 0. 0. 6. 0.
      0. 0. 2. 0. 0. 0. 0. 0. 0. 0. 5. 0. 0. 0. 2. 0. 0. 0. 8. 0. 0. 0.
      1. 0. 0. 0. 0. 0. 0. 0. 1. 0. 0. 0. 9. 0. 0. 0. 0. 0. 0. 0. 17. 0.
      0. 0. 9. 0. 0. 0. 126. 0. 0. 0. 5. 0. 0. 0. 5. 0. 0. 0. 6. 0. 0.
      0. 7. 0. 0. 0. 0. 0. 0. 0. 3. 0. 0. 0. 1. 0. 0. 0. 118. 1. 0. 0.
      7. 0. 0. 0. 22. 0. 0. 0. 19. 0. 0. 0. 183. 1. 0. 0. 4. 0. 0. 0.
      25. 1. 0. 0. 74. 0. 0. 0.</_>
    <_>
      23. 6. 0. 0. 189. 0. 0. 0. 122. 0. 0. 0. 99. 0. 0. 0. 187. 0. 0.
      0. 22. 0. 0. 0. 100. 0. 0. 0. 135. 0. 0. 0. 107. 0. 0. 0. 13. 0.
      0. 0. 16. 0. 0. 0. 13. 0. 0. 0. 104. 0. 0. 0. 7. 0. 0. 0. 152. 0.
      0. 0. 158. 0. 0. 0. 175. 0. 0. 0. 29. 0. 0. 0. 16. 0. 0. 0. 14. 0.
      0. 0. 29. 0. 0. 0. 3. 0. 0. 0. 7. 0. 0. 0. 11. 0. 0. 0. 132. 0. 0.
      0. 13. 0. 0. 0. 17. 0. 0. 0. 15. 0. 0. 0. 177. 0. 0. 0. 8. 0. 0.
      0. 153. 0. 0. 0. 109. 0. 0. 0. 115. 0. 0. 0. 18. 0. 0. 0. 11. 0.
      0. 0. 14. 0. 0. 0. 20. 0. 0. 0. 2. 0. 0. 0. 10. 0. 0. 0. 8. 0. 0.
      0. 25. 0. 0. 0. 3. 0. 0. 0. 8. 0. 0. 0. 3. 0. 0. 0. 21. 0. 0. 0.
      1. 0. 0. 0. 19. 0. 0. 0. 18. 0. 0. 0. 126. 0. 0. 0. 17. 0. 0. 0.
      2. 0. 0. 0. 10. 0. 0. 0. 19. 0. 0. 0. 3. 0. 0. 0. 7. 0. 0. 0. 7.
      0. 0. 0. 240. 0. 0. 0. 18. 0. 0. 0. 23. 0. 0. 0. 22. 0. 0. 0. 12.
      1. 0. 0. 20. 0. 0. 0. 188. 0. 0. 0. 88. 0. 0. 0.</_>
    <_>
      102. 3. 0. 0. 119. 0. 0. 0. 44. 0. 0. 0. 116. 0. 0. 0. 149. 0. 0.
      0. 7. 0. 0. 0. 92. 0. 0. 0. 146. 0. 0. 0. 79. 0. 0. 0. 6. 0. 0. 0.
      6. 0. 0. 0. 7. 0. 0. 0. 119. 0. 0. 0. 8. 0. 0. 0. 217. 0. 0. 0.
      23. 1. 0. 0. 175. 0. 0. 0. 16. 0. 0. 0. 8. 0. 0. 0. 11. 0. 0. 0.
      9. 0. 0. 0. 0. 0. 0. 0. 4. 0. 0. 0. 1. 0. 0. 0. 158. 0. 0. 0. 13.
      0. 0. 0. 5. 0. 0. 0. 11. 0. 0. 0. 184. 0. 0. 0. 4. 0. 0. 0. 57. 1.
      0. 0. 117. 0. 0. 0. 92. 0. 0. 0. 8. 0. 0. 0. 6. 0. 0. 0. 4. 0. 0.
      0. 13. 0. 0. 0. 0. 0. 0. 0. 9. 0. 0. 0. 8. 0. 0. 0. 11. 0. 0. 0.
      0. 0. 0. 0. 0. 0. 0. 0. 0. 0. 0. 0. 20. 0. 0. 0. 0. 0. 0. 0. 16.
      0. 0. 0. 17. 0. 0. 0. 205. 0. 0. 0. 9. 0. 0. 0. 5. 0. 0. 0. 8. 0.
      0. 0. 5. 0. 0. 0. 0. 0. 0. 0. 3. 0. 0. 0. 0. 0. 0. 0. 5. 2. 0. 0.
      12. 0. 0. 0. 18. 0. 0. 0. 14. 0. 0. 0. 48. 2. 0. 0. 6. 0. 0. 0. 3.
      1. 0. 0. 84. 0. 0. 0.</_>
    <_>
      134. 5. 0. 0. 204. 0. 0. 0. 102. 0. 0. 0. 112. 0. 0. 0. 198. 0. 0.
      0. 21. 0. 0. 0. 130. 0. 0. 0. 151. 0. 0. 0. 100. 0. 0. 0. 20. 0.
      0. 0. 19. 0. 0. 0. 22. 0. 0. 0. 128. 0. 0. 0. 12. 0. 0. 0. 247. 0.
      0. 0. 31. 1. 0. 0. 222. 0. 0. 0. 20. 0. 0. 0. 22. 0. 0. 0. 14. 0.
      0. 0. 11. 0. 0. 0. 1. 0. 0. 0. 8. 0. 0. 0. 7. 0. 0. 0. 126. 0. 0.
      0. 18. 0. 0. 0. 21. 0. 0. 0. 15. 0. 0. 0. 149. 0. 0. 0. 14. 0. 0.
      0. 23. 1. 0. 0. 160. 0. 0. 0. 121. 0. 0. 0. 9. 0. 0. 0. 3. 0. 0.
      0. 14. 0. 0. 0. 12. 0. 0. 0. 3. 0. 0. 0. 7. 0. 0. 0. 5. 0. 0. 0.
      18. 0. 0. 0. 5. 0. 0. 0. 2. 0. 0. 0. 3. 0. 0. 0. 10. 0. 0. 0. 5.
      0. 0. 0. 11. 0. 0. 0. 21. 0. 0. 0. 167. 0. 0. 0. 11. 0. 0. 0. 9.
      0. 0. 0. 3. 0. 0. 0. 15. 0. 0. 0. 0. 0. 0. 0. 3. 0. 0. 0. 2. 0. 0.
      0. 243. 0. 0. 0. 11. 0. 0. 0. 26. 0. 0. 0. 21. 0. 0. 0. 7. 1. 0.
      0. 7. 0. 0. 0. 182. 0. 0. 0. 97. 0. 0. 0.</_>
    <_>
      7. 2. 0. 0. 65. 0. 0. 0. 39. 0. 0. 0. 126. 0. 0. 0. 59. 0. 0. 0.
      1. 0. 0. 0. 111. 0. 0. 0. 218. 0. 0. 0. 55. 0. 0. 0. 4. 0. 0. 0.
      3. 0. 0. 0. 5. 0. 0. 0. 110. 0. 0. 0. 2. 0. 0. 0. 9. 1. 0. 0. 79.
      1. 0. 0. 71. 0. 0. 0. 3. 0. 0. 0. 0. 0. 0. 0. 1. 0. 0. 0. 1. 0. 0.
      0. 0. 0. 0. 0. 2. 0. 0. 0. 0. 0. 0. 0. 150. 0. 0. 0. 3. 0. 0. 0.
      6. 0. 0. 0. 4. 0. 0. 0. 222. 0. 0. 0. 1. 0. 0. 0. 211. 1. 0. 0.
      72. 0. 0. 0. 67. 0. 0. 0. 3. 0. 0. 0. 2. 0. 0. 0. 6. 0. 0. 0. 3.
      0. 0. 0. 0. 0. 0. 0. 4. 0. 0. 0. 2. 0. 0. 0. 7. 0. 0. 0. 0. 0. 0.
      0. 0. 0. 0. 0. 0. 0. 0. 0. 11. 0. 0. 0. 0. 0. 0. 0. 8. 0. 0. 0.
      15. 0. 0. 0. 149. 0. 0. 0. 1. 0. 0. 0. 4. 0. 0. 0. 3. 0. 0. 0. 1.
      0. 0. 0. 0. 0. 0. 0. 1. 0. 0. 0. 0. 0. 0. 0. 101. 3. 0. 0. 5. 0.
      0. 0. 11. 0. 0. 0. 7. 0. 0. 0. 123. 4. 0. 0. 1. 0. 0. 0. 217. 0.
      0. 0. 46. 0. 0. 0.</_>
    <_>
      225. 2. 0. 0. 100. 0. 0. 0. 81. 0. 0. 0. 186. 0. 0. 0. 112. 0. 0.
      0. 2. 0. 0. 0. 125. 0. 0. 0. 30. 1. 0. 0. 63. 0. 0. 0. 7. 0. 0. 0.
      4. 0. 0. 0. 13. 0. 0. 0. 101. 0. 0. 0. 1. 0. 0. 0. 77. 1. 0. 0.
      162. 1. 0. 0. 96. 0. 0. 0. 7. 0. 0. 0. 5. 0. 0. 0. 4. 0. 0. 0. 4.
      0. 0. 0. 0. 0. 0. 0. 3. 0. 0. 0. 0. 0. 0. 0. 146. 0. 0. 0. 5. 0.
      0. 0. 12. 0. 0. 0. 8. 0. 0. 0. 219. 0. 0. 0. 0. 0. 0. 0. 217. 1.
      0. 0. 117. 0. 0. 0. 64. 0. 0. 0. 4. 0. 0. 0. 7. 0. 0. 0. 8. 0. 0.
      0. 3. 0. 0. 0. 0. 0. 0. 0. 6. 0. 0. 0. 3. 0. 0. 0. 6. 0. 0. 0. 0.
      0. 0. 0. 0. 0. 0. 0. 0. 0. 0. 0. 15. 0. 0. 0. 0. 0. 0. 0. 17. 0.
      0. 0. 14. 0. 0. 0. 142. 0. 0. 0. 2. 0. 0. 0. 5. 0. 0. 0. 5. 0. 0.
      0. 4. 0. 0. 0. 0. 0. 0. 0. 1. 0. 0. 0. 1. 0. 0. 0. 154. 1. 0. 0.
      10. 0. 0. 0. 13. 0. 0. 0. 11. 0. 0. 0. 174. 2. 0. 0. 1. 0. 0. 0.
      4. 1. 0. 0. 61. 0. 0. 0.</_>
    <_>
      11. 5. 0. 0. 162. 0. 0. 0. 56. 0. 0. 0. 99. 0. 0. 0. 155. 0. 0. 0.
      11. 0. 0. 0. 96. 0. 0. 0. 124. 0. 0. 0. 125. 0. 0. 0. 16. 0. 0. 0.
      15. 0. 0. 0. 13. 0. 0. 0. 141. 0. 0. 0. 7. 0. 0. 0. 226. 0. 0. 0.
      193. 0. 0. 0. 242. 0. 0. 0. 34. 0. 0. 0. 12. 0. 0. 0. 9. 0. 0. 0.
      20. 0. 0. 0. 0. 0. 0. 0. 6. 0. 0. 0. 6. 0. 0. 0. 195. 0. 0. 0. 18.
      0. 0. 0. 29. 0. 0. 0. 13. 0. 0. 0. 181. 0. 0. 0. 12. 0. 0. 0. 254.
      0. 0. 0. 126. 0. 0. 0. 111. 0. 0. 0. 14. 0. 0. 0. 2. 0. 0. 0. 8.
      0. 0. 0. 18. 0. 0. 0. 1. 0. 0. 0. 6. 0. 0. 0. 2. 0. 0. 0. 31. 0.
      0. 0. 8. 0. 0. 0. 2. 0. 0. 0. 2. 0. 0. 0. 34. 0. 0. 0. 2. 0. 0. 0.
      27. 0. 0. 0. 15. 0. 0. 0. 187. 0. 0. 0. 18. 0. 0. 0. 10. 0. 0. 0.
      8. 0. 0. 0. 7. 0. 0. 0. 0. 0. 0. 0. 3. 0. 0. 0. 3. 0. 0. 0. 224.
      1. 0. 0. 35. 0. 0. 0. 22. 0. 0. 0. 26. 0. 0. 0. 10. 2. 0. 0. 22.
      0. 0. 0. 251. 0. 0. 0. 133. 0. 0. 0.</_>
    <_>
      85. 6. 0. 0. 212. 0. 0. 0. 84. 0. 0. 0. 92. 0. 0. 0. 209. 0. 0. 0.
      16. 0. 0. 0. 105. 0. 0. 0. 97. 0. 0. 0. 120. 0. 0. 0. 11. 0. 0. 0.
      24. 0. 0. 0. 16. 0. 0. 0. 116. 0. 0. 0. 18. 0. 0. 0. 191. 0. 0. 0.
      175. 0. 0. 0. 226. 0. 0. 0. 45. 0. 0. 0. 16. 0. 0. 0. 22. 0. 0. 0.
      20. 0. 0. 0. 2. 0. 0. 0. 9. 0. 0. 0. 7. 0. 0. 0. 148. 0. 0. 0. 10.
      0. 0. 0. 15. 0. 0. 0. 15. 0. 0. 0. 126. 0. 0. 0. 11. 0. 0. 0. 206.
      0. 0. 0. 133. 0. 0. 0. 116. 0. 0. 0. 19. 0. 0. 0. 6. 0. 0. 0. 4.
      0. 0. 0. 10. 0. 0. 0. 3. 0. 0. 0. 13. 0. 0. 0. 3. 0. 0. 0. 24. 0.
      0. 0. 5. 0. 0. 0. 5. 0. 0. 0. 5. 0. 0. 0. 37. 0. 0. 0. 2. 0. 0. 0.
      22. 0. 0. 0. 25. 0. 0. 0. 161. 0. 0. 0. 18. 0. 0. 0. 4. 0. 0. 0.
      5. 0. 0. 0. 12. 0. 0. 0. 1. 0. 0. 0. 12. 0. 0. 0. 6. 0. 0. 0. 22.
      1. 0. 0. 29. 0. 0. 0. 19. 0. 0. 0. 22. 0. 0. 0. 81. 1. 0. 0. 11.
      0. 0. 0. 189. 0. 0. 0. 117. 0. 0. 0.</_>
    <_>
      189. 2. 0. 0. 100. 0. 0. 0. 64. 0. 0. 0. 149. 0. 0. 0. 73. 0. 0.
      0. 3. 0. 0. 0. 145. 0. 0. 0. 249. 0. 0. 0. 64. 0. 0. 0. 5. 0. 0.
      0. 4. 0. 0. 0. 9. 0. 0. 0. 111. 0. 0. 0. 2. 0. 0. 0. 74. 1. 0. 0.
      180. 1. 0. 0. 93. 0. 0. 0. 7. 0. 0. 0. 5. 0. 0. 0. 7. 0. 0. 0. 7.
      0. 0. 0. 1. 0. 0. 0. 2. 0. 0. 0. 5. 0. 0. 0. 128. 0. 0. 0. 5. 0.
      0. 0. 8. 0. 0. 0. 6. 0. 0. 0. 232. 0. 0. 0. 1. 0. 0. 0. 250. 1. 0.
      0. 131. 0. 0. 0. 80. 0. 0. 0. 5. 0. 0. 0. 7. 0. 0. 0. 10. 0. 0. 0.
      1. 0. 0. 0. 0. 0. 0. 0. 4. 0. 0. 0. 1. 0. 0. 0. 7. 0. 0. 0. 0. 0.
      0. 0. 1. 0. 0. 0. 2. 0. 0. 0. 7. 0. 0. 0. 0. 0. 0. 0. 18. 0. 0. 0.
      9. 0. 0. 0. 155. 0. 0. 0. 5. 0. 0. 0. 5. 0. 0. 0. 0. 0. 0. 0. 3.
      0. 0. 0. 0. 0. 0. 0. 1. 0. 0. 0. 2. 0. 0. 0. 189. 1. 0. 0. 6. 0.
      0. 0. 14. 0. 0. 0. 7. 0. 0. 0. 14. 2. 0. 0. 6. 0. 0. 0. 238. 0. 0.
      0. 59. 0. 0. 0.</_>
    <_>
      245. 2. 0. 0. 102. 0. 0. 0. 81. 0. 0. 0. 171. 0. 0. 0. 107. 0. 0.
      0. 6. 0. 0. 0. 130. 0. 0. 0. 247. 0. 0. 0. 71. 0. 0. 0. 0. 0. 0.
      0. 8. 0. 0. 0. 7. 0. 0. 0. 125. 0. 0. 0. 1. 0. 0. 0. 246. 0. 0. 0.
      34. 1. 0. 0. 100. 0. 0. 0. 9. 0. 0. 0. 4. 0. 0. 0. 7. 0. 0. 0. 4.
      0. 0. 0. 1. 0. 0. 0. 5. 0. 0. 0. 4. 0. 0. 0. 121. 0. 0. 0. 6. 0.
      0. 0. 12. 0. 0. 0. 6. 0. 0. 0. 164. 0. 0. 0. 0. 0. 0. 0. 34. 1. 0.
      0. 89. 0. 0. 0. 86. 0. 0. 0. 3. 0. 0. 0. 8. 0. 0. 0. 4. 0. 0. 0.
      7. 0. 0. 0. 0. 0. 0. 0. 2. 0. 0. 0. 4. 0. 0. 0. 10. 0. 0. 0. 0. 0.
      0. 0. 1. 0. 0. 0. 1. 0. 0. 0. 9. 0. 0. 0. 0. 0. 0. 0. 15. 0. 0. 0.
      11. 0. 0. 0. 159. 0. 0. 0. 7. 0. 0. 0. 4. 0. 0. 0. 1. 0. 0. 0. 3.
      0. 0. 0. 0. 0. 0. 0. 1. 0. 0. 0. 0. 0. 0. 0. 11. 2. 0. 0. 12. 0.
      0. 0. 16. 0. 0. 0. 8. 0. 0. 0. 188. 1. 0. 0. 2. 0. 0. 0. 208. 0.
      0. 0. 47. 0. 0. 0.</_>
    <_>
      60. 4. 0. 0. 59. 0. 0. 0. 132. 0. 0. 0. 163. 0. 0. 0. 44. 0. 0. 0.
      1. 0. 0. 0. 117. 0. 0. 0. 196. 1. 0. 0. 65. 0. 0. 0. 2. 0. 0. 0.
      7. 0. 0. 0. 6. 0. 0. 0. 90. 0. 0. 0. 0. 0. 0. 0. 216. 1. 0. 0. 94.
      3. 0. 0. 53. 0. 0. 0. 1. 0. 0. 0. 1. 0. 0. 0. 0. 0. 0. 0. 0. 0. 0.
      0. 0. 0. 0. 0. 0. 0. 0. 0. 0. 0. 0. 0. 75. 0. 0. 0. 1. 0. 0. 0. 6.
      0. 0. 0. 3. 0. 0. 0. 214. 0. 0. 0. 0. 0. 0. 0. 160. 1. 0. 0. 79.
      0. 0. 0. 80. 0. 0. 0. 0. 0. 0. 0. 6. 0. 0. 0. 1. 0. 0. 0. 0. 0. 0.
      0. 0. 0. 0. 0. 2. 0. 0. 0. 3. 0. 0. 0. 1. 0. 0. 0. 1. 0. 0. 0. 0.
      0. 0. 0. 0. 0. 0. 0. 2. 0. 0. 0. 0. 0. 0. 0. 15. 0. 0. 0. 1. 0. 0.
      0. 66. 0. 0. 0. 0. 0. 0. 0. 1. 0. 0. 0. 1. 0. 0. 0. 0. 0. 0. 0. 0.
      0. 0. 0. 0. 0. 0. 0. 0. 0. 0. 0. 128. 1. 0. 0. 0. 0. 0. 0. 9. 0.
      0. 0. 3. 0. 0. 0. 155. 2. 0. 0. 0. 0. 0. 0. 250. 0. 0. 0. 23. 0.
      0. 0.</_>
    <_>
      51. 2. 0. 0. 86. 0. 0. 0. 66. 0. 0. 0. 141. 0. 0. 0. 94. 0. 0. 0.
      2. 0. 0. 0. 136. 0. 0. 0. 33. 1. 0. 0. 47. 0. 0. 0. 2. 0. 0. 0. 3.
      0. 0. 0. 2. 0. 0. 0. 113. 0. 0. 0. 3. 0. 0. 0. 254. 0. 0. 0. 108.
      1. 0. 0. 99. 0. 0. 0. 10. 0. 0. 0. 4. 0. 0. 0. 4. 0. 0. 0. 2. 0.
      0. 0. 0. 0. 0. 0. 2. 0. 0. 0. 0. 0. 0. 0. 127. 0. 0. 0. 4. 0. 0.
      0. 7. 0. 0. 0. 8. 0. 0. 0. 239. 0. 0. 0. 1. 0. 0. 0. 109. 1. 0. 0.
      124. 0. 0. 0. 54. 0. 0. 0. 3. 0. 0. 0. 5. 0. 0. 0. 6. 0. 0. 0. 2.
      0. 0. 0. 0. 0. 0. 0. 7. 0. 0. 0. 4. 0. 0. 0. 3. 0. 0. 0. 1. 0. 0.
      0. 0. 0. 0. 0. 1. 0. 0. 0. 13. 0. 0. 0. 0. 0. 0. 0. 11. 0. 0. 0.
      6. 0. 0. 0. 146. 0. 0. 0. 8. 0. 0. 0. 4. 0. 0. 0. 8. 0. 0. 0. 3.
      0. 0. 0. 0. 0. 0. 0. 2. 0. 0. 0. 3. 0. 0. 0. 255. 1. 0. 0. 5. 0.
      0. 0. 6. 0. 0. 0. 8. 0. 0. 0. 47. 2. 0. 0. 2. 0. 0. 0. 242. 0. 0.
      0. 66. 0. 0. 0.</_>
    <_>
      13. 6. 0. 0. 184. 0. 0. 0. 151. 0. 0. 0. 153. 0. 0. 0. 190. 0. 0.
      0. 17. 0. 0. 0. 152. 0. 0. 0. 196. 0. 0. 0. 113. 0. 0. 0. 8. 0. 0.
      0. 19. 0. 0. 0. 21. 0. 0. 0. 146. 0. 0. 0. 5. 0. 0. 0. 112. 1. 0.
      0. 40. 1. 0. 0. 155. 0. 0. 0. 18. 0. 0. 0. 9. 0. 0. 0. 11. 0. 0.
      0. 15. 0. 0. 0. 5. 0. 0. 0. 5. 0. 0. 0. 6. 0. 0. 0. 117. 0. 0. 0.
      14. 0. 0. 0. 23. 0. 0. 0. 29. 0. 0. 0. 158. 0. 0. 0. 11. 0. 0. 0.
      57. 1. 0. 0. 173. 0. 0. 0. 96. 0. 0. 0. 9. 0. 0. 0. 5. 0. 0. 0. 6.
      0. 0. 0. 10. 0. 0. 0. 2. 0. 0. 0. 7. 0. 0. 0. 5. 0. 0. 0. 18. 0.
      0. 0. 3. 0. 0. 0. 2. 0. 0. 0. 3. 0. 0. 0. 11. 0. 0. 0. 0. 0. 0. 0.
      16. 0. 0. 0. 12. 0. 0. 0. 101. 0. 0. 0. 15. 0. 0. 0. 9. 0. 0. 0.
      5. 0. 0. 0. 9. 0. 0. 0. 3. 0. 0. 0. 6. 0. 0. 0. 2. 0. 0. 0. 220.
      0. 0. 0. 15. 0. 0. 0. 23. 0. 0. 0. 18. 0. 0. 0. 36. 1. 0. 0. 17.
      0. 0. 0. 206. 0. 0. 0. 110. 0. 0. 0.</_>
    <_>
      130. 3. 0. 0. 89. 0. 0. 0. 42. 0. 0. 0. 72. 0. 0. 0. 100. 1. 0. 0.
      13. 0. 0. 0. 92. 0. 0. 0. 188. 0. 0. 0. 60. 0. 0. 0. 2. 0. 0. 0.
      11. 0. 0. 0. 5. 0. 0. 0. 91. 0. 0. 0. 3. 0. 0. 0. 124. 0. 0. 0.
      206. 0. 0. 0. 83. 0. 0. 0. 6. 0. 0. 0. 4. 0. 0. 0. 1. 0. 0. 0. 5.
      0. 0. 0. 0. 0. 0. 0. 1. 0. 0. 0. 2. 0. 0. 0. 136. 0. 0. 0. 3. 0.
      0. 0. 9. 0. 0. 0. 8. 0. 0. 0. 202. 0. 0. 0. 1. 0. 0. 0. 108. 1. 0.
      0. 75. 0. 0. 0. 77. 0. 0. 0. 7. 0. 0. 0. 2. 0. 0. 0. 4. 0. 0. 0.
      18. 0. 0. 0. 2. 0. 0. 0. 5. 0. 0. 0. 10. 0. 0. 0. 16. 0. 0. 0. 1.
      0. 0. 0. 0. 0. 0. 0. 1. 0. 0. 0. 9. 0. 0. 0. 1. 0. 0. 0. 5. 0. 0.
      0. 8. 0. 0. 0. 127. 0. 0. 0. 4. 0. 0. 0. 4. 0. 0. 0. 0. 0. 0. 0.
      8. 0. 0. 0. 0. 0. 0. 0. 3. 0. 0. 0. 4. 0. 0. 0. 229. 1. 0. 0. 4.
      0. 0. 0. 21. 0. 0. 0. 19. 0. 0. 0. 83. 2. 0. 0. 5. 0. 0. 0. 186.
      0. 0. 0. 74. 0. 0. 0.</_>
    <_>
      217. 2. 0. 0. 95. 0. 0. 0. 60. 0. 0. 0. 130. 0. 0. 0. 107. 0. 0.
      0. 2. 0. 0. 0. 122. 0. 0. 0. 11. 1. 0. 0. 47. 0. 0. 0. 1. 0. 0. 0.
      5. 0. 0. 0. 5. 0. 0. 0. 94. 0. 0. 0. 1. 0. 0. 0. 22. 1. 0. 0. 193.
      1. 0. 0. 81. 0. 0. 0. 6. 0. 0. 0. 1. 0. 0. 0. 1. 0. 0. 0. 3. 0. 0.
      0. 0. 0. 0. 0. 3. 0. 0. 0. 1. 0. 0. 0. 73. 0. 0. 0. 3. 0. 0. 0. 4.
      0. 0. 0. 5. 0. 0. 0. 225. 0. 0. 0. 2. 0. 0. 0. 168. 1. 0. 0. 78.
      0. 0. 0. 80. 0. 0. 0. 0. 0. 0. 0. 6. 0. 0. 0. 6. 0. 0. 0. 6. 0. 0.
      0. 0. 0. 0. 0. 3. 0. 0. 0. 1. 0. 0. 0. 9. 0. 0. 0. 0. 0. 0. 0. 0.
      0. 0. 0. 1. 0. 0. 0. 7. 0. 0. 0. 0. 0. 0. 0. 8. 0. 0. 0. 7. 0. 0.
      0. 116. 0. 0. 0. 3. 0. 0. 0. 3. 0. 0. 0. 3. 0. 0. 0. 3. 0. 0. 0.
      0. 0. 0. 0. 3. 0. 0. 0. 2. 0. 0. 0. 56. 1. 0. 0. 2. 0. 0. 0. 11.
      0. 0. 0. 10. 0. 0. 0. 252. 1. 0. 0. 0. 0. 0. 0. 203. 0. 0. 0. 66.
      0. 0. 0.</_>
    <_>
      248. 5. 0. 0. 173. 0. 0. 0. 95. 0. 0. 0. 81. 0. 0. 0. 154. 0. 0.
      0. 19. 0. 0. 0. 87. 0. 0. 0. 96. 0. 0. 0. 139. 0. 0. 0. 22. 0. 0.
      0. 16. 0. 0. 0. 16. 0. 0. 0. 138. 0. 0. 0. 9. 0. 0. 0. 157. 0. 0.
      0. 144. 0. 0. 0. 192. 0. 0. 0. 23. 0. 0. 0. 8. 0. 0. 0. 7. 0. 0.
      0. 22. 0. 0. 0. 3. 0. 0. 0. 9. 0. 0. 0. 3. 0. 0. 0. 171. 0. 0. 0.
      14. 0. 0. 0. 12. 0. 0. 0. 11. 0. 0. 0. 210. 0. 0. 0. 11. 0. 0. 0.
      188. 0. 0. 0. 160. 0. 0. 0. 133. 0. 0. 0. 14. 0. 0. 0. 4. 0. 0. 0.
      8. 0. 0. 0. 14. 0. 0. 0. 1. 0. 0. 0. 4. 0. 0. 0. 5. 0. 0. 0. 40.
      0. 0. 0. 4. 0. 0. 0. 6. 0. 0. 0. 1. 0. 0. 0. 37. 0. 0. 0. 2. 0. 0.
      0. 17. 0. 0. 0. 16. 0. 0. 0. 202. 0. 0. 0. 11. 0. 0. 0. 9. 0. 0.
      0. 7. 0. 0. 0. 23. 0. 0. 0. 3. 0. 0. 0. 6. 0. 0. 0. 7. 0. 0. 0.
      130. 1. 0. 0. 22. 0. 0. 0. 26. 0. 0. 0. 19. 0. 0. 0. 13. 2. 0. 0.
      18. 0. 0. 0. 236. 0. 0. 0. 94. 0. 0. 0.</_>
    <_>
      138. 6. 0. 0. 181. 0. 0. 0. 114. 0. 0. 0. 109. 0. 0. 0. 223. 0. 0.
      0. 27. 0. 0. 0. 90. 0. 0. 0. 114. 0. 0. 0. 121. 0. 0. 0. 8. 0. 0.
      0. 19. 0. 0. 0. 27. 0. 0. 0. 97. 0. 0. 0. 14. 0. 0. 0. 139. 0. 0.
      0. 137. 0. 0. 0. 209. 0. 0. 0. 25. 0. 0. 0. 16. 0. 0. 0. 18. 0. 0.
      0. 35. 0. 0. 0. 3. 0. 0. 0. 5. 0. 0. 0. 10. 0. 0. 0. 113. 0. 0. 0.
      7. 0. 0. 0. 14. 0. 0. 0. 13. 0. 0. 0. 131. 0. 0. 0. 10. 0. 0. 0.
      130. 0. 0. 0. 92. 0. 0. 0. 131. 0. 0. 0. 22. 0. 0. 0. 15. 0. 0. 0.
      19. 0. 0. 0. 18. 0. 0. 0. 6. 0. 0. 0. 11. 0. 0. 0. 5. 0. 0. 0. 24.
      0. 0. 0. 7. 0. 0. 0. 7. 0. 0. 0. 3. 0. 0. 0. 27. 0. 0. 0. 3. 0. 0.
      0. 25. 0. 0. 0. 16. 0. 0. 0. 128. 0. 0. 0. 21. 0. 0. 0. 8. 0. 0.
      0. 7. 0. 0. 0. 18. 0. 0. 0. 1. 0. 0. 0. 5. 0. 0. 0. 5. 0. 0. 0. 3.
      1. 0. 0. 23. 0. 0. 0. 22. 0. 0. 0. 22. 0. 0. 0. 222. 0. 0. 0. 16.
      0. 0. 0. 156. 0. 0. 0. 95. 0. 0. 0.</_>
    <_>
      126. 3. 0. 0. 140. 0. 0. 0. 109. 0. 0. 0. 159. 0. 0. 0. 86. 0. 0.
      0. 2. 0. 0. 0. 155. 0. 0. 0. 242. 0. 0. 0. 78. 0. 0. 0. 4. 0. 0.
      0. 5. 0. 0. 0. 5. 0. 0. 0. 129. 0. 0. 0. 3. 0. 0. 0. 223. 1. 0. 0.
      13. 3. 0. 0. 88. 0. 0. 0. 6. 0. 0. 0. 5. 0. 0. 0. 3. 0. 0. 0. 1.
      0. 0. 0. 0. 0. 0. 0. 0. 0. 0. 0. 1. 0. 0. 0. 133. 0. 0. 0. 2. 0.
      0. 0. 16. 0. 0. 0. 6. 0. 0. 0. 163. 0. 0. 0. 3. 0. 0. 0. 110. 1.
      0. 0. 147. 0. 0. 0. 111. 0. 0. 0. 3. 0. 0. 0. 9. 0. 0. 0. 5. 0. 0.
      0. 5. 0. 0. 0. 0. 0. 0. 0. 6. 0. 0. 0. 3. 0. 0. 0. 12. 0. 0. 0. 0.
      0. 0. 0. 0. 0. 0. 0. 1. 0. 0. 0. 7. 0. 0. 0. 0. 0. 0. 0. 13. 0. 0.
      0. 5. 0. 0. 0. 113. 0. 0. 0. 0. 0. 0. 0. 4. 0. 0. 0. 4. 0. 0. 0.
      3. 0. 0. 0. 0. 0. 0. 0. 3. 0. 0. 0. 3. 0. 0. 0. 98. 1. 0. 0. 4. 0.
      0. 0. 27. 0. 0. 0. 17. 0. 0. 0. 248. 0. 0. 0. 2. 0. 0. 0. 231. 0.
      0. 0. 54. 0. 0. 0.</_>
    <_>
      1. 3. 0. 0. 114. 0. 0. 0. 70. 0. 0. 0. 127. 0. 0. 0. 99. 0. 0. 0.
      8. 0. 0. 0. 137. 0. 0. 0. 172. 0. 0. 0. 80. 0. 0. 0. 5. 0. 0. 0.
      10. 0. 0. 0. 9. 0. 0. 0. 167. 0. 0. 0. 6. 0. 0. 0. 20. 2. 0. 0.
      173. 1. 0. 0. 120. 0. 0. 0. 10. 0. 0. 0. 5. 0. 0. 0. 3. 0. 0. 0.
      2. 0. 0. 0. 0. 0. 0. 0. 3. 0. 0. 0. 5. 0. 0. 0. 173. 0. 0. 0. 2.
      0. 0. 0. 8. 0. 0. 0. 8. 0. 0. 0. 252. 0. 0. 0. 3. 0. 0. 0. 115. 2.
      0. 0. 183. 0. 0. 0. 83. 0. 0. 0. 4. 0. 0. 0. 10. 0. 0. 0. 6. 0. 0.
      0. 7. 0. 0. 0. 0. 0. 0. 0. 9. 0. 0. 0. 5. 0. 0. 0. 11. 0. 0. 0. 1.
      0. 0. 0. 1. 0. 0. 0. 0. 0. 0. 0. 13. 0. 0. 0. 0. 0. 0. 0. 21. 0.
      0. 0. 20. 0. 0. 0. 175. 0. 0. 0. 6. 0. 0. 0. 8. 0. 0. 0. 6. 0. 0.
      0. 4. 0. 0. 0. 0. 0. 0. 0. 4. 0. 0. 0. 3. 0. 0. 0. 217. 1. 0. 0.
      5. 0. 0. 0. 26. 0. 0. 0. 11. 0. 0. 0. 165. 1. 0. 0. 0. 0. 0. 0.
      47. 1. 0. 0. 76. 0. 0. 0.</_>
    <_>
      238. 2. 0. 0. 103. 0. 0. 0. 68. 0. 0. 0. 144. 0. 0. 0. 79. 0. 0.
      0. 3. 0. 0. 0. 116. 0. 0. 0. 181. 0. 0. 0. 81. 0. 0. 0. 2. 0. 0.
      0. 6. 0. 0. 0. 10. 0. 0. 0. 128. 0. 0. 0. 2. 0. 0. 0. 201. 1. 0.
      0. 149. 1. 0. 0. 120. 0. 0. 0. 7. 0. 0. 0. 3. 0. 0. 0. 2. 0. 0. 0.
      3. 0. 0. 0. 0. 0. 0. 0. 4. 0. 0. 0. 2. 0. 0. 0. 162. 0. 0. 0. 5.
      0. 0. 0. 8. 0. 0. 0. 4. 0. 0. 0. 10. 1. 0. 0. 1. 0. 0. 0. 101. 2.
      0. 0. 139. 0. 0. 0. 111. 0. 0. 0. 9. 0. 0. 0. 8. 0. 0. 0. 5. 0. 0.
      0. 8. 0. 0. 0. 0. 0. 0. 0. 5. 0. 0. 0. 1. 0. 0. 0. 12. 0. 0. 0. 0.
      0. 0. 0. 0. 0. 0. 0. 0. 0. 0. 0. 14. 0. 0. 0. 0. 0. 0. 0. 26. 0.
      0. 0. 9. 0. 0. 0. 161. 0. 0. 0. 2. 0. 0. 0. 6. 0. 0. 0. 5. 0. 0.
      0. 2. 0. 0. 0. 0. 0. 0. 0. 6. 0. 0. 0. 0. 0. 0. 0. 255. 1. 0. 0.
      4. 0. 0. 0. 20. 0. 0. 0. 12. 0. 0. 0. 24. 2. 0. 0. 2. 0. 0. 0. 45.
      1. 0. 0. 58. 0. 0. 0.</_>
    <_>
      75. 3. 0. 0. 84. 0. 0. 0. 100. 0. 0. 0. 169. 0. 0. 0. 97. 0. 0. 0.
      2. 0. 0. 0. 185. 0. 0. 0. 245. 0. 0. 0. 88. 0. 0. 0. 2. 0. 0. 0.
      8. 0. 0. 0. 10. 0. 0. 0. 149. 0. 0. 0. 3. 0. 0. 0. 49. 2. 0. 0.
      245. 1. 0. 0. 77. 0. 0. 0. 8. 0. 0. 0. 3. 0. 0. 0. 2. 0. 0. 0. 2.
      0. 0. 0. 0. 0. 0. 0. 3. 0. 0. 0. 3. 0. 0. 0. 144. 0. 0. 0. 4. 0.
      0. 0. 9. 0. 0. 0. 9. 0. 0. 0. 178. 0. 0. 0. 0. 0. 0. 0. 235. 1. 0.
      0. 143. 0. 0. 0. 94. 0. 0. 0. 2. 0. 0. 0. 15. 0. 0. 0. 9. 0. 0. 0.
      3. 0. 0. 0. 0. 0. 0. 0. 8. 0. 0. 0. 1. 0. 0. 0. 4. 0. 0. 0. 0. 0.
      0. 0. 3. 0. 0. 0. 0. 0. 0. 0. 7. 0. 0. 0. 0. 0. 0. 0. 24. 0. 0. 0.
      13. 0. 0. 0. 132. 0. 0. 0. 5. 0. 0. 0. 3. 0. 0. 0. 2. 0. 0. 0. 1.
      0. 0. 0. 0. 0. 0. 0. 2. 0. 0. 0. 2. 0. 0. 0. 166. 1. 0. 0. 0. 0.
      0. 0. 31. 0. 0. 0. 9. 0. 0. 0. 43. 1. 0. 0. 0. 0. 0. 0. 3. 1. 0.
      0. 50. 0. 0. 0.</_>
    <_>
      192. 2. 0. 0. 72. 0. 0. 0. 69. 0. 0. 0. 126. 0. 0. 0. 124. 0. 0.
      0. 3. 0. 0. 0. 163. 0. 0. 0. 206. 0. 0. 0. 61. 0. 0. 0. 2. 0. 0.
      0. 6. 0. 0. 0. 12. 0. 0. 0. 132. 0. 0. 0. 2. 0. 0. 0. 227. 1. 0.
      0. 226. 1. 0. 0. 122. 0. 0. 0. 8. 0. 0. 0. 2. 0. 0. 0. 5. 0. 0. 0.
      2. 0. 0. 0. 0. 0. 0. 0. 5. 0. 0. 0. 0. 0. 0. 0. 123. 0. 0. 0. 4.
      0. 0. 0. 6. 0. 0. 0. 14. 0. 0. 0. 218. 0. 0. 0. 1. 0. 0. 0. 34. 2.
      0. 0. 154. 0. 0. 0. 75. 0. 0. 0. 6. 0. 0. 0. 8. 0. 0. 0. 6. 0. 0.
      0. 7. 0. 0. 0. 0. 0. 0. 0. 3. 0. 0. 0. 3. 0. 0. 0. 7. 0. 0. 0. 1.
      0. 0. 0. 2. 0. 0. 0. 0. 0. 0. 0. 5. 0. 0. 0. 0. 0. 0. 0. 17. 0. 0.
      0. 14. 0. 0. 0. 117. 0. 0. 0. 6. 0. 0. 0. 6. 0. 0. 0. 2. 0. 0. 0.
      4. 0. 0. 0. 0. 0. 0. 0. 1. 0. 0. 0. 3. 0. 0. 0. 143. 1. 0. 0. 4.
      0. 0. 0. 18. 0. 0. 0. 8. 0. 0. 0. 179. 1. 0. 0. 3. 0. 0. 0. 20. 1.
      0. 0. 67. 0. 0. 0.</_>
    <_>
      145. 3. 0. 0. 81. 0. 0. 0. 90. 0. 0. 0. 152. 0. 0. 0. 55. 0. 0. 0.
      1. 0. 0. 0. 169. 0. 0. 0. 198. 0. 0. 0. 104. 0. 0. 0. 2. 0. 0. 0.
      11. 0. 0. 0. 11. 0. 0. 0. 123. 0. 0. 0. 0. 0. 0. 0. 100. 2. 0. 0.
      68. 2. 0. 0. 82. 0. 0. 0. 4. 0. 0. 0. 3. 0. 0. 0. 0. 0. 0. 0. 0.
      0. 0. 0. 0. 0. 0. 0. 2. 0. 0. 0. 0. 0. 0. 0. 132. 0. 0. 0. 3. 0.
      0. 0. 11. 0. 0. 0. 4. 0. 0. 0. 185. 0. 0. 0. 0. 0. 0. 0. 28. 2. 0.
      0. 127. 0. 0. 0. 104. 0. 0. 0. 1. 0. 0. 0. 11. 0. 0. 0. 0. 0. 0.
      0. 2. 0. 0. 0. 0. 0. 0. 0. 6. 0. 0. 0. 1. 0. 0. 0. 7. 0. 0. 0. 0.
      0. 0. 0. 1. 0. 0. 0. 1. 0. 0. 0. 5. 0. 0. 0. 0. 0. 0. 0. 28. 0. 0.
      0. 10. 0. 0. 0. 119. 0. 0. 0. 2. 0. 0. 0. 1. 0. 0. 0. 2. 0. 0. 0.
      0. 0. 0. 0. 0. 0. 0. 0. 1. 0. 0. 0. 0. 0. 0. 0. 47. 2. 0. 0. 0. 0.
      0. 0. 23. 0. 0. 0. 6. 0. 0. 0. 181. 1. 0. 0. 0. 0. 0. 0. 251. 0.
      0. 0. 37. 0. 0. 0.</_>
    <_>
      37. 8. 0. 0. 233. 0. 0. 0. 93. 0. 0. 0. 82. 0. 0. 0. 238. 0. 0. 0.
      41. 0. 0. 0. 95. 0. 0. 0. 76. 0. 0. 0. 107. 0. 0. 0. 20. 0. 0. 0.
      27. 0. 0. 0. 14. 0. 0. 0. 125. 0. 0. 0. 18. 0. 0. 0. 112. 0. 0. 0.
      106. 0. 0. 0. 18. 1. 0. 0. 55. 0. 0. 0. 20. 0. 0. 0. 18. 0. 0. 0.
      43. 0. 0. 0. 8. 0. 0. 0. 22. 0. 0. 0. 5. 0. 0. 0. 123. 0. 0. 0.
      27. 0. 0. 0. 26. 0. 0. 0. 19. 0. 0. 0. 94. 0. 0. 0. 23. 0. 0. 0.
      136. 0. 0. 0. 122. 0. 0. 0. 101. 0. 0. 0. 25. 0. 0. 0. 9. 0. 0. 0.
      7. 0. 0. 0. 23. 0. 0. 0. 3. 0. 0. 0. 5. 0. 0. 0. 16. 0. 0. 0. 31.
      0. 0. 0. 7. 0. 0. 0. 6. 0. 0. 0. 8. 0. 0. 0. 26. 0. 0. 0. 4. 0. 0.
      0. 29. 0. 0. 0. 32. 0. 0. 0. 101. 0. 0. 0. 16. 0. 0. 0. 9. 0. 0.
      0. 15. 0. 0. 0. 15. 0. 0. 0. 2. 0. 0. 0. 5. 0. 0. 0. 10. 0. 0. 0.
      143. 0. 0. 0. 25. 0. 0. 0. 21. 0. 0. 0. 27. 0. 0. 0. 124. 0. 0. 0.
      20. 0. 0. 0. 156. 0. 0. 0. 121. 0. 0. 0.</_>
    <_>
      1. 18. 0. 0. 106. 0. 0. 0. 61. 0. 0. 0. 117. 0. 0. 0. 84. 0. 0. 0.
      4. 0. 0. 0. 93. 0. 0. 0. 125. 0. 0. 0. 53. 0. 0. 0. 9. 0. 0. 0. 6.
      0. 0. 0. 10. 0. 0. 0. 76. 0. 0. 0. 1. 0. 0. 0. 186. 0. 0. 0. 219.
      0. 0. 0. 67. 0. 0. 0. 9. 0. 0. 0. 8. 0. 0. 0. 8. 0. 0. 0. 3. 0. 0.
      0. 0. 0. 0. 0. 3. 0. 0. 0. 4. 0. 0. 0. 70. 0. 0. 0. 3. 0. 0. 0.
      10. 0. 0. 0. 9. 0. 0. 0. 89. 0. 0. 0. 1. 0. 0. 0. 221. 0. 0. 0.
      100. 0. 0. 0. 66. 0. 0. 0. 5. 0. 0. 0. 7. 0. 0. 0. 5. 0. 0. 0. 5.
      0. 0. 0. 1. 0. 0. 0. 4. 0. 0. 0. 3. 0. 0. 0. 5. 0. 0. 0. 1. 0. 0.
      0. 0. 0. 0. 0. 0. 0. 0. 0. 9. 0. 0. 0. 3. 0. 0. 0. 12. 0. 0. 0. 7.
      0. 0. 0. 114. 0. 0. 0. 4. 0. 0. 0. 6. 0. 0. 0. 2. 0. 0. 0. 3. 0.
      0. 0. 0. 0. 0. 0. 3. 0. 0. 0. 1. 0. 0. 0. 170. 0. 0. 0. 5. 0. 0.
      0. 19. 0. 0. 0. 11. 0. 0. 0. 126. 0. 0. 0. 1. 0. 0. 0. 135. 0. 0.
      0. 54. 0. 0. 0.</_>
    <_>
      233. 4. 0. 0. 131. 0. 0. 0. 81. 0. 0. 0. 119. 0. 0. 0. 6. 1. 0. 0.
      26. 0. 0. 0. 132. 0. 0. 0. 193. 0. 0. 0. 109. 0. 0. 0. 11. 0. 0.
      0. 12. 0. 0. 0. 16. 0. 0. 0. 140. 0. 0. 0. 14. 0. 0. 0. 231. 0. 0.
      0. 2. 1. 0. 0. 171. 0. 0. 0. 22. 0. 0. 0. 11. 0. 0. 0. 12. 0. 0.
      0. 15. 0. 0. 0. 0. 0. 0. 0. 10. 0. 0. 0. 2. 0. 0. 0. 148. 0. 0. 0.
      10. 0. 0. 0. 10. 0. 0. 0. 13. 0. 0. 0. 149. 0. 0. 0. 11. 0. 0. 0.
      63. 1. 0. 0. 149. 0. 0. 0. 105. 0. 0. 0. 4. 0. 0. 0. 7. 0. 0. 0.
      8. 0. 0. 0. 9. 0. 0. 0. 0. 0. 0. 0. 8. 0. 0. 0. 9. 0. 0. 0. 20. 0.
      0. 0. 4. 0. 0. 0. 1. 0. 0. 0. 2. 0. 0. 0. 20. 0. 0. 0. 4. 0. 0. 0.
      13. 0. 0. 0. 13. 0. 0. 0. 132. 0. 0. 0. 11. 0. 0. 0. 6. 0. 0. 0.
      7. 0. 0. 0. 13. 0. 0. 0. 0. 0. 0. 0. 11. 0. 0. 0. 8. 0. 0. 0. 79.
      1. 0. 0. 14. 0. 0. 0. 21. 0. 0. 0. 22. 0. 0. 0. 79. 1. 0. 0. 9. 0.
      0. 0. 168. 0. 0. 0. 109. 0. 0. 0.</_>
    <_>
      239. 3. 0. 0. 92. 0. 0. 0. 55. 0. 0. 0. 76. 0. 0. 0. 173. 0. 0. 0.
      3. 0. 0. 0. 79. 0. 0. 0. 121. 0. 0. 0. 95. 0. 0. 0. 5. 0. 0. 0. 8.
      0. 0. 0. 5. 0. 0. 0. 108. 0. 0. 0. 5. 0. 0. 0. 220. 0. 0. 0. 188.
      0. 0. 0. 118. 0. 0. 0. 12. 0. 0. 0. 1. 0. 0. 0. 9. 0. 0. 0. 6. 0.
      0. 0. 0. 0. 0. 0. 3. 0. 0. 0. 2. 0. 0. 0. 152. 0. 0. 0. 7. 0. 0.
      0. 6. 0. 0. 0. 4. 0. 0. 0. 240. 0. 0. 0. 5. 0. 0. 0. 84. 1. 0. 0.
      116. 0. 0. 0. 115. 0. 0. 0. 6. 0. 0. 0. 5. 0. 0. 0. 9. 0. 0. 0.
      15. 0. 0. 0. 1. 0. 0. 0. 4. 0. 0. 0. 3. 0. 0. 0. 13. 0. 0. 0. 5.
      0. 0. 0. 1. 0. 0. 0. 0. 0. 0. 0. 15. 0. 0. 0. 0. 0. 0. 0. 15. 0.
      0. 0. 9. 0. 0. 0. 186. 0. 0. 0. 10. 0. 0. 0. 2. 0. 0. 0. 6. 0. 0.
      0. 17. 0. 0. 0. 0. 0. 0. 0. 2. 0. 0. 0. 2. 0. 0. 0. 63. 2. 0. 0.
      11. 0. 0. 0. 27. 0. 0. 0. 14. 0. 0. 0. 45. 3. 0. 0. 4. 0. 0. 0.
      40. 1. 0. 0. 66. 0. 0. 0.</_>
    <_>
      225. 5. 0. 0. 197. 0. 0. 0. 96. 0. 0. 0. 99. 0. 0. 0. 150. 0. 0.
      0. 22. 0. 0. 0. 100. 0. 0. 0. 122. 0. 0. 0. 115. 0. 0. 0. 16. 0.
      0. 0. 29. 0. 0. 0. 16. 0. 0. 0. 127. 0. 0. 0. 14. 0. 0. 0. 226. 0.
      0. 0. 250. 0. 0. 0. 214. 0. 0. 0. 38. 0. 0. 0. 20. 0. 0. 0. 13. 0.
      0. 0. 18. 0. 0. 0. 2. 0. 0. 0. 10. 0. 0. 0. 5. 0. 0. 0. 103. 0. 0.
      0. 10. 0. 0. 0. 28. 0. 0. 0. 17. 0. 0. 0. 137. 0. 0. 0. 11. 0. 0.
      0. 45. 1. 0. 0. 162. 0. 0. 0. 121. 0. 0. 0. 12. 0. 0. 0. 8. 0. 0.
      0. 11. 0. 0. 0. 11. 0. 0. 0. 1. 0. 0. 0. 12. 0. 0. 0. 9. 0. 0. 0.
      14. 0. 0. 0. 4. 0. 0. 0. 3. 0. 0. 0. 5. 0. 0. 0. 25. 0. 0. 0. 3.
      0. 0. 0. 28. 0. 0. 0. 25. 0. 0. 0. 146. 0. 0. 0. 9. 0. 0. 0. 6. 0.
      0. 0. 4. 0. 0. 0. 9. 0. 0. 0. 0. 0. 0. 0. 3. 0. 0. 0. 6. 0. 0. 0.
      204. 0. 0. 0. 17. 0. 0. 0. 18. 0. 0. 0. 17. 0. 0. 0. 200. 0. 0. 0.
      7. 0. 0. 0. 177. 0. 0. 0. 103. 0. 0. 0.</_>
    <_>
      36. 7. 0. 0. 149. 0. 0. 0. 127. 0. 0. 0. 137. 0. 0. 0. 141. 0. 0.
      0. 8. 0. 0. 0. 112. 0. 0. 0. 98. 0. 0. 0. 148. 0. 0. 0. 10. 0. 0.
      0. 16. 0. 0. 0. 10. 0. 0. 0. 164. 0. 0. 0. 6. 0. 0. 0. 65. 1. 0.
      0. 0. 1. 0. 0. 203. 0. 0. 0. 19. 0. 0. 0. 19. 0. 0. 0. 8. 0. 0. 0.
      10. 0. 0. 0. 0. 0. 0. 0. 6. 0. 0. 0. 1. 0. 0. 0. 187. 0. 0. 0. 11.
      0. 0. 0. 9. 0. 0. 0. 18. 0. 0. 0. 199. 0. 0. 0. 3. 0. 0. 0. 86. 1.
      0. 0. 122. 0. 0. 0. 164. 0. 0. 0. 8. 0. 0. 0. 13. 0. 0. 0. 14. 0.
      0. 0. 13. 0. 0. 0. 0. 0. 0. 0. 11. 0. 0. 0. 3. 0. 0. 0. 19. 0. 0.
      0. 0. 0. 0. 0. 3. 0. 0. 0. 0. 0. 0. 0. 29. 0. 0. 0. 1. 0. 0. 0.
      39. 0. 0. 0. 14. 0. 0. 0. 184. 0. 0. 0. 8. 0. 0. 0. 12. 0. 0. 0.
      7. 0. 0. 0. 12. 0. 0. 0. 0. 0. 0. 0. 5. 0. 0. 0. 1. 0. 0. 0. 43.
      1. 0. 0. 17. 0. 0. 0. 33. 0. 0. 0. 26. 0. 0. 0. 31. 1. 0. 0. 8. 0.
      0. 0. 3. 1. 0. 0. 78. 0. 0. 0.</_>
    <_>
      161. 5. 0. 0. 158. 0. 0. 0. 96. 0. 0. 0. 102. 0. 0. 0. 153. 0. 0.
      0. 23. 0. 0. 0. 107. 0. 0. 0. 123. 0. 0. 0. 122. 0. 0. 0. 19. 0.
      0. 0. 29. 0. 0. 0. 14. 0. 0. 0. 138. 0. 0. 0. 10. 0. 0. 0. 255. 0.
      0. 0. 22. 1. 0. 0. 194. 0. 0. 0. 39. 0. 0. 0. 14. 0. 0. 0. 18. 0.
      0. 0. 20. 0. 0. 0. 6. 0. 0. 0. 7. 0. 0. 0. 15. 0. 0. 0. 138. 0. 0.
      0. 15. 0. 0. 0. 20. 0. 0. 0. 16. 0. 0. 0. 194. 0. 0. 0. 18. 0. 0.
      0. 157. 1. 0. 0. 217. 0. 0. 0. 111. 0. 0. 0. 17. 0. 0. 0. 15. 0.
      0. 0. 4. 0. 0. 0. 18. 0. 0. 0. 2. 0. 0. 0. 9. 0. 0. 0. 7. 0. 0. 0.
      25. 0. 0. 0. 3. 0. 0. 0. 2. 0. 0. 0. 1. 0. 0. 0. 29. 0. 0. 0. 2.
      0. 0. 0. 28. 0. 0. 0. 20. 0. 0. 0. 124. 0. 0. 0. 19. 0. 0. 0. 8.
      0. 0. 0. 7. 0. 0. 0. 17. 0. 0. 0. 0. 0. 0. 0. 8. 0. 0. 0. 6. 0. 0.
      0. 21. 1. 0. 0. 12. 0. 0. 0. 14. 0. 0. 0. 16. 0. 0. 0. 82. 1. 0.
      0. 16. 0. 0. 0. 237. 0. 0. 0. 88. 0. 0. 0.</_>
    <_>
      130. 6. 0. 0. 27. 1. 0. 0. 104. 0. 0. 0. 111. 0. 0. 0. 136. 0. 0.
      0. 26. 0. 0. 0. 108. 0. 0. 0. 106. 0. 0. 0. 109. 0. 0. 0. 21. 0.
      0. 0. 23. 0. 0. 0. 21. 0. 0. 0. 99. 0. 0. 0. 26. 0. 0. 0. 2. 1. 0.
      0. 6. 1. 0. 0. 41. 1. 0. 0. 50. 0. 0. 0. 19. 0. 0. 0. 23. 0. 0. 0.
      20. 0. 0. 0. 3. 0. 0. 0. 18. 0. 0. 0. 11. 0. 0. 0. 116. 0. 0. 0.
      14. 0. 0. 0. 21. 0. 0. 0. 22. 0. 0. 0. 125. 0. 0. 0. 13. 0. 0. 0.
      248. 0. 0. 0. 202. 0. 0. 0. 88. 0. 0. 0. 13. 0. 0. 0. 6. 0. 0. 0.
      8. 0. 0. 0. 11. 0. 0. 0. 4. 0. 0. 0. 10. 0. 0. 0. 11. 0. 0. 0. 28.
      0. 0. 0. 2. 0. 0. 0. 2. 0. 0. 0. 2. 0. 0. 0. 24. 0. 0. 0. 4. 0. 0.
      0. 30. 0. 0. 0. 30. 0. 0. 0. 111. 0. 0. 0. 18. 0. 0. 0. 14. 0. 0.
      0. 14. 0. 0. 0. 10. 0. 0. 0. 3. 0. 0. 0. 9. 0. 0. 0. 11. 0. 0. 0.
      165. 0. 0. 0. 13. 0. 0. 0. 13. 0. 0. 0. 10. 0. 0. 0. 141. 0. 0. 0.
      10. 0. 0. 0. 138. 0. 0. 0. 88. 0. 0. 0.</_>
    <_>
      83. 4. 0. 0. 100. 0. 0. 0. 76. 0. 0. 0. 107. 0. 0. 0. 140. 0. 0.
      0. 6. 0. 0. 0. 125. 0. 0. 0. 180. 0. 0. 0. 116. 0. 0. 0. 6. 0. 0.
      0. 11. 0. 0. 0. 11. 0. 0. 0. 150. 0. 0. 0. 8. 0. 0. 0. 1. 1. 0. 0.
      38. 1. 0. 0. 141. 0. 0. 0. 16. 0. 0. 0. 10. 0. 0. 0. 7. 0. 0. 0.
      7. 0. 0. 0. 0. 0. 0. 0. 5. 0. 0. 0. 6. 0. 0. 0. 171. 0. 0. 0. 11.
      0. 0. 0. 8. 0. 0. 0. 16. 0. 0. 0. 236. 0. 0. 0. 3. 0. 0. 0. 242.
      0. 0. 0. 131. 0. 0. 0. 120. 0. 0. 0. 15. 0. 0. 0. 8. 0. 0. 0. 8.
      0. 0. 0. 11. 0. 0. 0. 1. 0. 0. 0. 4. 0. 0. 0. 4. 0. 0. 0. 18. 0.
      0. 0. 1. 0. 0. 0. 1. 0. 0. 0. 0. 0. 0. 0. 15. 0. 0. 0. 1. 0. 0. 0.
      24. 0. 0. 0. 15. 0. 0. 0. 159. 0. 0. 0. 11. 0. 0. 0. 9. 0. 0. 0.
      5. 0. 0. 0. 9. 0. 0. 0. 0. 0. 0. 0. 7. 0. 0. 0. 3. 0. 0. 0. 160.
      1. 0. 0. 9. 0. 0. 0. 22. 0. 0. 0. 19. 0. 0. 0. 251. 1. 0. 0. 6. 0.
      0. 0. 21. 1. 0. 0. 81. 0. 0. 0.</_>
    <_>
      176. 6. 0. 0. 60. 0. 0. 0. 182. 0. 0. 0. 157. 0. 0. 0. 121. 0. 0.
      0. 1. 0. 0. 0. 209. 0. 0. 0. 174. 0. 0. 0. 169. 0. 0. 0. 3. 0. 0.
      0. 20. 0. 0. 0. 15. 0. 0. 0. 172. 0. 0. 0. 0. 0. 0. 0. 130. 2. 0.
      0. 35. 1. 0. 0. 46. 0. 0. 0. 1. 0. 0. 0. 2. 0. 0. 0. 1. 0. 0. 0.
      2. 0. 0. 0. 0. 0. 0. 0. 1. 0. 0. 0. 0. 0. 0. 0. 150. 0. 0. 0. 0.
      0. 0. 0. 17. 0. 0. 0. 10. 0. 0. 0. 142. 0. 0. 0. 0. 0. 0. 0. 66.
      1. 0. 0. 74. 0. 0. 0. 157. 0. 0. 0. 1. 0. 0. 0. 18. 0. 0. 0. 1. 0.
      0. 0. 5. 0. 0. 0. 0. 0. 0. 0. 7. 0. 0. 0. 2. 0. 0. 0. 17. 0. 0. 0.
      1. 0. 0. 0. 1. 0. 0. 0. 1. 0. 0. 0. 11. 0. 0. 0. 0. 0. 0. 0. 32.
      0. 0. 0. 7. 0. 0. 0. 165. 0. 0. 0. 3. 0. 0. 0. 6. 0. 0. 0. 2. 0.
      0. 0. 7. 0. 0. 0. 0. 0. 0. 0. 1. 0. 0. 0. 1. 0. 0. 0. 86. 2. 0. 0.
      3. 0. 0. 0. 37. 0. 0. 0. 19. 0. 0. 0. 103. 1. 0. 0. 4. 0. 0. 0. 5.
      1. 0. 0. 42. 0. 0. 0.</_>
    <_>
      230. 1. 0. 0. 96. 0. 0. 0. 63. 0. 0. 0. 120. 0. 0. 0. 110. 0. 0.
      0. 2. 0. 0. 0. 140. 0. 0. 0. 0. 1. 0. 0. 40. 0. 0. 0. 5. 0. 0. 0.
      1. 0. 0. 0. 5. 0. 0. 0. 126. 0. 0. 0. 3. 0. 0. 0. 245. 0. 0. 0.
      148. 1. 0. 0. 105. 0. 0. 0. 6. 0. 0. 0. 2. 0. 0. 0. 0. 0. 0. 0. 2.
      0. 0. 0. 0. 0. 0. 0. 2. 0. 0. 0. 4. 0. 0. 0. 132. 0. 0. 0. 2. 0.
      0. 0. 1. 0. 0. 0. 6. 0. 0. 0. 44. 1. 0. 0. 1. 0. 0. 0. 201. 1. 0.
      0. 106. 0. 0. 0. 43. 0. 0. 0. 2. 0. 0. 0. 6. 0. 0. 0. 6. 0. 0. 0.
      4. 0. 0. 0. 0. 0. 0. 0. 1. 0. 0. 0. 7. 0. 0. 0. 4. 0. 0. 0. 0. 0.
      0. 0. 0. 0. 0. 0. 0. 0. 0. 0. 5. 0. 0. 0. 0. 0. 0. 0. 7. 0. 0. 0.
      13. 0. 0. 0. 119. 0. 0. 0. 1. 0. 0. 0. 10. 0. 0. 0. 5. 0. 0. 0. 4.
      0. 0. 0. 0. 0. 0. 0. 5. 0. 0. 0. 3. 0. 0. 0. 144. 1. 0. 0. 4. 0.
      0. 0. 15. 0. 0. 0. 14. 0. 0. 0. 18. 3. 0. 0. 0. 0. 0. 0. 93. 1. 0.
      0. 54. 0. 0. 0.</_>
    <_>
      37. 6. 0. 0. 214. 0. 0. 0. 141. 0. 0. 0. 139. 0. 0. 0. 193. 0. 0.
      0. 19. 0. 0. 0. 104. 0. 0. 0. 140. 0. 0. 0. 113. 0. 0. 0. 21. 0.
      0. 0. 25. 0. 0. 0. 23. 0. 0. 0. 108. 0. 0. 0. 14. 0. 0. 0. 53. 1.
      0. 0. 52. 1. 0. 0. 228. 0. 0. 0. 27. 0. 0. 0. 22. 0. 0. 0. 18. 0.
      0. 0. 25. 0. 0. 0. 2. 0. 0. 0. 16. 0. 0. 0. 6. 0. 0. 0. 123. 0. 0.
      0. 16. 0. 0. 0. 21. 0. 0. 0. 19. 0. 0. 0. 122. 0. 0. 0. 7. 0. 0.
      0. 249. 0. 0. 0. 155. 0. 0. 0. 128. 0. 0. 0. 16. 0. 0. 0. 8. 0. 0.
      0. 7. 0. 0. 0. 16. 0. 0. 0. 1. 0. 0. 0. 12. 0. 0. 0. 4. 0. 0. 0.
      20. 0. 0. 0. 2. 0. 0. 0. 5. 0. 0. 0. 5. 0. 0. 0. 14. 0. 0. 0. 3.
      0. 0. 0. 26. 0. 0. 0. 26. 0. 0. 0. 120. 0. 0. 0. 8. 0. 0. 0. 9. 0.
      0. 0. 8. 0. 0. 0. 16. 0. 0. 0. 3. 0. 0. 0. 11. 0. 0. 0. 3. 0. 0.
      0. 126. 0. 0. 0. 21. 0. 0. 0. 20. 0. 0. 0. 9. 0. 0. 0. 122. 0. 0.
      0. 13. 0. 0. 0. 193. 0. 0. 0. 98. 0. 0. 0.</_>
    <_>
      80. 2. 0. 0. 63. 0. 0. 0. 54. 0. 0. 0. 104. 0. 0. 0. 160. 0. 0. 0.
      1. 0. 0. 0. 142. 0. 0. 0. 50. 1. 0. 0. 65. 0. 0. 0. 5. 0. 0. 0. 4.
      0. 0. 0. 4. 0. 0. 0. 141. 0. 0. 0. 0. 0. 0. 0. 25. 1. 0. 0. 51. 2.
      0. 0. 59. 0. 0. 0. 11. 0. 0. 0. 1. 0. 0. 0. 6. 0. 0. 0. 7. 0. 0.
      0. 0. 0. 0. 0. 1. 0. 0. 0. 0. 0. 0. 0. 119. 0. 0. 0. 1. 0. 0. 0.
      9. 0. 0. 0. 7. 0. 0. 0. 233. 0. 0. 0. 2. 0. 0. 0. 89. 1. 0. 0.
      149. 0. 0. 0. 63. 0. 0. 0. 5. 0. 0. 0. 4. 0. 0. 0. 5. 0. 0. 0. 11.
      0. 0. 0. 1. 0. 0. 0. 0. 0. 0. 0. 4. 0. 0. 0. 5. 0. 0. 0. 0. 0. 0.
      0. 1. 0. 0. 0. 0. 0. 0. 0. 12. 0. 0. 0. 0. 0. 0. 0. 11. 0. 0. 0.
      5. 0. 0. 0. 96. 0. 0. 0. 6. 0. 0. 0. 9. 0. 0. 0. 7. 0. 0. 0. 9. 0.
      0. 0. 0. 0. 0. 0. 2. 0. 0. 0. 1. 0. 0. 0. 195. 1. 0. 0. 6. 0. 0.
      0. 21. 0. 0. 0. 12. 0. 0. 0. 232. 3. 0. 0. 4. 0. 0. 0. 8. 1. 0. 0.
      82. 0. 0. 0.</_>
    <_>
      140. 3. 0. 0. 97. 0. 0. 0. 74. 0. 0. 0. 121. 0. 0. 0. 50. 0. 0. 0.
      4. 0. 0. 0. 102. 0. 0. 0. 237. 0. 0. 0. 68. 0. 0. 0. 6. 0. 0. 0.
      6. 0. 0. 0. 7. 0. 0. 0. 93. 0. 0. 0. 1. 0. 0. 0. 46. 1. 0. 0. 168.
      1. 0. 0. 95. 0. 0. 0. 14. 0. 0. 0. 3. 0. 0. 0. 2. 0. 0. 0. 1. 0.
      0. 0. 0. 0. 0. 0. 0. 0. 0. 0. 1. 0. 0. 0. 98. 0. 0. 0. 2. 0. 0. 0.
      5. 0. 0. 0. 5. 0. 0. 0. 135. 0. 0. 0. 1. 0. 0. 0. 72. 1. 0. 0. 73.
      0. 0. 0. 93. 0. 0. 0. 3. 0. 0. 0. 10. 0. 0. 0. 2. 0. 0. 0. 1. 0.
      0. 0. 0. 0. 0. 0. 2. 0. 0. 0. 0. 0. 0. 0. 14. 0. 0. 0. 1. 0. 0. 0.
      0. 0. 0. 0. 0. 0. 0. 0. 7. 0. 0. 0. 1. 0. 0. 0. 11. 0. 0. 0. 5. 0.
      0. 0. 139. 0. 0. 0. 3. 0. 0. 0. 3. 0. 0. 0. 2. 0. 0. 0. 2. 0. 0.
      0. 0. 0. 0. 0. 2. 0. 0. 0. 0. 0. 0. 0. 82. 2. 0. 0. 2. 0. 0. 0.
      13. 0. 0. 0. 6. 0. 0. 0. 198. 1. 0. 0. 1. 0. 0. 0. 171. 0. 0. 0.
      35. 0. 0. 0.</_>
    <_>
      99. 1. 0. 0. 68. 0. 0. 0. 46. 0. 0. 0. 123. 0. 0. 0. 82. 0. 0. 0.
      2. 0. 0. 0. 120. 0. 0. 0. 182. 1. 0. 0. 36. 0. 0. 0. 3. 0. 0. 0.
      2. 0. 0. 0. 10. 0. 0. 0. 86. 0. 0. 0. 2. 0. 0. 0. 159. 1. 0. 0.
      34. 4. 0. 0. 59. 0. 0. 0. 2. 0. 0. 0. 3. 0. 0. 0. 1. 0. 0. 0. 2.
      0. 0. 0. 0. 0. 0. 0. 4. 0. 0. 0. 1. 0. 0. 0. 93. 0. 0. 0. 3. 0. 0.
      0. 2. 0. 0. 0. 3. 0. 0. 0. 194. 0. 0. 0. 1. 0. 0. 0. 2. 2. 0. 0.
      115. 0. 0. 0. 44. 0. 0. 0. 2. 0. 0. 0. 6. 0. 0. 0. 1. 0. 0. 0. 3.
      0. 0. 0. 0. 0. 0. 0. 5. 0. 0. 0. 2. 0. 0. 0. 5. 0. 0. 0. 0. 0. 0.
      0. 0. 0. 0. 0. 0. 0. 0. 0. 5. 0. 0. 0. 0. 0. 0. 0. 10. 0. 0. 0. 3.
      0. 0. 0. 101. 0. 0. 0. 3. 0. 0. 0. 2. 0. 0. 0. 2. 0. 0. 0. 0. 0.
      0. 0. 0. 0. 0. 0. 1. 0. 0. 0. 1. 0. 0. 0. 34. 2. 0. 0. 2. 0. 0. 0.
      11. 0. 0. 0. 9. 0. 0. 0. 90. 2. 0. 0. 1. 0. 0. 0. 255. 0. 0. 0.
      38. 0. 0. 0.</_>
    <_>
      110. 1. 0. 0. 69. 0. 0. 0. 41. 0. 0. 0. 71. 0. 0. 0. 31. 0. 0. 0.
      0. 0. 0. 0. 79. 0. 0. 0. 180. 0. 0. 0. 48. 0. 0. 0. 2. 0. 0. 0. 0.
      0. 0. 0. 8. 0. 0. 0. 62. 0. 0. 0. 0. 0. 0. 0. 4. 1. 0. 0. 172. 1.
      0. 0. 63. 0. 0. 0. 3. 0. 0. 0. 1. 0. 0. 0. 0. 0. 0. 0. 2. 0. 0. 0.
      0. 0. 0. 0. 2. 0. 0. 0. 0. 0. 0. 0. 85. 0. 0. 0. 2. 0. 0. 0. 4. 0.
      0. 0. 3. 0. 0. 0. 235. 0. 0. 0. 0. 0. 0. 0. 207. 1. 0. 0. 62. 0.
      0. 0. 78. 0. 0. 0. 1. 0. 0. 0. 8. 0. 0. 0. 2. 0. 0. 0. 1. 0. 0. 0.
      0. 0. 0. 0. 1. 0. 0. 0. 2. 0. 0. 0. 2. 0. 0. 0. 0. 0. 0. 0. 0. 0.
      0. 0. 0. 0. 0. 0. 5. 0. 0. 0. 0. 0. 0. 0. 9. 0. 0. 0. 4. 0. 0. 0.
      117. 0. 0. 0. 2. 0. 0. 0. 1. 0. 0. 0. 2. 0. 0. 0. 1. 0. 0. 0. 0.
      0. 0. 0. 1. 0. 0. 0. 0. 0. 0. 0. 9. 3. 0. 0. 0. 0. 0. 0. 11. 0. 0.
      0. 6. 0. 0. 0. 115. 3. 0. 0. 0. 0. 0. 0. 207. 0. 0. 0. 23. 0. 0.
      0.</_>
    <_>
      81. 5. 0. 0. 252. 0. 0. 0. 115. 0. 0. 0. 168. 0. 0. 0. 139. 0. 0.
      0. 21. 0. 0. 0. 155. 0. 0. 0. 131. 0. 0. 0. 118. 0. 0. 0. 22. 0.
      0. 0. 24. 0. 0. 0. 23. 0. 0. 0. 130. 0. 0. 0. 13. 0. 0. 0. 21. 1.
      0. 0. 26. 1. 0. 0. 219. 0. 0. 0. 38. 0. 0. 0. 13. 0. 0. 0. 22. 0.
      0. 0. 7. 0. 0. 0. 0. 0. 0. 0. 13. 0. 0. 0. 11. 0. 0. 0. 116. 0. 0.
      0. 12. 0. 0. 0. 24. 0. 0. 0. 19. 0. 0. 0. 104. 0. 0. 0. 6. 0. 0.
      0. 242. 0. 0. 0. 188. 0. 0. 0. 94. 0. 0. 0. 6. 0. 0. 0. 13. 0. 0.
      0. 6. 0. 0. 0. 6. 0. 0. 0. 2. 0. 0. 0. 5. 0. 0. 0. 6. 0. 0. 0. 14.
      0. 0. 0. 7. 0. 0. 0. 2. 0. 0. 0. 3. 0. 0. 0. 19. 0. 0. 0. 2. 0. 0.
      0. 25. 0. 0. 0. 21. 0. 0. 0. 152. 0. 0. 0. 13. 0. 0. 0. 5. 0. 0.
      0. 4. 0. 0. 0. 5. 0. 0. 0. 2. 0. 0. 0. 2. 0. 0. 0. 4. 0. 0. 0.
      208. 0. 0. 0. 17. 0. 0. 0. 21. 0. 0. 0. 16. 0. 0. 0. 151. 0. 0. 0.
      10. 0. 0. 0. 161. 0. 0. 0. 98. 0. 0. 0.</_>
    <_>
      210. 1. 0. 0. 41. 0. 0. 0. 57. 0. 0. 0. 116. 0. 0. 0. 64. 0. 0. 0.
      0. 0. 0. 0. 150. 0. 0. 0. 72. 1. 0. 0. 58. 0. 0. 0. 3. 0. 0. 0. 3.
      0. 0. 0. 3. 0. 0. 0. 155. 0. 0. 0. 0. 0. 0. 0. 0. 2. 0. 0. 5. 3.
      0. 0. 49. 0. 0. 0. 3. 0. 0. 0. 3. 0. 0. 0. 1. 0. 0. 0. 1. 0. 0. 0.
      0. 0. 0. 0. 1. 0. 0. 0. 0. 0. 0. 0. 122. 0. 0. 0. 1. 0. 0. 0. 10.
      0. 0. 0. 1. 0. 0. 0. 80. 1. 0. 0. 0. 0. 0. 0. 39. 2. 0. 0. 142. 0.
      0. 0. 66. 0. 0. 0. 2. 0. 0. 0. 12. 0. 0. 0. 4. 0. 0. 0. 0. 0. 0.
      0. 0. 0. 0. 0. 3. 0. 0. 0. 0. 0. 0. 0. 1. 0. 0. 0. 0. 0. 0. 0. 0.
      0. 0. 0. 0. 0. 0. 0. 6. 0. 0. 0. 0. 0. 0. 0. 11. 0. 0. 0. 2. 0. 0.
      0. 106. 0. 0. 0. 0. 0. 0. 0. 6. 0. 0. 0. 0. 0. 0. 0. 1. 0. 0. 0.
      0. 0. 0. 0. 1. 0. 0. 0. 0. 0. 0. 0. 133. 2. 0. 0. 2. 0. 0. 0. 15.
      0. 0. 0. 7. 0. 0. 0. 233. 3. 0. 0. 0. 0. 0. 0. 162. 1. 0. 0. 46.
      0. 0. 0.</_>
    <_>
      107. 3. 0. 0. 67. 0. 0. 0. 116. 0. 0. 0. 119. 0. 0. 0. 81. 0. 0.
      0. 3. 0. 0. 0. 146. 0. 0. 0. 60. 1. 0. 0. 76. 0. 0. 0. 2. 0. 0. 0.
      11. 0. 0. 0. 1. 0. 0. 0. 135. 0. 0. 0. 3. 0. 0. 0. 5. 3. 0. 0.
      140. 3. 0. 0. 70. 0. 0. 0. 7. 0. 0. 0. 3. 0. 0. 0. 2. 0. 0. 0. 1.
      0. 0. 0. 0. 0. 0. 0. 3. 0. 0. 0. 1. 0. 0. 0. 92. 0. 0. 0. 3. 0. 0.
      0. 7. 0. 0. 0. 2. 0. 0. 0. 170. 0. 0. 0. 0. 0. 0. 0. 30. 3. 0. 0.
      155. 0. 0. 0. 52. 0. 0. 0. 7. 0. 0. 0. 11. 0. 0. 0. 2. 0. 0. 0. 1.
      0. 0. 0. 0. 0. 0. 0. 3. 0. 0. 0. 3. 0. 0. 0. 1. 0. 0. 0. 0. 0. 0.
      0. 0. 0. 0. 0. 0. 0. 0. 0. 4. 0. 0. 0. 1. 0. 0. 0. 12. 0. 0. 0. 9.
      0. 0. 0. 79. 0. 0. 0. 5. 0. 0. 0. 5. 0. 0. 0. 2. 0. 0. 0. 1. 0. 0.
      0. 0. 0. 0. 0. 2. 0. 0. 0. 1. 0. 0. 0. 242. 0. 0. 0. 2. 0. 0. 0.
      10. 0. 0. 0. 4. 0. 0. 0. 163. 1. 0. 0. 0. 0. 0. 0. 246. 0. 0. 0.
      58. 0. 0. 0.</_>
    <_>
      58. 3. 0. 0. 71. 0. 0. 0. 82. 0. 0. 0. 116. 0. 0. 0. 119. 0. 0. 0.
      3. 0. 0. 0. 169. 0. 0. 0. 47. 1. 0. 0. 69. 0. 0. 0. 4. 0. 0. 0.
      11. 0. 0. 0. 11. 0. 0. 0. 147. 0. 0. 0. 3. 0. 0. 0. 13. 2. 0. 0.
      222. 2. 0. 0. 72. 0. 0. 0. 7. 0. 0. 0. 3. 0. 0. 0. 10. 0. 0. 0. 2.
      0. 0. 0. 0. 0. 0. 0. 1. 0. 0. 0. 2. 0. 0. 0. 105. 0. 0. 0. 9. 0.
      0. 0. 4. 0. 0. 0. 9. 0. 0. 0. 246. 0. 0. 0. 1. 0. 0. 0. 177. 2. 0.
      0. 229. 0. 0. 0. 62. 0. 0. 0. 3. 0. 0. 0. 2. 0. 0. 0. 3. 0. 0. 0.
      4. 0. 0. 0. 0. 0. 0. 0. 6. 0. 0. 0. 1. 0. 0. 0. 6. 0. 0. 0. 0. 0.
      0. 0. 0. 0. 0. 0. 0. 0. 0. 0. 8. 0. 0. 0. 0. 0. 0. 0. 9. 0. 0. 0.
      14. 0. 0. 0. 94. 0. 0. 0. 4. 0. 0. 0. 0. 0. 0. 0. 3. 0. 0. 0. 6.
      0. 0. 0. 0. 0. 0. 0. 3. 0. 0. 0. 1. 0. 0. 0. 77. 1. 0. 0. 1. 0. 0.
      0. 15. 0. 0. 0. 14. 0. 0. 0. 60. 2. 0. 0. 1. 0. 0. 0. 86. 1. 0. 0.
      66. 0. 0. 0.</_>
    <_>
      153. 5. 0. 0. 184. 0. 0. 0. 115. 0. 0. 0. 111. 0. 0. 0. 183. 0. 0.
      0. 22. 0. 0. 0. 133. 0. 0. 0. 152. 0. 0. 0. 116. 0. 0. 0. 15. 0.
      0. 0. 26. 0. 0. 0. 24. 0. 0. 0. 147. 0. 0. 0. 7. 0. 0. 0. 31. 1.
      0. 0. 62. 1. 0. 0. 167. 0. 0. 0. 29. 0. 0. 0. 10. 0. 0. 0. 19. 0.
      0. 0. 19. 0. 0. 0. 2. 0. 0. 0. 14. 0. 0. 0. 11. 0. 0. 0. 159. 0.
      0. 0. 10. 0. 0. 0. 18. 0. 0. 0. 23. 0. 0. 0. 170. 0. 0. 0. 8. 0.
      0. 0. 9. 1. 0. 0. 205. 0. 0. 0. 124. 0. 0. 0. 13. 0. 0. 0. 10. 0.
      0. 0. 9. 0. 0. 0. 18. 0. 0. 0. 2. 0. 0. 0. 8. 0. 0. 0. 11. 0. 0.
      0. 28. 0. 0. 0. 4. 0. 0. 0. 2. 0. 0. 0. 3. 0. 0. 0. 23. 0. 0. 0.
      1. 0. 0. 0. 18. 0. 0. 0. 22. 0. 0. 0. 130. 0. 0. 0. 13. 0. 0. 0.
      4. 0. 0. 0. 4. 0. 0. 0. 23. 0. 0. 0. 2. 0. 0. 0. 4. 0. 0. 0. 5. 0.
      0. 0. 11. 1. 0. 0. 17. 0. 0. 0. 19. 0. 0. 0. 18. 0. 0. 0. 54. 1.
      0. 0. 6. 0. 0. 0. 221. 0. 0. 0. 99. 0. 0. 0.</_>
    <_>
      223. 1. 0. 0. 66. 0. 0. 0. 43. 0. 0. 0. 107. 0. 0. 0. 112. 0. 0.
      0. 0. 0. 0. 0. 83. 0. 0. 0. 219. 0. 0. 0. 35. 0. 0. 0. 0. 0. 0. 0.
      3. 0. 0. 0. 8. 0. 0. 0. 92. 0. 0. 0. 2. 0. 0. 0. 254. 0. 0. 0.
      139. 1. 0. 0. 71. 0. 0. 0. 3. 0. 0. 0. 5. 0. 0. 0. 4. 0. 0. 0. 3.
      0. 0. 0. 0. 0. 0. 0. 1. 0. 0. 0. 0. 0. 0. 0. 110. 0. 0. 0. 3. 0.
      0. 0. 5. 0. 0. 0. 5. 0. 0. 0. 205. 0. 0. 0. 0. 0. 0. 0. 102. 1. 0.
      0. 110. 0. 0. 0. 51. 0. 0. 0. 1. 0. 0. 0. 4. 0. 0. 0. 6. 0. 0. 0.
      4. 0. 0. 0. 0. 0. 0. 0. 6. 0. 0. 0. 1. 0. 0. 0. 2. 0. 0. 0. 0. 0.
      0. 0. 0. 0. 0. 0. 0. 0. 0. 0. 7. 0. 0. 0. 0. 0. 0. 0. 6. 0. 0. 0.
      3. 0. 0. 0. 143. 0. 0. 0. 2. 0. 0. 0. 6. 0. 0. 0. 4. 0. 0. 0. 1.
      0. 0. 0. 0. 0. 0. 0. 1. 0. 0. 0. 2. 0. 0. 0. 63. 2. 0. 0. 8. 0. 0.
      0. 18. 0. 0. 0. 8. 0. 0. 0. 138. 2. 0. 0. 0. 0. 0. 0. 189. 0. 0.
      0. 47. 0. 0. 0.</_>
    <_>
      36. 5. 0. 0. 210. 0. 0. 0. 106. 0. 0. 0. 131. 0. 0. 0. 185. 0. 0.
      0. 19. 0. 0. 0. 114. 0. 0. 0. 150. 0. 0. 0. 141. 0. 0. 0. 11. 0.
      0. 0. 23. 0. 0. 0. 25. 0. 0. 0. 147. 0. 0. 0. 11. 0. 0. 0. 54. 1.
      0. 0. 0. 1. 0. 0. 252. 0. 0. 0. 32. 0. 0. 0. 16. 0. 0. 0. 17. 0.
      0. 0. 30. 0. 0. 0. 5. 0. 0. 0. 14. 0. 0. 0. 12. 0. 0. 0. 139. 0.
      0. 0. 16. 0. 0. 0. 24. 0. 0. 0. 25. 0. 0. 0. 184. 0. 0. 0. 11. 0.
      0. 0. 129. 1. 0. 0. 194. 0. 0. 0. 98. 0. 0. 0. 20. 0. 0. 0. 6. 0.
      0. 0. 4. 0. 0. 0. 12. 0. 0. 0. 2. 0. 0. 0. 4. 0. 0. 0. 2. 0. 0. 0.
      21. 0. 0. 0. 3. 0. 0. 0. 3. 0. 0. 0. 1. 0. 0. 0. 16. 0. 0. 0. 0.
      0. 0. 0. 29. 0. 0. 0. 13. 0. 0. 0. 122. 0. 0. 0. 19. 0. 0. 0. 6.
      0. 0. 0. 3. 0. 0. 0. 10. 0. 0. 0. 4. 0. 0. 0. 6. 0. 0. 0. 5. 0. 0.
      0. 183. 0. 0. 0. 9. 0. 0. 0. 16. 0. 0. 0. 17. 0. 0. 0. 239. 0. 0.
      0. 6. 0. 0. 0. 208. 0. 0. 0. 123. 0. 0. 0.</_>
    <_>
      91. 6. 0. 0. 239. 0. 0. 0. 143. 0. 0. 0. 125. 0. 0. 0. 165. 0. 0.
      0. 32. 0. 0. 0. 126. 0. 0. 0. 144. 0. 0. 0. 103. 0. 0. 0. 14. 0.
      0. 0. 22. 0. 0. 0. 23. 0. 0. 0. 119. 0. 0. 0. 18. 0. 0. 0. 242. 0.
      0. 0. 45. 1. 0. 0. 195. 0. 0. 0. 38. 0. 0. 0. 18. 0. 0. 0. 20. 0.
      0. 0. 25. 0. 0. 0. 5. 0. 0. 0. 25. 0. 0. 0. 19. 0. 0. 0. 123. 0.
      0. 0. 19. 0. 0. 0. 22. 0. 0. 0. 19. 0. 0. 0. 120. 0. 0. 0. 15. 0.
      0. 0. 29. 1. 0. 0. 206. 0. 0. 0. 83. 0. 0. 0. 14. 0. 0. 0. 6. 0.
      0. 0. 9. 0. 0. 0. 12. 0. 0. 0. 4. 0. 0. 0. 7. 0. 0. 0. 4. 0. 0. 0.
      13. 0. 0. 0. 2. 0. 0. 0. 4. 0. 0. 0. 2. 0. 0. 0. 25. 0. 0. 0. 3.
      0. 0. 0. 19. 0. 0. 0. 18. 0. 0. 0. 106. 0. 0. 0. 18. 0. 0. 0. 9.
      0. 0. 0. 7. 0. 0. 0. 12. 0. 0. 0. 3. 0. 0. 0. 9. 0. 0. 0. 3. 0. 0.
      0. 174. 0. 0. 0. 15. 0. 0. 0. 12. 0. 0. 0. 20. 0. 0. 0. 227. 0. 0.
      0. 12. 0. 0. 0. 156. 0. 0. 0. 111. 0. 0. 0.</_>
    <_>
      120. 5. 0. 0. 153. 0. 0. 0. 103. 0. 0. 0. 107. 0. 0. 0. 245. 0. 0.
      0. 23. 0. 0. 0. 127. 0. 0. 0. 167. 0. 0. 0. 112. 0. 0. 0. 7. 0. 0.
      0. 20. 0. 0. 0. 21. 0. 0. 0. 133. 0. 0. 0. 13. 0. 0. 0. 253. 0. 0.
      0. 16. 1. 0. 0. 138. 0. 0. 0. 19. 0. 0. 0. 12. 0. 0. 0. 12. 0. 0.
      0. 32. 0. 0. 0. 2. 0. 0. 0. 18. 0. 0. 0. 9. 0. 0. 0. 129. 0. 0. 0.
      19. 0. 0. 0. 18. 0. 0. 0. 21. 0. 0. 0. 223. 0. 0. 0. 6. 0. 0. 0.
      72. 1. 0. 0. 200. 0. 0. 0. 79. 0. 0. 0. 10. 0. 0. 0. 2. 0. 0. 0.
      6. 0. 0. 0. 15. 0. 0. 0. 1. 0. 0. 0. 9. 0. 0. 0. 5. 0. 0. 0. 18.
      0. 0. 0. 0. 0. 0. 0. 1. 0. 0. 0. 0. 0. 0. 0. 24. 0. 0. 0. 0. 0. 0.
      0. 26. 0. 0. 0. 12. 0. 0. 0. 90. 0. 0. 0. 14. 0. 0. 0. 10. 0. 0.
      0. 9. 0. 0. 0. 22. 0. 0. 0. 0. 0. 0. 0. 12. 0. 0. 0. 8. 0. 0. 0.
      7. 1. 0. 0. 8. 0. 0. 0. 18. 0. 0. 0. 24. 0. 0. 0. 29. 1. 0. 0. 14.
      0. 0. 0. 221. 0. 0. 0. 118. 0. 0. 0.</_>
    <_>
      24. 6. 0. 0. 208. 0. 0. 0. 136. 0. 0. 0. 119. 0. 0. 0. 205. 0. 0.
      0. 35. 0. 0. 0. 137. 0. 0. 0. 162. 0. 0. 0. 84. 0. 0. 0. 16. 0. 0.
      0. 21. 0. 0. 0. 18. 0. 0. 0. 116. 0. 0. 0. 15. 0. 0. 0. 244. 0. 0.
      0. 34. 1. 0. 0. 207. 0. 0. 0. 49. 0. 0. 0. 20. 0. 0. 0. 22. 0. 0.
      0. 18. 0. 0. 0. 6. 0. 0. 0. 14. 0. 0. 0. 11. 0. 0. 0. 96. 0. 0. 0.
      23. 0. 0. 0. 23. 0. 0. 0. 17. 0. 0. 0. 156. 0. 0. 0. 9. 0. 0. 0.
      250. 0. 0. 0. 219. 0. 0. 0. 84. 0. 0. 0. 11. 0. 0. 0. 12. 0. 0. 0.
      9. 0. 0. 0. 14. 0. 0. 0. 4. 0. 0. 0. 7. 0. 0. 0. 7. 0. 0. 0. 15.
      0. 0. 0. 2. 0. 0. 0. 4. 0. 0. 0. 3. 0. 0. 0. 15. 0. 0. 0. 2. 0. 0.
      0. 23. 0. 0. 0. 19. 0. 0. 0. 95. 0. 0. 0. 18. 0. 0. 0. 8. 0. 0. 0.
      8. 0. 0. 0. 12. 0. 0. 0. 2. 0. 0. 0. 10. 0. 0. 0. 5. 0. 0. 0. 151.
      0. 0. 0. 16. 0. 0. 0. 17. 0. 0. 0. 18. 0. 0. 0. 156. 0. 0. 0. 15.
      0. 0. 0. 137. 0. 0. 0. 95. 0. 0. 0.</_>
    <_>
      42. 6. 0. 0. 164. 0. 0. 0. 112. 0. 0. 0. 112. 0. 0. 0. 182. 0. 0.
      0. 21. 0. 0. 0. 114. 0. 0. 0. 139. 0. 0. 0. 106. 0. 0. 0. 11. 0.
      0. 0. 23. 0. 0. 0. 21. 0. 0. 0. 141. 0. 0. 0. 8. 0. 0. 0. 10. 1.
      0. 0. 13. 1. 0. 0. 193. 0. 0. 0. 33. 0. 0. 0. 23. 0. 0. 0. 10. 0.
      0. 0. 32. 0. 0. 0. 3. 0. 0. 0. 22. 0. 0. 0. 13. 0. 0. 0. 117. 0.
      0. 0. 15. 0. 0. 0. 21. 0. 0. 0. 18. 0. 0. 0. 213. 0. 0. 0. 10. 0.
      0. 0. 65. 1. 0. 0. 205. 0. 0. 0. 84. 0. 0. 0. 14. 0. 0. 0. 14. 0.
      0. 0. 7. 0. 0. 0. 10. 0. 0. 0. 3. 0. 0. 0. 6. 0. 0. 0. 5. 0. 0. 0.
      23. 0. 0. 0. 1. 0. 0. 0. 3. 0. 0. 0. 2. 0. 0. 0. 16. 0. 0. 0. 4.
      0. 0. 0. 15. 0. 0. 0. 25. 0. 0. 0. 105. 0. 0. 0. 9. 0. 0. 0. 3. 0.
      0. 0. 3. 0. 0. 0. 18. 0. 0. 0. 1. 0. 0. 0. 9. 0. 0. 0. 2. 0. 0. 0.
      232. 0. 0. 0. 22. 0. 0. 0. 20. 0. 0. 0. 22. 0. 0. 0. 66. 1. 0. 0.
      19. 0. 0. 0. 230. 0. 0. 0. 115. 0. 0. 0.</_>
    <_>
      108. 2. 0. 0. 151. 0. 0. 0. 80. 0. 0. 0. 179. 0. 0. 0. 103. 0. 0.
      0. 10. 0. 0. 0. 140. 0. 0. 0. 139. 1. 0. 0. 72. 0. 0. 0. 2. 0. 0.
      0. 5. 0. 0. 0. 11. 0. 0. 0. 107. 0. 0. 0. 7. 0. 0. 0. 95. 1. 0. 0.
      147. 3. 0. 0. 107. 0. 0. 0. 6. 0. 0. 0. 3. 0. 0. 0. 7. 0. 0. 0. 5.
      0. 0. 0. 0. 0. 0. 0. 11. 0. 0. 0. 5. 0. 0. 0. 107. 0. 0. 0. 3. 0.
      0. 0. 6. 0. 0. 0. 4. 0. 0. 0. 196. 0. 0. 0. 2. 0. 0. 0. 213. 1. 0.
      0. 132. 0. 0. 0. 45. 0. 0. 0. 6. 0. 0. 0. 5. 0. 0. 0. 1. 0. 0. 0.
      3. 0. 0. 0. 0. 0. 0. 0. 3. 0. 0. 0. 4. 0. 0. 0. 5. 0. 0. 0. 0. 0.
      0. 0. 0. 0. 0. 0. 0. 0. 0. 0. 8. 0. 0. 0. 0. 0. 0. 0. 7. 0. 0. 0.
      10. 0. 0. 0. 105. 0. 0. 0. 2. 0. 0. 0. 3. 0. 0. 0. 5. 0. 0. 0. 6.
      0. 0. 0. 0. 0. 0. 0. 8. 0. 0. 0. 1. 0. 0. 0. 246. 0. 0. 0. 4. 0.
      0. 0. 16. 0. 0. 0. 7. 0. 0. 0. 136. 1. 0. 0. 1. 0. 0. 0. 241. 0.
      0. 0. 60. 0. 0. 0.</_>
    <_>
      186. 3. 0. 0. 115. 0. 0. 0. 112. 0. 0. 0. 188. 0. 0. 0. 111. 0. 0.
      0. 8. 0. 0. 0. 183. 0. 0. 0. 38. 1. 0. 0. 113. 0. 0. 0. 7. 0. 0.
      0. 15. 0. 0. 0. 17. 0. 0. 0. 143. 0. 0. 0. 3. 0. 0. 0. 43. 2. 0.
      0. 202. 2. 0. 0. 103. 0. 0. 0. 6. 0. 0. 0. 5. 0. 0. 0. 3. 0. 0. 0.
      5. 0. 0. 0. 1. 0. 0. 0. 1. 0. 0. 0. 2. 0. 0. 0. 151. 0. 0. 0. 2.
      0. 0. 0. 11. 0. 0. 0. 11. 0. 0. 0. 170. 0. 0. 0. 0. 0. 0. 0. 162.
      1. 0. 0. 138. 0. 0. 0. 95. 0. 0. 0. 4. 0. 0. 0. 8. 0. 0. 0. 7. 0.
      0. 0. 7. 0. 0. 0. 0. 0. 0. 0. 5. 0. 0. 0. 4. 0. 0. 0. 8. 0. 0. 0.
      0. 0. 0. 0. 0. 0. 0. 0. 2. 0. 0. 0. 7. 0. 0. 0. 0. 0. 0. 0. 23. 0.
      0. 0. 15. 0. 0. 0. 133. 0. 0. 0. 3. 0. 0. 0. 4. 0. 0. 0. 3. 0. 0.
      0. 4. 0. 0. 0. 0. 0. 0. 0. 2. 0. 0. 0. 1. 0. 0. 0. 117. 1. 0. 0.
      6. 0. 0. 0. 25. 0. 0. 0. 11. 0. 0. 0. 91. 1. 0. 0. 1. 0. 0. 0. 54.
      1. 0. 0. 71. 0. 0. 0.</_>
    <_>
      243. 5. 0. 0. 180. 0. 0. 0. 110. 0. 0. 0. 110. 0. 0. 0. 240. 0. 0.
      0. 15. 0. 0. 0. 108. 0. 0. 0. 134. 0. 0. 0. 98. 0. 0. 0. 15. 0. 0.
      0. 24. 0. 0. 0. 13. 0. 0. 0. 112. 0. 0. 0. 5. 0. 0. 0. 170. 0. 0.
      0. 190. 0. 0. 0. 167. 0. 0. 0. 31. 0. 0. 0. 17. 0. 0. 0. 9. 0. 0.
      0. 18. 0. 0. 0. 1. 0. 0. 0. 9. 0. 0. 0. 4. 0. 0. 0. 133. 0. 0. 0.
      10. 0. 0. 0. 14. 0. 0. 0. 15. 0. 0. 0. 193. 0. 0. 0. 9. 0. 0. 0.
      8. 1. 0. 0. 97. 0. 0. 0. 116. 0. 0. 0. 12. 0. 0. 0. 4. 0. 0. 0.
      12. 0. 0. 0. 22. 0. 0. 0. 3. 0. 0. 0. 7. 0. 0. 0. 11. 0. 0. 0. 26.
      0. 0. 0. 9. 0. 0. 0. 4. 0. 0. 0. 2. 0. 0. 0. 22. 0. 0. 0. 1. 0. 0.
      0. 17. 0. 0. 0. 11. 0. 0. 0. 129. 0. 0. 0. 11. 0. 0. 0. 6. 0. 0.
      0. 9. 0. 0. 0. 16. 0. 0. 0. 0. 0. 0. 0. 8. 0. 0. 0. 3. 0. 0. 0.
      49. 1. 0. 0. 15. 0. 0. 0. 33. 0. 0. 0. 28. 0. 0. 0. 201. 1. 0. 0.
      16. 0. 0. 0. 224. 0. 0. 0. 80. 0. 0. 0.</_>
    <_>
      24. 5. 0. 0. 193. 0. 0. 0. 108. 0. 0. 0. 124. 0. 0. 0. 209. 0. 0.
      0. 11. 0. 0. 0. 130. 0. 0. 0. 172. 0. 0. 0. 95. 0. 0. 0. 21. 0. 0.
      0. 14. 0. 0. 0. 16. 0. 0. 0. 147. 0. 0. 0. 16. 0. 0. 0. 28. 1. 0.
      0. 98. 1. 0. 0. 186. 0. 0. 0. 33. 0. 0. 0. 15. 0. 0. 0. 11. 0. 0.
      0. 18. 0. 0. 0. 4. 0. 0. 0. 18. 0. 0. 0. 14. 0. 0. 0. 133. 0. 0.
      0. 18. 0. 0. 0. 13. 0. 0. 0. 17. 0. 0. 0. 183. 0. 0. 0. 10. 0. 0.
      0. 85. 1. 0. 0. 194. 0. 0. 0. 103. 0. 0. 0. 10. 0. 0. 0. 8. 0. 0.
      0. 2. 0. 0. 0. 18. 0. 0. 0. 1. 0. 0. 0. 9. 0. 0. 0. 9. 0. 0. 0.
      19. 0. 0. 0. 2. 0. 0. 0. 2. 0. 0. 0. 0. 0. 0. 0. 18. 0. 0. 0. 2.
      0. 0. 0. 19. 0. 0. 0. 19. 0. 0. 0. 129. 0. 0. 0. 10. 0. 0. 0. 7.
      0. 0. 0. 1. 0. 0. 0. 13. 0. 0. 0. 3. 0. 0. 0. 9. 0. 0. 0. 6. 0. 0.
      0. 255. 0. 0. 0. 19. 0. 0. 0. 24. 0. 0. 0. 24. 0. 0. 0. 48. 1. 0.
      0. 15. 0. 0. 0. 214. 0. 0. 0. 130. 0. 0. 0.</_>
    <_>
      108. 30. 0. 0. 146. 2. 0. 0. 56. 2. 0. 0. 40. 3. 0. 0. 244. 1. 0.
      0. 23. 0. 0. 0. 114. 2. 0. 0. 224. 3. 0. 0. 240. 1. 0. 0. 26. 0.
      0. 0. 33. 0. 0. 0. 43. 0. 0. 0. 120. 2. 0. 0. 22. 0. 0. 0. 36. 9.
      0. 0. 225. 6. 0. 0. 42. 2. 0. 0. 36. 0. 0. 0. 36. 0. 0. 0. 24. 0.
      0. 0. 18. 0. 0. 0. 0. 0. 0. 0. 23. 0. 0. 0. 7. 0. 0. 0. 248. 2. 0.
      0. 21. 0. 0. 0. 44. 0. 0. 0. 22. 0. 0. 0. 216. 3. 0. 0. 10. 0. 0.
      0. 165. 7. 0. 0. 207. 1. 0. 0. 1. 2. 0. 0. 30. 0. 0. 0. 31. 0. 0.
      0. 33. 0. 0. 0. 24. 0. 0. 0. 1. 0. 0. 0. 20. 0. 0. 0. 19. 0. 0. 0.
      50. 0. 0. 0. 5. 0. 0. 0. 2. 0. 0. 0. 2. 0. 0. 0. 40. 0. 0. 0. 1.
      0. 0. 0. 83. 0. 0. 0. 51. 0. 0. 0. 219. 2. 0. 0. 10. 0. 0. 0. 26.
      0. 0. 0. 10. 0. 0. 0. 16. 0. 0. 0. 0. 0. 0. 0. 22. 0. 0. 0. 8. 0.
      0. 0. 147. 8. 0. 0. 23. 0. 0. 0. 87. 0. 0. 0. 42. 0. 0. 0. 204. 6.
      0. 0. 9. 0. 0. 0. 104. 5. 0. 0. 252. 0. 0. 0.</_>
    <_>
      11. 32. 0. 0. 175. 2. 0. 0. 198. 2. 0. 0. 94. 3. 0. 0. 211. 2. 0.
      0. 26. 0. 0. 0. 54. 3. 0. 0. 84. 4. 0. 0. 82. 2. 0. 0. 33. 0. 0.
      0. 65. 0. 0. 0. 69. 0. 0. 0. 236. 2. 0. 0. 28. 0. 0. 0. 71. 9. 0.
      0. 209. 7. 0. 0. 134. 2. 0. 0. 71. 0. 0. 0. 37. 0. 0. 0. 28. 0. 0.
      0. 20. 0. 0. 0. 1. 0. 0. 0. 18. 0. 0. 0. 11. 0. 0. 0. 26. 3. 0. 0.
      24. 0. 0. 0. 57. 0. 0. 0. 55. 0. 0. 0. 183. 3. 0. 0. 5. 0. 0. 0.
      184. 7. 0. 0. 71. 2. 0. 0. 139. 2. 0. 0. 28. 0. 0. 0. 67. 0. 0. 0.
      36. 0. 0. 0. 36. 0. 0. 0. 5. 0. 0. 0. 37. 0. 0. 0. 26. 0. 0. 0.
      69. 0. 0. 0. 4. 0. 0. 0. 8. 0. 0. 0. 4. 0. 0. 0. 59. 0. 0. 0. 8.
      0. 0. 0. 122. 0. 0. 0. 65. 0. 0. 0. 40. 3. 0. 0. 26. 0. 0. 0. 27.
      0. 0. 0. 25. 0. 0. 0. 26. 0. 0. 0. 1. 0. 0. 0. 18. 0. 0. 0. 15. 0.
      0. 0. 65. 8. 0. 0. 34. 0. 0. 0. 99. 0. 0. 0. 83. 0. 0. 0. 150. 6.
      0. 0. 11. 0. 0. 0. 105. 5. 0. 0. 60. 1. 0. 0.</_>
    <_>
      255. 4. 0. 0. 157. 0. 0. 0. 112. 0. 0. 0. 135. 0. 0. 0. 142. 0. 0.
      0. 13. 0. 0. 0. 143. 0. 0. 0. 200. 0. 0. 0. 140. 0. 0. 0. 11. 0.
      0. 0. 28. 0. 0. 0. 16. 0. 0. 0. 146. 0. 0. 0. 14. 0. 0. 0. 208. 1.
      0. 0. 127. 1. 0. 0. 184. 0. 0. 0. 31. 0. 0. 0. 18. 0. 0. 0. 8. 0.
      0. 0. 17. 0. 0. 0. 2. 0. 0. 0. 9. 0. 0. 0. 9. 0. 0. 0. 141. 0. 0.
      0. 15. 0. 0. 0. 18. 0. 0. 0. 19. 0. 0. 0. 209. 0. 0. 0. 11. 0. 0.
      0. 35. 2. 0. 0. 238. 0. 0. 0. 124. 0. 0. 0. 9. 0. 0. 0. 6. 0. 0.
      0. 8. 0. 0. 0. 16. 0. 0. 0. 1. 0. 0. 0. 7. 0. 0. 0. 2. 0. 0. 0.
      32. 0. 0. 0. 3. 0. 0. 0. 1. 0. 0. 0. 2. 0. 0. 0. 27. 0. 0. 0. 3.
      0. 0. 0. 35. 0. 0. 0. 19. 0. 0. 0. 162. 0. 0. 0. 9. 0. 0. 0. 9. 0.
      0. 0. 5. 0. 0. 0. 14. 0. 0. 0. 3. 0. 0. 0. 7. 0. 0. 0. 2. 0. 0. 0.
      101. 1. 0. 0. 14. 0. 0. 0. 21. 0. 0. 0. 17. 0. 0. 0. 35. 1. 0. 0.
      8. 0. 0. 0. 17. 1. 0. 0. 109. 0. 0. 0.</_>
    <_>
      135. 4. 0. 0. 149. 0. 0. 0. 111. 0. 0. 0. 113. 0. 0. 0. 131. 0. 0.
      0. 8. 0. 0. 0. 144. 0. 0. 0. 180. 0. 0. 0. 132. 0. 0. 0. 10. 0. 0.
      0. 26. 0. 0. 0. 31. 0. 0. 0. 206. 0. 0. 0. 11. 0. 0. 0. 21. 3. 0.
      0. 35. 2. 0. 0. 183. 0. 0. 0. 21. 0. 0. 0. 15. 0. 0. 0. 10. 0. 0.
      0. 6. 0. 0. 0. 0. 0. 0. 0. 8. 0. 0. 0. 10. 0. 0. 0. 186. 0. 0. 0.
      11. 0. 0. 0. 27. 0. 0. 0. 18. 0. 0. 0. 104. 1. 0. 0. 5. 0. 0. 0.
      27. 3. 0. 0. 253. 0. 0. 0. 91. 0. 0. 0. 5. 0. 0. 0. 6. 0. 0. 0. 5.
      0. 0. 0. 8. 0. 0. 0. 0. 0. 0. 0. 9. 0. 0. 0. 3. 0. 0. 0. 10. 0. 0.
      0. 0. 0. 0. 0. 1. 0. 0. 0. 5. 0. 0. 0. 21. 0. 0. 0. 0. 0. 0. 0.
      27. 0. 0. 0. 18. 0. 0. 0. 160. 0. 0. 0. 9. 0. 0. 0. 8. 0. 0. 0. 2.
      0. 0. 0. 5. 0. 0. 0. 0. 0. 0. 0. 0. 0. 0. 0. 1. 0. 0. 0. 148. 1.
      0. 0. 12. 0. 0. 0. 24. 0. 0. 0. 15. 0. 0. 0. 185. 1. 0. 0. 8. 0.
      0. 0. 117. 1. 0. 0. 105. 0. 0. 0.</_>
    <_>
      57. 4. 0. 0. 133. 0. 0. 0. 121. 0. 0. 0. 175. 0. 0. 0. 174. 0. 0.
      0. 6. 0. 0. 0. 221. 0. 0. 0. 52. 1. 0. 0. 113. 0. 0. 0. 7. 0. 0.
      0. 33. 0. 0. 0. 31. 0. 0. 0. 176. 0. 0. 0. 5. 0. 0. 0. 19. 3. 0.
      0. 240. 2. 0. 0. 92. 0. 0. 0. 16. 0. 0. 0. 10. 0. 0. 0. 8. 0. 0.
      0. 8. 0. 0. 0. 2. 0. 0. 0. 13. 0. 0. 0. 3. 0. 0. 0. 124. 0. 0. 0.
      3. 0. 0. 0. 26. 0. 0. 0. 20. 0. 0. 0. 174. 0. 0. 0. 3. 0. 0. 0.
      217. 2. 0. 0. 79. 1. 0. 0. 54. 0. 0. 0. 6. 0. 0. 0. 7. 0. 0. 0. 3.
      0. 0. 0. 9. 0. 0. 0. 1. 0. 0. 0. 5. 0. 0. 0. 4. 0. 0. 0. 14. 0. 0.
      0. 0. 0. 0. 0. 1. 0. 0. 0. 1. 0. 0. 0. 16. 0. 0. 0. 1. 0. 0. 0.
      24. 0. 0. 0. 20. 0. 0. 0. 99. 0. 0. 0. 3. 0. 0. 0. 5. 0. 0. 0. 5.
      0. 0. 0. 3. 0. 0. 0. 0. 0. 0. 0. 5. 0. 0. 0. 2. 0. 0. 0. 239. 0.
      0. 0. 9. 0. 0. 0. 20. 0. 0. 0. 13. 0. 0. 0. 246. 0. 0. 0. 7. 0. 0.
      0. 18. 1. 0. 0. 117. 0. 0. 0.</_>
    <_>
      55. 5. 0. 0. 170. 0. 0. 0. 127. 0. 0. 0. 150. 0. 0. 0. 193. 0. 0.
      0. 12. 0. 0. 0. 187. 0. 0. 0. 235. 0. 0. 0. 127. 0. 0. 0. 17. 0.
      0. 0. 46. 0. 0. 0. 25. 0. 0. 0. 174. 0. 0. 0. 12. 0. 0. 0. 95. 2.
      0. 0. 97. 2. 0. 0. 149. 0. 0. 0. 23. 0. 0. 0. 10. 0. 0. 0. 9. 0.
      0. 0. 10. 0. 0. 0. 3. 0. 0. 0. 9. 0. 0. 0. 14. 0. 0. 0. 135. 0. 0.
      0. 11. 0. 0. 0. 19. 0. 0. 0. 29. 0. 0. 0. 157. 0. 0. 0. 9. 0. 0.
      0. 23. 2. 0. 0. 22. 1. 0. 0. 83. 0. 0. 0. 11. 0. 0. 0. 10. 0. 0.
      0. 4. 0. 0. 0. 7. 0. 0. 0. 1. 0. 0. 0. 9. 0. 0. 0. 6. 0. 0. 0. 9.
      0. 0. 0. 1. 0. 0. 0. 5. 0. 0. 0. 1. 0. 0. 0. 8. 0. 0. 0. 0. 0. 0.
      0. 23. 0. 0. 0. 17. 0. 0. 0. 87. 0. 0. 0. 7. 0. 0. 0. 7. 0. 0. 0.
      2. 0. 0. 0. 2. 0. 0. 0. 0. 0. 0. 0. 8. 0. 0. 0. 4. 0. 0. 0. 195.
      0. 0. 0. 9. 0. 0. 0. 29. 0. 0. 0. 24. 0. 0. 0. 166. 0. 0. 0. 4. 0.
      0. 0. 4. 1. 0. 0. 117. 0. 0. 0.</_>
    <_>
      36. 6. 0. 0. 167. 0. 0. 0. 107. 0. 0. 0. 146. 0. 0. 0. 135. 0. 0.
      0. 9. 0. 0. 0. 157. 0. 0. 0. 204. 0. 0. 0. 160. 0. 0. 0. 8. 0. 0.
      0. 19. 0. 0. 0. 15. 0. 0. 0. 173. 0. 0. 0. 16. 0. 0. 0. 215. 1. 0.
      0. 156. 3. 0. 0. 159. 0. 0. 0. 25. 0. 0. 0. 11. 0. 0. 0. 5. 0. 0.
      0. 9. 0. 0. 0. 1. 0. 0. 0. 9. 0. 0. 0. 2. 0. 0. 0. 240. 0. 0. 0.
      9. 0. 0. 0. 18. 0. 0. 0. 8. 0. 0. 0. 95. 1. 0. 0. 8. 0. 0. 0. 228.
      1. 0. 0. 214. 0. 0. 0. 57. 0. 0. 0. 9. 0. 0. 0. 4. 0. 0. 0. 5. 0.
      0. 0. 6. 0. 0. 0. 1. 0. 0. 0. 3. 0. 0. 0. 6. 0. 0. 0. 26. 0. 0. 0.
      1. 0. 0. 0. 3. 0. 0. 0. 3. 0. 0. 0. 18. 0. 0. 0. 1. 0. 0. 0. 19.
      0. 0. 0. 21. 0. 0. 0. 127. 0. 0. 0. 7. 0. 0. 0. 5. 0. 0. 0. 4. 0.
      0. 0. 9. 0. 0. 0. 0. 0. 0. 0. 3. 0. 0. 0. 4. 0. 0. 0. 248. 1. 0.
      0. 14. 0. 0. 0. 26. 0. 0. 0. 17. 0. 0. 0. 230. 2. 0. 0. 8. 0. 0.
      0. 186. 1. 0. 0. 126. 0. 0. 0.</_>
    <_>
      107. 4. 0. 0. 128. 0. 0. 0. 124. 0. 0. 0. 117. 0. 0. 0. 161. 0. 0.
      0. 12. 0. 0. 0. 160. 0. 0. 0. 194. 0. 0. 0. 163. 0. 0. 0. 13. 0.
      0. 0. 45. 0. 0. 0. 22. 0. 0. 0. 179. 0. 0. 0. 9. 0. 0. 0. 50. 2.
      0. 0. 208. 1. 0. 0. 175. 0. 0. 0. 19. 0. 0. 0. 13. 0. 0. 0. 6. 0.
      0. 0. 10. 0. 0. 0. 0. 0. 0. 0. 14. 0. 0. 0. 4. 0. 0. 0. 191. 0. 0.
      0. 9. 0. 0. 0. 24. 0. 0. 0. 18. 0. 0. 0. 228. 0. 0. 0. 10. 0. 0.
      0. 51. 2. 0. 0. 254. 0. 0. 0. 96. 0. 0. 0. 16. 0. 0. 0. 12. 0. 0.
      0. 4. 0. 0. 0. 9. 0. 0. 0. 2. 0. 0. 0. 2. 0. 0. 0. 4. 0. 0. 0. 16.
      0. 0. 0. 5. 0. 0. 0. 4. 0. 0. 0. 2. 0. 0. 0. 22. 0. 0. 0. 4. 0. 0.
      0. 34. 0. 0. 0. 18. 0. 0. 0. 158. 0. 0. 0. 8. 0. 0. 0. 8. 0. 0. 0.
      3. 0. 0. 0. 7. 0. 0. 0. 0. 0. 0. 0. 2. 0. 0. 0. 2. 0. 0. 0. 113.
      1. 0. 0. 19. 0. 0. 0. 22. 0. 0. 0. 11. 0. 0. 0. 76. 1. 0. 0. 16.
      0. 0. 0. 66. 1. 0. 0. 140. 0. 0. 0.</_>
    <_>
      236. 5. 0. 0. 144. 0. 0. 0. 111. 0. 0. 0. 136. 0. 0. 0. 125. 0. 0.
      0. 7. 0. 0. 0. 160. 0. 0. 0. 19. 1. 0. 0. 164. 0. 0. 0. 11. 0. 0.
      0. 35. 0. 0. 0. 22. 0. 0. 0. 186. 0. 0. 0. 9. 0. 0. 0. 250. 1. 0.
      0. 51. 3. 0. 0. 153. 0. 0. 0. 13. 0. 0. 0. 8. 0. 0. 0. 5. 0. 0. 0.
      14. 0. 0. 0. 0. 0. 0. 0. 10. 0. 0. 0. 7. 0. 0. 0. 216. 0. 0. 0. 4.
      0. 0. 0. 29. 0. 0. 0. 23. 0. 0. 0. 196. 1. 0. 0. 13. 0. 0. 0. 16.
      2. 0. 0. 175. 0. 0. 0. 74. 0. 0. 0. 9. 0. 0. 0. 5. 0. 0. 0. 5. 0.
      0. 0. 4. 0. 0. 0. 0. 0. 0. 0. 5. 0. 0. 0. 5. 0. 0. 0. 23. 0. 0. 0.
      1. 0. 0. 0. 5. 0. 0. 0. 3. 0. 0. 0. 27. 0. 0. 0. 2. 0. 0. 0. 33.
      0. 0. 0. 20. 0. 0. 0. 113. 0. 0. 0. 2. 0. 0. 0. 5. 0. 0. 0. 1. 0.
      0. 0. 2. 0. 0. 0. 0. 0. 0. 0. 3. 0. 0. 0. 5. 0. 0. 0. 235. 1. 0.
      0. 13. 0. 0. 0. 24. 0. 0. 0. 15. 0. 0. 0. 241. 2. 0. 0. 7. 0. 0.
      0. 228. 1. 0. 0. 112. 0. 0. 0.</_>
    <_>
      59. 5. 0. 0. 192. 0. 0. 0. 82. 0. 0. 0. 83. 0. 0. 0. 112. 0. 0. 0.
      12. 0. 0. 0. 111. 0. 0. 0. 125. 0. 0. 0. 180. 0. 0. 0. 14. 0. 0.
      0. 23. 0. 0. 0. 27. 0. 0. 0. 152. 0. 0. 0. 14. 0. 0. 0. 202. 1. 0.
      0. 127. 1. 0. 0. 227. 0. 0. 0. 39. 0. 0. 0. 16. 0. 0. 0. 14. 0. 0.
      0. 17. 0. 0. 0. 2. 0. 0. 0. 12. 0. 0. 0. 10. 0. 0. 0. 226. 0. 0.
      0. 17. 0. 0. 0. 20. 0. 0. 0. 24. 0. 0. 0. 39. 1. 0. 0. 6. 0. 0. 0.
      196. 1. 0. 0. 199. 0. 0. 0. 132. 0. 0. 0. 9. 0. 0. 0. 5. 0. 0. 0.
      6. 0. 0. 0. 16. 0. 0. 0. 2. 0. 0. 0. 4. 0. 0. 0. 4. 0. 0. 0. 40.
      0. 0. 0. 2. 0. 0. 0. 3. 0. 0. 0. 3. 0. 0. 0. 28. 0. 0. 0. 3. 0. 0.
      0. 44. 0. 0. 0. 20. 0. 0. 0. 173. 0. 0. 0. 10. 0. 0. 0. 7. 0. 0.
      0. 4. 0. 0. 0. 15. 0. 0. 0. 1. 0. 0. 0. 6. 0. 0. 0. 2. 0. 0. 0.
      209. 1. 0. 0. 16. 0. 0. 0. 33. 0. 0. 0. 19. 0. 0. 0. 54. 2. 0. 0.
      10. 0. 0. 0. 101. 1. 0. 0. 127. 0. 0. 0.</_>
    <_>
      116. 5. 0. 0. 208. 0. 0. 0. 82. 0. 0. 0. 91. 0. 0. 0. 181. 0. 0.
      0. 14. 0. 0. 0. 127. 0. 0. 0. 131. 0. 0. 0. 139. 0. 0. 0. 16. 0.
      0. 0. 17. 0. 0. 0. 22. 0. 0. 0. 196. 0. 0. 0. 12. 0. 0. 0. 138. 1.
      0. 0. 63. 1. 0. 0. 253. 0. 0. 0. 53. 0. 0. 0. 11. 0. 0. 0. 10. 0.
      0. 0. 31. 0. 0. 0. 1. 0. 0. 0. 5. 0. 0. 0. 12. 0. 0. 0. 210. 0. 0.
      0. 21. 0. 0. 0. 22. 0. 0. 0. 23. 0. 0. 0. 29. 1. 0. 0. 9. 0. 0. 0.
      231. 1. 0. 0. 198. 0. 0. 0. 145. 0. 0. 0. 6. 0. 0. 0. 6. 0. 0. 0.
      4. 0. 0. 0. 10. 0. 0. 0. 2. 0. 0. 0. 3. 0. 0. 0. 7. 0. 0. 0. 46.
      0. 0. 0. 5. 0. 0. 0. 4. 0. 0. 0. 1. 0. 0. 0. 30. 0. 0. 0. 5. 0. 0.
      0. 22. 0. 0. 0. 15. 0. 0. 0. 152. 0. 0. 0. 9. 0. 0. 0. 10. 0. 0.
      0. 6. 0. 0. 0. 5. 0. 0. 0. 0. 0. 0. 0. 7. 0. 0. 0. 4. 0. 0. 0.
      150. 1. 0. 0. 16. 0. 0. 0. 29. 0. 0. 0. 24. 0. 0. 0. 156. 1. 0. 0.
      15. 0. 0. 0. 62. 1. 0. 0. 118. 0. 0. 0.</_>
    <_>
      242. 5. 0. 0. 212. 0. 0. 0. 88. 0. 0. 0. 108. 0. 0. 0. 212. 0. 0.
      0. 22. 0. 0. 0. 131. 0. 0. 0. 110. 0. 0. 0. 146. 0. 0. 0. 19. 0.
      0. 0. 25. 0. 0. 0. 17. 0. 0. 0. 177. 0. 0. 0. 18. 0. 0. 0. 30. 1.
      0. 0. 225. 0. 0. 0. 250. 0. 0. 0. 32. 0. 0. 0. 16. 0. 0. 0. 12. 0.
      0. 0. 21. 0. 0. 0. 4. 0. 0. 0. 14. 0. 0. 0. 4. 0. 0. 0. 181. 0. 0.
      0. 14. 0. 0. 0. 16. 0. 0. 0. 21. 0. 0. 0. 234. 0. 0. 0. 17. 0. 0.
      0. 71. 1. 0. 0. 172. 0. 0. 0. 104. 0. 0. 0. 14. 0. 0. 0. 2. 0. 0.
      0. 11. 0. 0. 0. 10. 0. 0. 0. 2. 0. 0. 0. 13. 0. 0. 0. 6. 0. 0. 0.
      22. 0. 0. 0. 4. 0. 0. 0. 2. 0. 0. 0. 3. 0. 0. 0. 23. 0. 0. 0. 5.
      0. 0. 0. 24. 0. 0. 0. 25. 0. 0. 0. 162. 0. 0. 0. 12. 0. 0. 0. 6.
      0. 0. 0. 6. 0. 0. 0. 15. 0. 0. 0. 0. 0. 0. 0. 5. 0. 0. 0. 4. 0. 0.
      0. 35. 1. 0. 0. 23. 0. 0. 0. 24. 0. 0. 0. 21. 0. 0. 0. 61. 1. 0.
      0. 14. 0. 0. 0. 62. 1. 0. 0. 142. 0. 0. 0.</_>
    <_>
      1. 5. 0. 0. 132. 0. 0. 0. 75. 0. 0. 0. 93. 0. 0. 0. 141. 1. 0. 0.
      11. 0. 0. 0. 106. 0. 0. 0. 110. 0. 0. 0. 75. 0. 0. 0. 6. 0. 0. 0.
      8. 0. 0. 0. 10. 0. 0. 0. 112. 0. 0. 0. 7. 0. 0. 0. 162. 0. 0. 0.
      153. 0. 0. 0. 137. 0. 0. 0. 41. 0. 0. 0. 11. 0. 0. 0. 8. 0. 0. 0.
      11. 0. 0. 0. 1. 0. 0. 0. 11. 0. 0. 0. 14. 0. 0. 0. 97. 0. 0. 0. 5.
      0. 0. 0. 8. 0. 0. 0. 9. 0. 0. 0. 159. 0. 0. 0. 3. 0. 0. 0. 48. 1.
      0. 0. 99. 0. 0. 0. 84. 0. 0. 0. 20. 0. 0. 0. 12. 0. 0. 0. 4. 0. 0.
      0. 12. 0. 0. 0. 2. 0. 0. 0. 4. 0. 0. 0. 2. 0. 0. 0. 15. 0. 0. 0.
      1. 0. 0. 0. 1. 0. 0. 0. 1. 0. 0. 0. 8. 0. 0. 0. 0. 0. 0. 0. 7. 0.
      0. 0. 7. 0. 0. 0. 93. 0. 0. 0. 8. 0. 0. 0. 5. 0. 0. 0. 3. 0. 0. 0.
      15. 0. 0. 0. 0. 0. 0. 0. 3. 0. 0. 0. 0. 0. 0. 0. 9. 2. 0. 0. 9. 0.
      0. 0. 27. 0. 0. 0. 14. 0. 0. 0. 7. 2. 0. 0. 11. 0. 0. 0. 182. 0.
      0. 0. 64. 0. 0. 0.</_>
    <_>
      54. 2. 0. 0. 107. 0. 0. 0. 74. 0. 0. 0. 181. 0. 0. 0. 49. 0. 0. 0.
      2. 0. 0. 0. 115. 0. 0. 0. 133. 1. 0. 0. 52. 0. 0. 0. 2. 0. 0. 0.
      12. 0. 0. 0. 7. 0. 0. 0. 90. 0. 0. 0. 1. 0. 0. 0. 163. 1. 0. 0.
      243. 2. 0. 0. 52. 0. 0. 0. 9. 0. 0. 0. 1. 0. 0. 0. 3. 0. 0. 0. 3.
      0. 0. 0. 0. 0. 0. 0. 1. 0. 0. 0. 0. 0. 0. 0. 112. 0. 0. 0. 6. 0.
      0. 0. 11. 0. 0. 0. 7. 0. 0. 0. 149. 0. 0. 0. 0. 0. 0. 0. 168. 1.
      0. 0. 128. 0. 0. 0. 44. 0. 0. 0. 2. 0. 0. 0. 10. 0. 0. 0. 0. 0. 0.
      0. 3. 0. 0. 0. 0. 0. 0. 0. 2. 0. 0. 0. 0. 0. 0. 0. 2. 0. 0. 0. 0.
      0. 0. 0. 0. 0. 0. 0. 0. 0. 0. 0. 9. 0. 0. 0. 0. 0. 0. 0. 11. 0. 0.
      0. 10. 0. 0. 0. 103. 0. 0. 0. 1. 0. 0. 0. 2. 0. 0. 0. 3. 0. 0. 0.
      1. 0. 0. 0. 0. 0. 0. 0. 0. 0. 0. 0. 1. 0. 0. 0. 136. 1. 0. 0. 5.
      0. 0. 0. 10. 0. 0. 0. 7. 0. 0. 0. 121. 1. 0. 0. 0. 0. 0. 0. 223.
      0. 0. 0. 41. 0. 0. 0.</_>
    <_>
      36. 3. 0. 0. 113. 0. 0. 0. 105. 0. 0. 0. 158. 0. 0. 0. 128. 0. 0.
      0. 9. 0. 0. 0. 163. 0. 0. 0. 23. 1. 0. 0. 92. 0. 0. 0. 3. 0. 0. 0.
      12. 0. 0. 0. 8. 0. 0. 0. 149. 0. 0. 0. 6. 0. 0. 0. 158. 1. 0. 0.
      241. 1. 0. 0. 109. 0. 0. 0. 8. 0. 0. 0. 7. 0. 0. 0. 5. 0. 0. 0. 2.
      0. 0. 0. 0. 0. 0. 0. 4. 0. 0. 0. 2. 0. 0. 0. 144. 0. 0. 0. 1. 0.
      0. 0. 6. 0. 0. 0. 12. 0. 0. 0. 190. 0. 0. 0. 2. 0. 0. 0. 190. 1.
      0. 0. 153. 0. 0. 0. 76. 0. 0. 0. 4. 0. 0. 0. 7. 0. 0. 0. 8. 0. 0.
      0. 7. 0. 0. 0. 0. 0. 0. 0. 8. 0. 0. 0. 4. 0. 0. 0. 7. 0. 0. 0. 0.
      0. 0. 0. 1. 0. 0. 0. 3. 0. 0. 0. 11. 0. 0. 0. 0. 0. 0. 0. 23. 0.
      0. 0. 7. 0. 0. 0. 137. 0. 0. 0. 4. 0. 0. 0. 5. 0. 0. 0. 8. 0. 0.
      0. 5. 0. 0. 0. 0. 0. 0. 0. 4. 0. 0. 0. 3. 0. 0. 0. 221. 1. 0. 0.
      12. 0. 0. 0. 35. 0. 0. 0. 20. 0. 0. 0. 196. 1. 0. 0. 4. 0. 0. 0.
      48. 1. 0. 0. 67. 0. 0. 0.</_>
    <_>
      58. 2. 0. 0. 74. 0. 0. 0. 56. 0. 0. 0. 114. 0. 0. 0. 99. 0. 0. 0.
      10. 0. 0. 0. 108. 0. 0. 0. 255. 0. 0. 0. 63. 0. 0. 0. 4. 0. 0. 0.
      5. 0. 0. 0. 6. 0. 0. 0. 124. 0. 0. 0. 3. 0. 0. 0. 41. 1. 0. 0.
      144. 1. 0. 0. 89. 0. 0. 0. 3. 0. 0. 0. 2. 0. 0. 0. 7. 0. 0. 0. 3.
      0. 0. 0. 0. 0. 0. 0. 6. 0. 0. 0. 4. 0. 0. 0. 134. 0. 0. 0. 3. 0.
      0. 0. 12. 0. 0. 0. 3. 0. 0. 0. 17. 1. 0. 0. 3. 0. 0. 0. 114. 1. 0.
      0. 135. 0. 0. 0. 67. 0. 0. 0. 5. 0. 0. 0. 7. 0. 0. 0. 8. 0. 0. 0.
      12. 0. 0. 0. 0. 0. 0. 0. 3. 0. 0. 0. 2. 0. 0. 0. 6. 0. 0. 0. 1. 0.
      0. 0. 1. 0. 0. 0. 1. 0. 0. 0. 11. 0. 0. 0. 0. 0. 0. 0. 17. 0. 0.
      0. 4. 0. 0. 0. 158. 0. 0. 0. 3. 0. 0. 0. 4. 0. 0. 0. 5. 0. 0. 0.
      2. 0. 0. 0. 0. 0. 0. 0. 3. 0. 0. 0. 1. 0. 0. 0. 62. 2. 0. 0. 4. 0.
      0. 0. 13. 0. 0. 0. 15. 0. 0. 0. 244. 2. 0. 0. 1. 0. 0. 0. 27. 1.
      0. 0. 76. 0. 0. 0.</_>
    <_>
      189. 2. 0. 0. 71. 0. 0. 0. 75. 0. 0. 0. 118. 0. 0. 0. 77. 0. 0. 0.
      7. 0. 0. 0. 127. 0. 0. 0. 21. 1. 0. 0. 85. 0. 0. 0. 1. 0. 0. 0. 6.
      0. 0. 0. 7. 0. 0. 0. 109. 0. 0. 0. 2. 0. 0. 0. 118. 1. 0. 0. 245.
      1. 0. 0. 66. 0. 0. 0. 8. 0. 0. 0. 0. 0. 0. 0. 9. 0. 0. 0. 6. 0. 0.
      0. 0. 0. 0. 0. 1. 0. 0. 0. 0. 0. 0. 0. 113. 0. 0. 0. 3. 0. 0. 0.
      8. 0. 0. 0. 8. 0. 0. 0. 192. 0. 0. 0. 1. 0. 0. 0. 173. 1. 0. 0.
      117. 0. 0. 0. 69. 0. 0. 0. 4. 0. 0. 0. 8. 0. 0. 0. 6. 0. 0. 0. 2.
      0. 0. 0. 1. 0. 0. 0. 2. 0. 0. 0. 7. 0. 0. 0. 7. 0. 0. 0. 1. 0. 0.
      0. 1. 0. 0. 0. 0. 0. 0. 0. 8. 0. 0. 0. 0. 0. 0. 0. 16. 0. 0. 0.
      11. 0. 0. 0. 111. 0. 0. 0. 3. 0. 0. 0. 10. 0. 0. 0. 1. 0. 0. 0. 4.
      0. 0. 0. 0. 0. 0. 0. 2. 0. 0. 0. 1. 0. 0. 0. 195. 1. 0. 0. 6. 0.
      0. 0. 19. 0. 0. 0. 11. 0. 0. 0. 0. 2. 0. 0. 0. 0. 0. 0. 255. 0. 0.
      0. 45. 0. 0. 0.</_>
    <_>
      32. 6. 0. 0. 211. 0. 0. 0. 89. 0. 0. 0. 115. 0. 0. 0. 194. 0. 0.
      0. 26. 0. 0. 0. 148. 0. 0. 0. 154. 0. 0. 0. 114. 0. 0. 0. 21. 0.
      0. 0. 27. 0. 0. 0. 22. 0. 0. 0. 134. 0. 0. 0. 13. 0. 0. 0. 91. 1.
      0. 0. 82. 1. 0. 0. 205. 0. 0. 0. 57. 0. 0. 0. 12. 0. 0. 0. 15. 0.
      0. 0. 20. 0. 0. 0. 5. 0. 0. 0. 15. 0. 0. 0. 13. 0. 0. 0. 129. 0.
      0. 0. 18. 0. 0. 0. 30. 0. 0. 0. 27. 0. 0. 0. 174. 0. 0. 0. 17. 0.
      0. 0. 45. 1. 0. 0. 225. 0. 0. 0. 113. 0. 0. 0. 21. 0. 0. 0. 7. 0.
      0. 0. 9. 0. 0. 0. 11. 0. 0. 0. 3. 0. 0. 0. 8. 0. 0. 0. 5. 0. 0. 0.
      29. 0. 0. 0. 1. 0. 0. 0. 5. 0. 0. 0. 5. 0. 0. 0. 18. 0. 0. 0. 1.
      0. 0. 0. 33. 0. 0. 0. 19. 0. 0. 0. 143. 0. 0. 0. 18. 0. 0. 0. 6.
      0. 0. 0. 12. 0. 0. 0. 12. 0. 0. 0. 2. 0. 0. 0. 8. 0. 0. 0. 5. 0.
      0. 0. 221. 0. 0. 0. 22. 0. 0. 0. 19. 0. 0. 0. 25. 0. 0. 0. 180. 0.
      0. 0. 9. 0. 0. 0. 185. 0. 0. 0. 104. 0. 0. 0.</_>
    <_>
      107. 5. 0. 0. 185. 0. 0. 0. 95. 0. 0. 0. 68. 0. 0. 0. 177. 0. 0.
      0. 18. 0. 0. 0. 106. 0. 0. 0. 100. 0. 0. 0. 117. 0. 0. 0. 20. 0.
      0. 0. 33. 0. 0. 0. 20. 0. 0. 0. 169. 0. 0. 0. 18. 0. 0. 0. 129. 1.
      0. 0. 122. 1. 0. 0. 208. 0. 0. 0. 48. 0. 0. 0. 14. 0. 0. 0. 13. 0.
      0. 0. 26. 0. 0. 0. 3. 0. 0. 0. 8. 0. 0. 0. 15. 0. 0. 0. 150. 0. 0.
      0. 19. 0. 0. 0. 24. 0. 0. 0. 24. 0. 0. 0. 191. 0. 0. 0. 12. 0. 0.
      0. 58. 1. 0. 0. 245. 0. 0. 0. 132. 0. 0. 0. 14. 0. 0. 0. 7. 0. 0.
      0. 9. 0. 0. 0. 16. 0. 0. 0. 1. 0. 0. 0. 7. 0. 0. 0. 4. 0. 0. 0.
      31. 0. 0. 0. 3. 0. 0. 0. 3. 0. 0. 0. 2. 0. 0. 0. 16. 0. 0. 0. 2.
      0. 0. 0. 35. 0. 0. 0. 21. 0. 0. 0. 154. 0. 0. 0. 19. 0. 0. 0. 7.
      0. 0. 0. 5. 0. 0. 0. 18. 0. 0. 0. 1. 0. 0. 0. 11. 0. 0. 0. 3. 0.
      0. 0. 93. 1. 0. 0. 21. 0. 0. 0. 28. 0. 0. 0. 13. 0. 0. 0. 83. 1.
      0. 0. 12. 0. 0. 0. 218. 0. 0. 0. 119. 0. 0. 0.</_>
    <_>
      132. 5. 0. 0. 146. 0. 0. 0. 100. 0. 0. 0. 135. 0. 0. 0. 245. 0. 0.
      0. 16. 0. 0. 0. 120. 0. 0. 0. 126. 0. 0. 0. 102. 0. 0. 0. 15. 0.
      0. 0. 28. 0. 0. 0. 22. 0. 0. 0. 146. 0. 0. 0. 11. 0. 0. 0. 251. 0.
      0. 0. 237. 0. 0. 0. 167. 0. 0. 0. 24. 0. 0. 0. 18. 0. 0. 0. 19. 0.
      0. 0. 19. 0. 0. 0. 1. 0. 0. 0. 7. 0. 0. 0. 9. 0. 0. 0. 128. 0. 0.
      0. 16. 0. 0. 0. 21. 0. 0. 0. 30. 0. 0. 0. 160. 0. 0. 0. 9. 0. 0.
      0. 238. 0. 0. 0. 167. 0. 0. 0. 111. 0. 0. 0. 19. 0. 0. 0. 9. 0. 0.
      0. 8. 0. 0. 0. 16. 0. 0. 0. 0. 0. 0. 0. 13. 0. 0. 0. 5. 0. 0. 0.
      22. 0. 0. 0. 4. 0. 0. 0. 3. 0. 0. 0. 1. 0. 0. 0. 24. 0. 0. 0. 6.
      0. 0. 0. 25. 0. 0. 0. 14. 0. 0. 0. 132. 0. 0. 0. 9. 0. 0. 0. 4. 0.
      0. 0. 7. 0. 0. 0. 13. 0. 0. 0. 0. 0. 0. 0. 6. 0. 0. 0. 3. 0. 0. 0.
      81. 1. 0. 0. 19. 0. 0. 0. 31. 0. 0. 0. 22. 0. 0. 0. 10. 1. 0. 0.
      11. 0. 0. 0. 209. 0. 0. 0. 112. 0. 0. 0.</_>
    <_>
      246. 4. 0. 0. 146. 0. 0. 0. 97. 0. 0. 0. 110. 0. 0. 0. 167. 0. 0.
      0. 18. 0. 0. 0. 136. 0. 0. 0. 155. 0. 0. 0. 118. 0. 0. 0. 15. 0.
      0. 0. 36. 0. 0. 0. 20. 0. 0. 0. 145. 0. 0. 0. 10. 0. 0. 0. 52. 1.
      0. 0. 13. 1. 0. 0. 180. 0. 0. 0. 26. 0. 0. 0. 16. 0. 0. 0. 10. 0.
      0. 0. 24. 0. 0. 0. 4. 0. 0. 0. 11. 0. 0. 0. 5. 0. 0. 0. 156. 0. 0.
      0. 12. 0. 0. 0. 26. 0. 0. 0. 20. 0. 0. 0. 163. 0. 0. 0. 14. 0. 0.
      0. 104. 1. 0. 0. 231. 0. 0. 0. 119. 0. 0. 0. 16. 0. 0. 0. 7. 0. 0.
      0. 6. 0. 0. 0. 8. 0. 0. 0. 1. 0. 0. 0. 6. 0. 0. 0. 3. 0. 0. 0. 35.
      0. 0. 0. 3. 0. 0. 0. 4. 0. 0. 0. 1. 0. 0. 0. 25. 0. 0. 0. 4. 0. 0.
      0. 16. 0. 0. 0. 22. 0. 0. 0. 150. 0. 0. 0. 13. 0. 0. 0. 6. 0. 0.
      0. 8. 0. 0. 0. 15. 0. 0. 0. 2. 0. 0. 0. 6. 0. 0. 0. 3. 0. 0. 0.
      41. 1. 0. 0. 18. 0. 0. 0. 18. 0. 0. 0. 19. 0. 0. 0. 9. 1. 0. 0.
      14. 0. 0. 0. 178. 0. 0. 0. 122. 0. 0. 0.</_>
    <_>
      130. 1. 0. 0. 91. 0. 0. 0. 33. 0. 0. 0. 127. 0. 0. 0. 33. 0. 0. 0.
      0. 0. 0. 0. 94. 0. 0. 0. 239. 0. 0. 0. 63. 0. 0. 0. 2. 0. 0. 0. 3.
      0. 0. 0. 5. 0. 0. 0. 85. 0. 0. 0. 3. 0. 0. 0. 215. 1. 0. 0. 139.
      3. 0. 0. 93. 0. 0. 0. 5. 0. 0. 0. 0. 0. 0. 0. 1. 0. 0. 0. 4. 0. 0.
      0. 0. 0. 0. 0. 0. 0. 0. 0. 3. 0. 0. 0. 115. 0. 0. 0. 3. 0. 0. 0.
      5. 0. 0. 0. 1. 0. 0. 0. 203. 0. 0. 0. 1. 0. 0. 0. 207. 2. 0. 0.
      160. 0. 0. 0. 44. 0. 0. 0. 6. 0. 0. 0. 3. 0. 0. 0. 3. 0. 0. 0. 3.
      0. 0. 0. 0. 0. 0. 0. 5. 0. 0. 0. 1. 0. 0. 0. 1. 0. 0. 0. 0. 0. 0.
      0. 1. 0. 0. 0. 0. 0. 0. 0. 7. 0. 0. 0. 0. 0. 0. 0. 11. 0. 0. 0. 7.
      0. 0. 0. 111. 0. 0. 0. 4. 0. 0. 0. 6. 0. 0. 0. 2. 0. 0. 0. 2. 0.
      0. 0. 0. 0. 0. 0. 0. 0. 0. 0. 0. 0. 0. 0. 110. 1. 0. 0. 1. 0. 0.
      0. 5. 0. 0. 0. 7. 0. 0. 0. 158. 1. 0. 0. 0. 0. 0. 0. 9. 1. 0. 0.
      34. 0. 0. 0.</_>
    <_>
      161. 4. 0. 0. 123. 0. 0. 0. 97. 0. 0. 0. 136. 0. 0. 0. 245. 0. 0.
      0. 10. 0. 0. 0. 121. 0. 0. 0. 200. 0. 0. 0. 94. 0. 0. 0. 4. 0. 0.
      0. 10. 0. 0. 0. 13. 0. 0. 0. 118. 0. 0. 0. 8. 0. 0. 0. 164. 0. 0.
      0. 20. 1. 0. 0. 115. 0. 0. 0. 10. 0. 0. 0. 11. 0. 0. 0. 10. 0. 0.
      0. 7. 0. 0. 0. 2. 0. 0. 0. 6. 0. 0. 0. 2. 0. 0. 0. 123. 0. 0. 0.
      10. 0. 0. 0. 10. 0. 0. 0. 15. 0. 0. 0. 159. 0. 0. 0. 6. 0. 0. 0.
      184. 0. 0. 0. 96. 0. 0. 0. 94. 0. 0. 0. 4. 0. 0. 0. 9. 0. 0. 0. 6.
      0. 0. 0. 15. 0. 0. 0. 1. 0. 0. 0. 2. 0. 0. 0. 5. 0. 0. 0. 15. 0.
      0. 0. 1. 0. 0. 0. 3. 0. 0. 0. 1. 0. 0. 0. 19. 0. 0. 0. 1. 0. 0. 0.
      10. 0. 0. 0. 22. 0. 0. 0. 124. 0. 0. 0. 11. 0. 0. 0. 3. 0. 0. 0.
      4. 0. 0. 0. 14. 0. 0. 0. 0. 0. 0. 0. 3. 0. 0. 0. 0. 0. 0. 0. 143.
      1. 0. 0. 19. 0. 0. 0. 31. 0. 0. 0. 20. 0. 0. 0. 21. 2. 0. 0. 15.
      0. 0. 0. 191. 0. 0. 0. 88. 0. 0. 0.</_>
    <_>
      237. 3. 0. 0. 120. 0. 0. 0. 114. 0. 0. 0. 141. 0. 0. 0. 123. 0. 0.
      0. 1. 0. 0. 0. 140. 0. 0. 0. 172. 0. 0. 0. 89. 0. 0. 0. 8. 0. 0.
      0. 9. 0. 0. 0. 11. 0. 0. 0. 139. 0. 0. 0. 4. 0. 0. 0. 54. 1. 0. 0.
      4. 1. 0. 0. 102. 0. 0. 0. 5. 0. 0. 0. 5. 0. 0. 0. 2. 0. 0. 0. 3.
      0. 0. 0. 0. 0. 0. 0. 1. 0. 0. 0. 2. 0. 0. 0. 164. 0. 0. 0. 3. 0.
      0. 0. 7. 0. 0. 0. 8. 0. 0. 0. 176. 0. 0. 0. 0. 0. 0. 0. 232. 0. 0.
      0. 88. 0. 0. 0. 118. 0. 0. 0. 9. 0. 0. 0. 14. 0. 0. 0. 9. 0. 0. 0.
      12. 0. 0. 0. 0. 0. 0. 0. 6. 0. 0. 0. 6. 0. 0. 0. 6. 0. 0. 0. 1. 0.
      0. 0. 0. 0. 0. 0. 0. 0. 0. 0. 10. 0. 0. 0. 0. 0. 0. 0. 25. 0. 0.
      0. 17. 0. 0. 0. 179. 0. 0. 0. 4. 0. 0. 0. 7. 0. 0. 0. 4. 0. 0. 0.
      3. 0. 0. 0. 0. 0. 0. 0. 2. 0. 0. 0. 1. 0. 0. 0. 74. 2. 0. 0. 4. 0.
      0. 0. 17. 0. 0. 0. 12. 0. 0. 0. 209. 1. 0. 0. 2. 0. 0. 0. 244. 0.
      0. 0. 53. 0. 0. 0.</_>
    <_>
      2. 6. 0. 0. 155. 0. 0. 0. 98. 0. 0. 0. 83. 0. 0. 0. 236. 0. 0. 0.
      33. 0. 0. 0. 103. 0. 0. 0. 106. 0. 0. 0. 129. 0. 0. 0. 13. 0. 0.
      0. 12. 0. 0. 0. 14. 0. 0. 0. 132. 0. 0. 0. 16. 0. 0. 0. 138. 0. 0.
      0. 129. 0. 0. 0. 210. 0. 0. 0. 28. 0. 0. 0. 11. 0. 0. 0. 12. 0. 0.
      0. 31. 0. 0. 0. 1. 0. 0. 0. 13. 0. 0. 0. 8. 0. 0. 0. 157. 0. 0. 0.
      17. 0. 0. 0. 20. 0. 0. 0. 18. 0. 0. 0. 204. 0. 0. 0. 13. 0. 0. 0.
      159. 0. 0. 0. 105. 0. 0. 0. 114. 0. 0. 0. 12. 0. 0. 0. 5. 0. 0. 0.
      10. 0. 0. 0. 19. 0. 0. 0. 2. 0. 0. 0. 11. 0. 0. 0. 13. 0. 0. 0.
      28. 0. 0. 0. 5. 0. 0. 0. 4. 0. 0. 0. 4. 0. 0. 0. 33. 0. 0. 0. 5.
      0. 0. 0. 17. 0. 0. 0. 16. 0. 0. 0. 169. 0. 0. 0. 19. 0. 0. 0. 3.
      0. 0. 0. 6. 0. 0. 0. 16. 0. 0. 0. 3. 0. 0. 0. 16. 0. 0. 0. 6. 0.
      0. 0. 56. 1. 0. 0. 28. 0. 0. 0. 28. 0. 0. 0. 20. 0. 0. 0. 147. 1.
      0. 0. 19. 0. 0. 0. 227. 0. 0. 0. 127. 0. 0. 0.</_>
    <_>
      13. 4. 0. 0. 141. 0. 0. 0. 102. 0. 0. 0. 144. 0. 0. 0. 124. 0. 0.
      0. 14. 0. 0. 0. 202. 0. 0. 0. 243. 0. 0. 0. 119. 0. 0. 0. 17. 0.
      0. 0. 29. 0. 0. 0. 30. 0. 0. 0. 145. 0. 0. 0. 15. 0. 0. 0. 11. 2.
      0. 0. 92. 3. 0. 0. 137. 0. 0. 0. 26. 0. 0. 0. 14. 0. 0. 0. 4. 0.
      0. 0. 2. 0. 0. 0. 0. 0. 0. 0. 10. 0. 0. 0. 5. 0. 0. 0. 185. 0. 0.
      0. 18. 0. 0. 0. 14. 0. 0. 0. 16. 0. 0. 0. 206. 0. 0. 0. 8. 0. 0.
      0. 127. 1. 0. 0. 0. 1. 0. 0. 75. 0. 0. 0. 6. 0. 0. 0. 6. 0. 0. 0.
      9. 0. 0. 0. 5. 0. 0. 0. 1. 0. 0. 0. 5. 0. 0. 0. 4. 0. 0. 0. 18. 0.
      0. 0. 0. 0. 0. 0. 1. 0. 0. 0. 2. 0. 0. 0. 16. 0. 0. 0. 0. 0. 0. 0.
      33. 0. 0. 0. 24. 0. 0. 0. 115. 0. 0. 0. 10. 0. 0. 0. 9. 0. 0. 0.
      5. 0. 0. 0. 5. 0. 0. 0. 1. 0. 0. 0. 3. 0. 0. 0. 1. 0. 0. 0. 194.
      1. 0. 0. 9. 0. 0. 0. 23. 0. 0. 0. 19. 0. 0. 0. 214. 1. 0. 0. 5. 0.
      0. 0. 43. 1. 0. 0. 103. 0. 0. 0.</_>
    <_>
      61. 2. 0. 0. 97. 0. 0. 0. 46. 0. 0. 0. 144. 0. 0. 0. 109. 0. 0. 0.
